{"learner":{"attributes":{},"feature_names":["V1","V2","V3","V4","V5","V6","V7","V8","V9","V10","V11","V12","V13","V14","V15","V16","V17","V18","V19","V20","V21","V22","V23","V24","V25","V26","V27","V28","scaled_amount","scaled_time"],"feature_types":["float","float","float","float","float","float","float","float","float","float","float","float","float","float","float","float","float","float","float","float","float","float","float","float","float","float","float","float","float","float"],"gradient_booster":{"model":{"cats":{"enc":[],"feature_segments":[],"sorted_idx":[]},"gbtree_model_param":{"num_parallel_tree":"1","num_trees":"50"},"iteration_indptr":[0,1,2,3,4,5,6,7,8,9,10,11,12,13,14,15,16,17,18,19,20,21,22,23,24,25,26,27,28,29,30,31,32,33,34,35,36,37,38,39,40,41,42,43,44,45,46,47,48,49,50],"tree_info":[0,0,0,0,0,0,0,0,0,0,0,0,0,0,0,0,0,0,0,0,0,0,0,0,0,0,0,0,0,0,0,0,0,0,0,0,0,0,0,0,0,0,0,0,0,0,0,0,0,0],"trees":[{"base_weights":[4.8158804E-1,1.0717562E0,-3.307828E0,-4.6416698E0,1.126674E0,-5.68427E0,-2.0754564E0,-5.883237E0,-1.3790226E0,1.1412296E0,-4.4672375E0,-5.8280935E0,-1.2259308E0,-1.4750154E0,-1.0302964E0,-1.0304515E0,-4.4681373E0,-1.0244393E0,4.0138838E-1,1.1500196E0,-3.3652527E0,1.1638596E0,-5.4985867E0,-4.7138224E0,-5.905677E0,-1.0220578E0,1.0625836E0,-4.1135085E-1,-4.624864E0,-1.0023711E0,-1.6713938E-1,-9.971678E-1,9.199185E-1,9.144385E-2,1.1729256E0,-1.0268718E0,5.071528E-1,2.0651525E-1,-1.1258673E-2,-1.0286034E0,-2.0689802E0,-5.885075E0,-1.4031425E0,-1.0301422E0,-4.7602854E0,-8.382843E-1,2.0817618E-1,9.587467E-2,-2.0210485E0,-5.638156E0,-7.858651E-1,-6.988287E-1,1.876025E-1,1.9007133E-1,-9.263085E-1,9.393703E-2,-9.460903E-1,-1.0103734E0,2.0421788E-1,-9.5917445E-1,1.9191761E-1,1.4672814E-1,-9.8526424E-1,-4.173442E-1,-1.0291631E0,-1.0107783E0,5.006658E-2,1.585037E-2,-1.0238212E0,-1.0253029E0,3.4594096E-2,-2.206551E-1,-8.866592E-1,-1.0033482E0,-4.3844628E-1,-1.0258332E0,8.585535E-2],"categories":[],"categories_nodes":[],"categories_segments":[],"categories_sizes":[],"default_left":[0,0,0,0,0,0,0,0,0,0,0,0,0,0,0,0,0,0,0,0,0,0,0,0,0,0,0,0,0,0,0,0,0,0,0,0,0,0,0,0,0,0,0,0,0,0,0,0,0,0,0,0,0,0,0,0,0,0,0,0,0,0,0,0,0,0,0,0,0,0,0,0,0,0,0,0,0],"id":0,"left_children":[1,3,5,7,9,11,13,15,17,19,21,23,25,27,-1,-1,29,-1,31,33,35,37,39,41,43,-1,45,47,49,-1,51,-1,53,55,57,-1,59,-1,-1,-1,61,63,65,-1,67,-1,-1,69,71,73,75,-1,-1,-1,-1,-1,-1,-1,-1,-1,-1,-1,-1,-1,-1,-1,-1,-1,-1,-1,-1,-1,-1,-1,-1,-1,-1],"loss_changes":[5.28998E5,6.4222844E4,9.3339E4,7.885758E3,1.6510875E4,6.9720625E3,4.852817E4,6.132422E1,4.3294863E3,8.013125E3,3.0630312E3,8.8371875E2,3.6418088E3,6.084543E4,0E0,0E0,2.590381E2,0E0,1.237085E3,4.8930625E3,3.8791245E3,2.5062332E0,6.256992E2,2.6723965E3,1.9465625E2,0E0,1.8805484E2,1.10861455E4,1.7829656E4,0E0,6.112417E1,0E0,3.934145E2,1.0622043E4,2.414E3,0E0,5.7047516E2,0E0,0E0,0E0,5.276366E2,4.7527344E1,1.3590712E3,0E0,9.429592E2,0E0,0E0,6.3822603E3,7.5247773E3,1.4903516E3,6.2769985E3,0E0,0E0,0E0,0E0,0E0,0E0,0E0,0E0,0E0,0E0,0E0,0E0,0E0,0E0,0E0,0E0,0E0,0E0,0E0,0E0,0E0,0E0,0E0,0E0,0E0,0E0],"parents":[2147483647,0,0,1,1,2,2,3,3,4,4,5,5,6,6,7,7,8,8,9,9,10,10,11,11,12,12,13,13,16,16,18,18,19,19,20,20,21,21,22,22,23,23,24,24,26,26,27,27,28,28,30,30,32,32,33,33,34,34,36,36,40,40,41,41,42,42,44,44,47,47,48,48,49,49,50,50],"right_children":[2,4,6,8,10,12,14,16,18,20,22,24,26,28,-1,-1,30,-1,32,34,36,38,40,42,44,-1,46,48,50,-1,52,-1,54,56,58,-1,60,-1,-1,-1,62,64,66,-1,68,-1,-1,70,72,74,76,-1,-1,-1,-1,-1,-1,-1,-1,-1,-1,-1,-1,-1,-1,-1,-1,-1,-1,-1,-1,-1,-1,-1,-1,-1,-1],"split_conditions":[-7.138002E-1,-4.3995512E-1,6.1925754E-2,1.0953263E0,7.368134E-1,1.5908993E0,2.2281127E-1,1.0088578E0,1.6283286E-1,1.5664245E0,-1.1976441E1,-1.5471063E0,8.399048E-1,1.1269214E0,-1.0302964E0,-1.0304515E0,-5.1927054E-1,-1.0244393E0,2.3302653E-1,-3.0009496E-1,3.8072357E-1,-6.086076E0,1.9232502E0,-1.3021132E-1,3.981055E-2,-1.0220578E0,2.8698054E-1,1.9336021E-1,4.0843195E-1,-1.0023711E0,1.297097E0,-9.971678E-1,-1.643659E-1,5.732129E-2,-1.297215E0,-1.0268718E0,2.6901963E-1,2.0651525E-1,-1.1258673E-2,-1.0286034E0,-1.08494915E-1,-6.892534E-1,1.6869856E-1,-1.0301422E0,-5.924608E-1,-8.382843E-1,2.0817618E-1,-1.6692325E0,3.506184E-1,3.399298E-2,-8.932722E-3,-6.988287E-1,1.876025E-1,1.9007133E-1,-9.263085E-1,9.393703E-2,-9.460903E-1,-1.0103734E0,2.0421788E-1,-9.5917445E-1,1.9191761E-1,1.4672814E-1,-9.8526424E-1,-4.173442E-1,-1.0291631E0,-1.0107783E0,5.006658E-2,1.585037E-2,-1.0238212E0,-1.0253029E0,3.4594096E-2,-2.206551E-1,-8.866592E-1,-1.0033482E0,-4.3844628E-1,-1.0258332E0,8.585535E-2],"split_indices":[13,3,3,10,11,21,7,10,20,2,7,12,20,0,0,0,3,0,23,10,20,6,10,3,3,0,8,11,1,0,0,0,12,11,23,0,10,0,0,0,12,13,20,0,19,0,0,29,23,27,26,0,0,0,0,0,0,0,0,0,0,0,0,0,0,0,0,0,0,0,0,0,0,0,0,0,0],"split_type":[0,0,0,0,0,0,0,0,0,0,0,0,0,0,0,0,0,0,0,0,0,0,0,0,0,0,0,0,0,0,0,0,0,0,0,0,0,0,0,0,0,0,0,0,0,0,0,0,0,0,0,0,0,0,0,0,0,0,0,0,0,0,0,0,0,0,0,0,0,0,0,0,0,0,0,0,0],"sum_hessian":[2.3653816E5,2.0466422E5,3.1873934E4,1.9477224E3,2.027165E5,1.0883377E4,2.0990557E4,1.4102595E3,5.374629E2,2.0219119E5,5.253132E2,1.054296E4,3.404174E2,1.816031E4,2.8302463E3,1.3646704E3,4.5589104E1,1.5138086E2,3.8608203E2,2.0179831E5,3.9286853E2,8.129877E1,4.4401437E2,6.903099E2,9.852649E3,1.1171346E2,2.2870393E2,1.3576744E4,4.5835664E3,3.476153E1,1.0827574E1,2.9294998E1,3.5678705E2,4.274232E3,1.9752408E5,2.3688301E2,1.5598552E2,7.9771996E1,1.5267724E0,3.9513208E2,4.8882313E1,5.093384E2,1.8097145E2,9.681557E3,1.7109328E2,4.3451915E0,2.2435873E2,1.0324403E4,3.2523418E3,3.626021E3,9.5754535E2,2.102512E0,8.725062E0,3.4795648E2,8.83055E0,3.9543455E3,3.198863E2,4.849794E1,1.974756E5,1.3315908E1,1.426696E2,2.7436693E1,2.1445621E1,5.7167263E0,5.0362167E2,4.9479115E1,1.3149234E2,3.246765E1,1.3862561E2,1.7366748E2,1.0150735E4,2.6151885E3,6.3715314E2,3.4766204E3,1.4940054E2,1.9090808E2,7.6663727E2],"tree_param":{"num_deleted":"0","num_feature":"30","num_nodes":"77","size_leaf_vector":"1"}},{"base_weights":[4.6478537E-1,1.0462153E0,-1.8029517E0,-2.1449485E0,1.0996753E0,-2.1508605E0,-2.0320643E-1,-2.9029279E0,-4.5961413E-1,1.1280882E0,-5.5262595E-1,-2.4016333E0,-5.7065094E-1,6.4961857E-1,-1.9149928E0,-4.7953537E-1,-4.416247E0,-2.8718317E0,5.046626E-1,1.1346257E0,-1.0756453E0,-2.9935348E0,3.350309E-1,-1.2797791E0,-2.6273766E0,2.9010922E-1,-2.8817177E0,8.623514E-1,-2.739498E0,-9.452813E-1,-3.1920805E0,-4.9296155E0,-3.5756165E-1,-4.8120394E-1,-4.235968E0,-2.9235423E0,9.190532E-1,1.1397178E0,-1.4205819E0,6.237336E-1,-4.8016934E0,-7.200736E-1,-3.202633E0,-3.141123E0,7.0849115E-1,3.1847322E-1,-2.3850605E0,-2.70714E0,-1.09589E0,-4.8331606E-1,7.1491885E-1,1.007527E0,-3.150317E0,9.624615E-1,-2.9464898E0,-1.2862604E0,-4.8110008E-1,5.531062E-1,-1.9376189E0,-2.063069E0,-3.4939206E0,-1.0704948E0,-6.4535415E-1,-7.664125E-1,1.6903688E-1,-8.0221254E-1,1.053127E-1,-4.8136568E-1,-7.222711E-1,-5.385076E-1,1.827889E-1,-5.6004936E-1,1.9839087E-1,-5.094373E-1,9.907908E-2,-9.059254E-1,1.7699414E-1,-9.183994E-1,1.8689767E-1,-4.8814192E-1,1.7996038E-1,-6.335543E-1,-4.7924381E-1,1.453022E-1,-6.0482687E-1,1.4554703E-1,-7.45818E-1,1.3160652E-1,-4.5402277E-1,-4.7391173E-1,-1.4855726E-1,-5.1046145E-1,-4.123247E-1,1.4100766E-1,-4.9842098E-1,1.5566185E-1,-7.1071595E-1,2.0530733E-1,-4.2660138E-1,-4.8470262E-1,-6.6921806E-1,1.7502613E-1,-7.2859424E-1,-4.7808364E-1,-5.820762E-1,-3.978442E-1,1.8337306E-1,1.265233E-1,-8.773202E-1,-5.827648E-1,-8.74007E-2,-5.624999E-1,-3.439576E-2,-7.2079927E-1,-4.787379E-1],"categories":[],"categories_nodes":[],"categories_segments":[],"categories_sizes":[],"default_left":[0,0,0,0,0,0,0,0,0,0,0,0,0,0,0,0,0,0,0,0,0,0,0,0,0,0,0,0,0,0,0,0,0,0,0,0,0,0,0,0,0,0,0,0,0,0,0,0,0,0,0,0,0,0,0,0,0,0,0,0,0,0,0,0,0,0,0,0,0,0,0,0,0,0,0,0,0,0,0,0,0,0,0,0,0,0,0,0,0,0,0,0,0,0,0,0,0,0,0,0,0,0,0,0,0,0,0,0,0,0,0,0,0,0,0],"id":1,"left_children":[1,3,5,7,9,11,13,15,17,19,21,23,25,27,29,-1,31,33,35,37,39,41,43,45,47,49,51,53,55,57,59,61,63,-1,65,67,69,71,73,75,77,79,81,83,85,87,89,91,93,-1,95,97,99,101,103,105,-1,107,109,111,113,-1,-1,-1,-1,-1,-1,-1,-1,-1,-1,-1,-1,-1,-1,-1,-1,-1,-1,-1,-1,-1,-1,-1,-1,-1,-1,-1,-1,-1,-1,-1,-1,-1,-1,-1,-1,-1,-1,-1,-1,-1,-1,-1,-1,-1,-1,-1,-1,-1,-1,-1,-1,-1,-1],"loss_changes":[2.9471934E5,3.035311E4,2.5386766E4,3.7436504E3,8.215172E3,1.4845406E4,1.1897785E4,4.3033398E2,2.1196628E3,2.4794844E3,6.4115635E3,8.185328E3,1.0211136E4,3.9244739E3,3.3532266E3,0E0,3.6225977E2,2.5165771E1,9.2812256E2,2.2332188E3,3.2279036E3,3.7282275E2,2.8200706E3,9.572524E3,3.2850938E3,4.880736E3,1.4583486E3,1.9549033E3,9.436035E0,2.2936836E3,3.9125488E2,2.088877E2,1.15773865E2,0E0,3.308966E1,1.9210205E0,3.1262915E2,1.0751719E3,1.0280857E3,8.1213525E2,4.5692358E2,2.5119038E2,1.3222607E2,2.8609497E2,1.2650078E3,2.8494717E3,1.6690684E3,1.9586719E3,4.5082715E3,0E0,2.852422E3,5.736615E1,3.1932324E2,1.1431177E3,1.161499E0,2.09628E1,0E0,6.0522876E2,1.8813596E3,5.4411316E2,4.332461E2,0E0,0E0,0E0,0E0,0E0,0E0,0E0,0E0,0E0,0E0,0E0,0E0,0E0,0E0,0E0,0E0,0E0,0E0,0E0,0E0,0E0,0E0,0E0,0E0,0E0,0E0,0E0,0E0,0E0,0E0,0E0,0E0,0E0,0E0,0E0,0E0,0E0,0E0,0E0,0E0,0E0,0E0,0E0,0E0,0E0,0E0,0E0,0E0,0E0,0E0,0E0,0E0,0E0,0E0],"parents":[2147483647,0,0,1,1,2,2,3,3,4,4,5,5,6,6,7,7,8,8,9,9,10,10,11,11,12,12,13,13,14,14,16,16,17,17,18,18,19,19,20,20,21,21,22,22,23,23,24,24,25,25,26,26,27,27,28,28,29,29,30,30,31,31,32,32,34,34,35,35,36,36,37,37,38,38,39,39,40,40,41,41,42,42,43,43,44,44,45,45,46,46,47,47,48,48,50,50,51,51,52,52,53,53,54,54,55,55,57,57,58,58,59,59,60,60],"right_children":[2,4,6,8,10,12,14,16,18,20,22,24,26,28,30,-1,32,34,36,38,40,42,44,46,48,50,52,54,56,58,60,62,64,-1,66,68,70,72,74,76,78,80,82,84,86,88,90,92,94,-1,96,98,100,102,104,106,-1,108,110,112,114,-1,-1,-1,-1,-1,-1,-1,-1,-1,-1,-1,-1,-1,-1,-1,-1,-1,-1,-1,-1,-1,-1,-1,-1,-1,-1,-1,-1,-1,-1,-1,-1,-1,-1,-1,-1,-1,-1,-1,-1,-1,-1,-1,-1,-1,-1,-1,-1,-1,-1,-1,-1,-1,-1],"split_conditions":[-8.18786E-1,-2.9546663E-1,1.6514935E0,9.850936E-1,2.84044E-1,6.8227494E-1,-3.2272398E-1,-4.3995512E-1,1.1032594E-1,1.9223678E0,8.1087124E-1,-4.7095296E-1,-2.3779042E-1,2.2281127E-1,5.7856135E-2,-4.7953537E-1,8.89752E-1,-4.3995512E-1,1.5421681E-1,1.416365E0,-1.6195019E-1,-2.3220022E0,9.519198E-2,-7.632768E-1,5.928843E-1,3.981055E-2,-1.3765045E0,1.1968485E0,2.2982696E-1,-2.5744057E-1,-1.1381463E0,5.732129E-2,1.3667697E0,-4.8120394E-1,1.9057143E0,-4.3995512E-1,-2.3432854E-1,-1.297215E0,2.6473966E-1,1.23336636E-1,7.3024035E-1,1.0287259E0,7.368134E-1,-7.519059E-1,1.2064921E0,-1.7829655E-2,7.761709E-1,2.0798723E-1,-1.3368732E0,-4.8331606E-1,2.4337828E-1,-3.0659773E0,1.2799907E-1,1.2456877E0,-8.932722E-3,1.1774383E0,-4.8110008E-1,1.2396048E0,-8.765557E-2,3.9927942E-1,2.2281127E-1,-1.0704948E0,-6.4535415E-1,-7.664125E-1,1.6903688E-1,-8.0221254E-1,1.053127E-1,-4.8136568E-1,-7.222711E-1,-5.385076E-1,1.827889E-1,-5.6004936E-1,1.9839087E-1,-5.094373E-1,9.907908E-2,-9.059254E-1,1.7699414E-1,-9.183994E-1,1.8689767E-1,-4.8814192E-1,1.7996038E-1,-6.335543E-1,-4.7924381E-1,1.453022E-1,-6.0482687E-1,1.4554703E-1,-7.45818E-1,1.3160652E-1,-4.5402277E-1,-4.7391173E-1,-1.4855726E-1,-5.1046145E-1,-4.123247E-1,1.4100766E-1,-4.9842098E-1,1.5566185E-1,-7.1071595E-1,2.0530733E-1,-4.2660138E-1,-4.8470262E-1,-6.6921806E-1,1.7502613E-1,-7.2859424E-1,-4.7808364E-1,-5.820762E-1,-3.978442E-1,1.8337306E-1,1.265233E-1,-8.773202E-1,-5.827648E-1,-8.74007E-2,-5.624999E-1,-3.439576E-2,-7.2079927E-1,-4.787379E-1],"split_indices":[13,3,3,10,11,28,28,3,20,0,16,13,25,7,13,0,10,3,23,2,25,2,15,12,20,3,16,0,7,7,10,11,15,0,0,3,8,23,20,21,24,17,11,25,1,29,3,15,12,0,24,0,3,12,26,11,0,1,10,24,7,0,0,0,0,0,0,0,0,0,0,0,0,0,0,0,0,0,0,0,0,0,0,0,0,0,0,0,0,0,0,0,0,0,0,0,0,0,0,0,0,0,0,0,0,0,0,0,0,0,0,0,0,0,0],"split_type":[0,0,0,0,0,0,0,0,0,0,0,0,0,0,0,0,0,0,0,0,0,0,0,0,0,0,0,0,0,0,0,0,0,0,0,0,0,0,0,0,0,0,0,0,0,0,0,0,0,0,0,0,0,0,0,0,0,0,0,0,0,0,0,0,0,0,0,0,0,0,0,0,0,0,0,0,0,0,0,0,0,0,0,0,0,0,0,0,0,0,0,0,0,0,0,0,0,0,0,0,0,0,0,0,0,0,0,0,0,0,0,0,0,0,0],"sum_hessian":[2.2351867E5,1.7790561E5,4.5613062E4,2.9306116E3,1.74975E5,3.7464934E4,8.1481294E3,2.0209612E3,9.0965027E2,1.7201731E5,2.957689E3,3.2333256E4,5.1316763E3,5.4389995E3,2.7091301E3,1.847253E3,1.7370813E2,2.5921768E2,6.5043256E2,1.71509E5,5.0830588E2,7.881194E2,2.1695698E3,5.417434E3,2.6915822E4,3.7396956E3,1.3919806E3,5.118462E3,3.2053735E2,1.5408672E3,1.1682631E3,1.54013E2,1.9695127E1,2.4368217E2,1.5535507E1,6.949053E1,5.80942E2,1.7116844E5,3.4055902E2,3.4966364E2,1.5864226E2,6.67551E1,7.2136426E2,2.097562E2,1.9598135E3,2.215092E3,3.202342E3,2.5582652E4,1.3331688E3,4.5388123E2,3.2858142E3,8.974515E1,1.3022355E3,4.988104E3,1.30358E2,6.9063954E0,3.1363095E2,6.1407806E2,9.267891E2,2.4809943E2,9.201636E2,7.465858E1,7.9354416E1,4.2955704E0,1.5399557E1,1.445293E1,1.0825769E0,6.4618835E1,4.8716955E0,1.7818197E1,5.6312384E2,5.5580368E1,1.7111286E5,1.9339941E2,1.4715959E2,2.1363203E1,3.283004E2,1.4673392E2,1.1908345E1,3.0215519E1,3.6539577E1,3.5886725E2,3.6249704E2,1.6309566E1,1.9344662E2,1.91143E3,4.838349E1,1.9273676E3,2.8772446E2,2.6183696E3,5.839724E2,1.519712E4,1.0385533E4,6.4221155E2,6.909573E2,3.167616E3,1.18198296E2,8.609091E1,3.6542318E0,8.610066E2,4.4122882E2,4.946391E3,4.171294E1,9.279708E1,3.7560913E1,4.851865E0,2.0545309E0,5.963466E2,1.7731455E1,4.6604187E2,4.6074725E2,1.5188918E2,9.621026E1,4.8673035E2,4.3343326E2],"tree_param":{"num_deleted":"0","num_feature":"30","num_nodes":"115","size_leaf_vector":"1"}},{"base_weights":[4.4092563E-1,1.0100214E0,-1.3852879E0,-1.601907E0,1.0654715E0,-2.0449183E0,-9.070317E-1,-2.1293402E0,-3.049081E-1,1.0951563E0,-4.092307E-1,-2.0773225E0,-5.168457E-1,3.2069692E-1,-1.2155217E0,-2.1508183E0,1.908752E-2,-2.1700242E0,5.1134026E-1,1.2420617E-1,1.1107236E0,-2.2198567E0,3.1595126E-1,-1.770059E0,-2.114302E0,9.6236014E-1,-3.7130678E-1,7.1277285E-1,-2.225003E0,-2.002634E0,-6.0728556E-1,-3.6306944E-1,-2.5919876E0,-3.5362002E-1,1.8783616E-1,-3.6368018E-1,-2.9796343E0,-3.803585E-1,8.765134E-1,8.489263E-1,-2.8100839E0,1.1116756E0,-4.690125E0,-6.426733E-1,-2.3431988E0,-2.5987813E0,6.2682956E-1,-3.6424315E-1,-5.6128263E-1,-2.1282601E0,-1.8391362E0,-3.403853E-1,1.1337918E0,8.211549E-1,-3.1525648E0,-2.8232367E0,-8.73049E-1,-2.3101606E0,1.2281899E-1,7.771078E-2,-1.787336E0,-5.014711E-1,5.123428E-3,-5.6772006E-1,-2.5696918E-1,1.7394704E-1,-4.946267E-1,1.6725186E-1,-6.7316896E-1,8.5540086E-2,-6.081337E-1,1.9388947E-1,-3.5603203E-2,-1.1465901E0,-3.298501E-1,-3.8919738E-1,1.712202E-1,-3.541436E-1,-4.7007096E-1,-5.424494E-1,-3.4147394E-1,1.3388793E-1,-6.260258E-1,-3.7504834E-1,1.045499E-1,-3.6808285E-1,-4.3693417E-1,-3.6971968E-1,-7.39098E-2,1.9845432E-1,1.2999E-2,1.5599634E-1,-5.652447E-1,-6.0405463E-1,-3.4614104E-1,-5.534385E-1,-3.6366373E-1,-6.1261064E-1,9.394361E-2,-6.672189E-2,-4.079797E-1,1.3370213E-1,-3.902992E-1,9.8695524E-2,-2.4642916E-1,-3.5854802E-1,1.572445E-1],"categories":[],"categories_nodes":[],"categories_segments":[],"categories_sizes":[],"default_left":[0,0,0,0,0,0,0,0,0,0,0,0,0,0,0,0,0,0,0,0,0,0,0,0,0,0,0,0,0,0,0,0,0,0,0,0,0,0,0,0,0,0,0,0,0,0,0,0,0,0,0,0,0,0,0,0,0,0,0,0,0,0,0,0,0,0,0,0,0,0,0,0,0,0,0,0,0,0,0,0,0,0,0,0,0,0,0,0,0,0,0,0,0,0,0,0,0,0,0,0,0,0,0,0,0,0,0],"id":2,"left_children":[1,3,5,7,9,11,13,15,17,19,21,23,25,27,29,31,33,35,37,39,41,43,45,47,49,51,-1,53,55,57,59,-1,61,-1,-1,-1,63,-1,65,67,69,71,73,75,77,79,81,-1,83,85,87,-1,89,91,93,95,97,99,101,103,105,-1,-1,-1,-1,-1,-1,-1,-1,-1,-1,-1,-1,-1,-1,-1,-1,-1,-1,-1,-1,-1,-1,-1,-1,-1,-1,-1,-1,-1,-1,-1,-1,-1,-1,-1,-1,-1,-1,-1,-1,-1,-1,-1,-1,-1,-1],"loss_changes":[2.109711E5,2.2416688E4,1.5213148E4,2.2005195E3,6.634672E3,1.0026172E3,1.0590092E4,1.0558789E2,1.4190533E3,2.2453594E3,3.9281267E3,2.2178125E2,1.01322723E3,5.606475E3,1.0696789E4,5.6958008E1,5.3692814E1,1.1711182E1,6.412897E2,4.989977E3,8.12625E2,1.6491943E2,1.9376571E3,8.3909863E2,6.411719E1,1.1302635E2,0E0,2.0414626E3,6.038733E2,6.366742E3,1.0190417E4,0E0,2.1216296E2,0E0,0E0,0E0,4.880249E0,0E0,2.669329E2,1.008541E3,1.0575085E3,6.9025E2,1.1615027E2,1.6696756E2,8.206299E1,6.2073486E1,1.1729365E3,0E0,8.447962E2,6.6234375E1,3.4970825E2,0E0,1.6304932E0,1.4711575E3,4.2804688E1,1.3013477E2,8.6893567E2,5.983281E2,1.8870679E3,5.845232E3,3.4299678E3,0E0,0E0,0E0,0E0,0E0,0E0,0E0,0E0,0E0,0E0,0E0,0E0,0E0,0E0,0E0,0E0,0E0,0E0,0E0,0E0,0E0,0E0,0E0,0E0,0E0,0E0,0E0,0E0,0E0,0E0,0E0,0E0,0E0,0E0,0E0,0E0,0E0,0E0,0E0,0E0,0E0,0E0,0E0,0E0,0E0,0E0],"parents":[2147483647,0,0,1,1,2,2,3,3,4,4,5,5,6,6,7,7,8,8,9,9,10,10,11,11,12,12,13,13,14,14,15,15,16,16,17,17,18,18,19,19,20,20,21,21,22,22,23,23,24,24,25,25,27,27,28,28,29,29,30,30,32,32,36,36,38,38,39,39,40,40,41,41,42,42,43,43,44,44,45,45,46,46,48,48,49,49,50,50,52,52,53,53,54,54,55,55,56,56,57,57,58,58,59,59,60,60],"right_children":[2,4,6,8,10,12,14,16,18,20,22,24,26,28,30,32,34,36,38,40,42,44,46,48,50,52,-1,54,56,58,60,-1,62,-1,-1,-1,64,-1,66,68,70,72,74,76,78,80,82,-1,84,86,88,-1,90,92,94,96,98,100,102,104,106,-1,-1,-1,-1,-1,-1,-1,-1,-1,-1,-1,-1,-1,-1,-1,-1,-1,-1,-1,-1,-1,-1,-1,-1,-1,-1,-1,-1,-1,-1,-1,-1,-1,-1,-1,-1,-1,-1,-1,-1,-1,-1,-1,-1,-1,-1],"split_conditions":[-8.18786E-1,-2.6561344E-1,1.05807155E-1,9.850936E-1,2.7048695E-1,1.5908993E0,-4.5335245E-1,3.747761E0,9.616071E-2,-4.672767E-1,7.8632516E-1,-9.1457206E-1,-7.124104E-1,4.939674E-2,-4.101432E-3,-4.3995512E-1,-4.927764E-1,-4.3995512E-1,1.2212007E-1,-3.0887944E-1,3.8440037E0,-2.3220022E0,1.680159E-1,-1.8144488E-1,5.5779177E-1,6.415935E-1,-3.7130678E-1,1.0771153E0,3.0645928E-1,9.690464E-1,-5.7890065E-2,-3.6306944E-1,8.89752E-1,-3.5362002E-1,1.8783616E-1,-3.6368018E-1,7.197151E-1,-3.803585E-1,5.9271854E-1,2.7052975E-1,-9.8312664E-1,1.9223678E0,1.5664245E0,1.0287259E0,-3.0009496E-1,7.197151E-1,3.0047935E-1,-3.6424315E-1,2.8823045E-1,6.1925754E-2,-8.258074E-2,-3.403853E-1,-1.3368732E0,6.2627447E-1,1.099583E0,1.1351627E0,-6.84802E-1,-8.001607E-1,8.24386E-1,2.1283421E-1,1.0788593E0,-5.014711E-1,5.123428E-3,-5.6772006E-1,-2.5696918E-1,1.7394704E-1,-4.946267E-1,1.6725186E-1,-6.7316896E-1,8.5540086E-2,-6.081337E-1,1.9388947E-1,-3.5603203E-2,-1.1465901E0,-3.298501E-1,-3.8919738E-1,1.712202E-1,-3.541436E-1,-4.7007096E-1,-5.424494E-1,-3.4147394E-1,1.3388793E-1,-6.260258E-1,-3.7504834E-1,1.045499E-1,-3.6808285E-1,-4.3693417E-1,-3.6971968E-1,-7.39098E-2,1.9845432E-1,1.2999E-2,1.5599634E-1,-5.652447E-1,-6.0405463E-1,-3.4614104E-1,-5.534385E-1,-3.6366373E-1,-6.1261064E-1,9.394361E-2,-6.672189E-2,-4.079797E-1,1.3370213E-1,-3.902992E-1,9.8695524E-2,-2.4642916E-1,-3.5854802E-1,1.572445E-1],"split_indices":[13,3,3,10,11,21,7,6,20,10,16,18,19,12,4,3,0,3,23,23,9,2,17,3,20,20,0,13,15,6,18,0,10,0,0,0,11,0,23,12,8,0,2,17,10,11,23,0,28,3,3,0,12,24,0,0,0,19,3,13,25,0,0,0,0,0,0,0,0,0,0,0,0,0,0,0,0,0,0,0,0,0,0,0,0,0,0,0,0,0,0,0,0,0,0,0,0,0,0,0,0,0,0,0,0,0,0],"split_type":[0,0,0,0,0,0,0,0,0,0,0,0,0,0,0,0,0,0,0,0,0,0,0,0,0,0,0,0,0,0,0,0,0,0,0,0,0,0,0,0,0,0,0,0,0,0,0,0,0,0,0,0,0,0,0,0,0,0,0,0,0,0,0,0,0,0,0,0,0,0,0,0,0,0,0,0,0,0,0,0,0,0,0,0,0,0,0,0,0,0,0,0,0,0,0,0,0,0,0,0,0,0,0,0,0,0,0],"sum_hessian":[2.0299295E5,1.5476469E5,4.8228273E4,3.216707E3,1.5154798E5,2.0269066E4,2.7959205E4,2.2863186E3,9.3038837E2,1.4855788E5,2.9901086E3,1.9847816E4,4.2124927E2,5.614515E3,2.2344691E4,2.2636873E3,2.2631445E1,2.8271957E2,6.4766876E2,2.344403E3,1.4621347E5,8.545119E2,2.1355967E3,2.137352E3,1.7710465E4,2.2033546E2,2.0091382E2,4.865825E3,7.4869006E2,9.739112E3,1.2605578E4,1.9881002E3,2.755869E2,7.400048E0,1.5231398E1,2.6110898E2,2.1610586E1,7.658667E1,5.710821E2,1.8806299E3,4.6377322E2,1.4619028E5,2.318204E1,6.2429684E1,7.920822E2,2.0511546E2,1.9304812E3,1.6837869E3,4.5356512E2,1.684903E4,8.6143536E2,1.1639534E1,2.0869592E2,4.7338774E3,1.3194788E2,5.182697E2,2.3042036E2,8.5080205E3,1.2310919E3,7.9763794E3,4.629199E3,2.4783382E2,2.7753103E1,1.7166918E1,4.4436684E0,5.5337006E2,1.7712076E1,1.8374027E3,4.322724E1,8.000884E1,3.8376437E2,1.4579338E5,3.9690564E2,1.2971823E1,1.02102165E1,3.1330593E1,3.109909E1,4.320186E2,3.600636E2,1.10449936E2,9.466553E1,1.8679836E3,6.2497482E1,1.907972E2,2.627679E2,1.6386045E4,4.6298373E2,7.1545795E2,1.4597746E2,2.07107E2,1.588934E0,4.647758E3,8.611966E1,1.0175083E2,3.0197039E1,3.4502252E2,1.7324718E2,7.9615944E1,1.5080441E2,1.5866466E2,8.349355E3,9.676668E2,2.6342508E2,6.008076E3,1.968303E3,4.200253E3,4.2894632E2],"tree_param":{"num_deleted":"0","num_feature":"30","num_nodes":"107","size_leaf_vector":"1"}},{"base_weights":[4.2001772E-1,1.0507472E0,-9.8273706E-1,-9.7563475E-1,1.0738918E0,-1.653336E0,-4.9544233E-1,-1.7660533E0,9.411967E-2,1.078893E0,-2.505351E0,-1.0299803E0,-1.7562835E0,1.09204836E-1,-1.0931861E0,-1.7908785E0,-9.827379E-1,7.314949E-1,-1.8432635E0,1.0894036E0,1.7904563E-2,-3.3740883E0,9.9734104E-1,-1.82531E0,-1.5605421E-1,-9.523257E-1,-1.7880712E0,7.739738E-1,-5.340013E-1,5.2558713E-2,-1.2852103E0,-3.0515438E-1,-2.0474646E0,-1.7313312E0,6.9374293E-1,-3.0424628E-1,9.580633E-1,-3.2297057E-1,-9.418959E-2,1.09412E0,-2.324617E-1,5.9569037E-1,-1.722628E0,-4.5501466E0,-1.9761562E0,-1.2301244E-1,1.8757302E-1,-2.6641625E-1,-1.8542418E0,-1.6183789E0,6.049606E-1,-3.1083924E-1,7.400703E-1,-1.7290146E0,-1.8297758E0,9.4270104E-1,-1.0907332E0,-6.816092E-2,-1.8571297E0,7.63811E-1,-2.035902E0,-3.0492336E-1,-1.5742799E0,-3.1745976E-1,-4.0184382E-1,-3.305661E-1,-1.2734315E-1,-9.0334944E-2,1.7216912E-1,-5.930451E-1,1.7702098E-1,-4.0750873E-1,1.9039972E-1,1.6063188E-1,-4.2910954E-1,-6.3792765E-1,1.452879E-1,-3.648552E-1,-9.89941E-2,-9.769784E-1,-4.2629695E-1,8.461909E-3,-3.507295E-1,-3.4668738E-1,1.8069568E-1,-3.656495E-1,-3.1654182E-1,-3.115579E-1,1.1491845E-1,-3.8838163E-1,1.5965246E-1,-4.2399627E-1,1.8880385E-1,-2.3970476E-1,-3.053245E-1,-3.135155E-1,-3.8521454E-1,1.7248097E-1,-4.3679002E-1,1.7744957E-1,-3.7648627E-1,5.8693025E-2,-3.083413E-1,-3.3465695E-1,-4.567751E-3,1.7636769E-1,-3.2299227E-1,-7.995093E-1,-3.356927E-1,7.856112E-2,-2.9850787E-1,-2.258439E-1,-3.1827006E-1],"categories":[],"categories_nodes":[],"categories_segments":[],"categories_sizes":[],"default_left":[0,0,0,0,0,0,0,0,0,0,0,0,0,0,0,0,0,0,0,0,0,0,0,0,0,0,0,0,0,0,0,0,0,0,0,0,0,0,0,0,0,0,0,0,0,0,0,0,0,0,0,0,0,0,0,0,0,0,0,0,0,0,0,0,0,0,0,0,0,0,0,0,0,0,0,0,0,0,0,0,0,0,0,0,0,0,0,0,0,0,0,0,0,0,0,0,0,0,0,0,0,0,0,0,0,0,0,0,0,0,0,0,0],"id":3,"left_children":[1,3,5,7,9,11,13,15,17,19,21,23,25,27,29,31,33,35,37,39,41,43,45,47,49,51,53,55,57,59,61,-1,63,65,67,-1,69,-1,-1,71,73,75,77,79,81,-1,-1,83,85,87,89,-1,91,93,95,97,99,101,103,105,107,109,111,-1,-1,-1,-1,-1,-1,-1,-1,-1,-1,-1,-1,-1,-1,-1,-1,-1,-1,-1,-1,-1,-1,-1,-1,-1,-1,-1,-1,-1,-1,-1,-1,-1,-1,-1,-1,-1,-1,-1,-1,-1,-1,-1,-1,-1,-1,-1,-1,-1,-1],"loss_changes":[1.6057412E5,5.872703E3,1.8394559E4,1.1960486E3,2.2184844E3,1.5184648E3,1.1783896E4,1.4057373E1,7.446195E2,1.3784375E3,5.29849E2,2.3353315E3,5.178633E2,6.931192E3,3.6072656E3,3.6003418E0,3.5340683E1,2.5672412E2,1.8064575E0,7.633281E2,1.2214362E3,2.1930627E2,5.6536217E0,7.884766E1,1.7839221E3,1.0979501E3,4.5003906E1,2.509042E3,5.077991E3,3.4988164E3,3.978666E3,0E0,1.0361938E0,1.8509827E0,3.7933006E0,0E0,1.12923676E2,0E0,0E0,4.5032812E2,1.1295339E3,9.364934E2,1.3007214E2,1.5371985E2,5.5459595E0,0E0,0E0,7.702312E1,1.0566406E1,2.1843628E2,9.4015356E2,0E0,2.8529822E2,7.493164E1,1.1272266E2,1.2507119E3,1.5043536E3,4.218018E3,2.6637695E2,1.1565116E3,1.5212402E2,3.4195967E3,7.6291016E2,0E0,0E0,0E0,0E0,0E0,0E0,0E0,0E0,0E0,0E0,0E0,0E0,0E0,0E0,0E0,0E0,0E0,0E0,0E0,0E0,0E0,0E0,0E0,0E0,0E0,0E0,0E0,0E0,0E0,0E0,0E0,0E0,0E0,0E0,0E0,0E0,0E0,0E0,0E0,0E0,0E0,0E0,0E0,0E0,0E0,0E0,0E0,0E0,0E0,0E0],"parents":[2147483647,0,0,1,1,2,2,3,3,4,4,5,5,6,6,7,7,8,8,9,9,10,10,11,11,12,12,13,13,14,14,15,15,16,16,17,17,18,18,19,19,20,20,21,21,22,22,23,23,24,24,25,25,26,26,27,27,28,28,29,29,30,30,32,32,33,33,34,34,36,36,39,39,40,40,41,41,42,42,43,43,44,44,47,47,48,48,49,49,50,50,52,52,53,53,54,54,55,55,56,56,57,57,58,58,59,59,60,60,61,61,62,62],"right_children":[2,4,6,8,10,12,14,16,18,20,22,24,26,28,30,32,34,36,38,40,42,44,46,48,50,52,54,56,58,60,62,-1,64,66,68,-1,70,-1,-1,72,74,76,78,80,82,-1,-1,84,86,88,90,-1,92,94,96,98,100,102,104,106,108,110,112,-1,-1,-1,-1,-1,-1,-1,-1,-1,-1,-1,-1,-1,-1,-1,-1,-1,-1,-1,-1,-1,-1,-1,-1,-1,-1,-1,-1,-1,-1,-1,-1,-1,-1,-1,-1,-1,-1,-1,-1,-1,-1,-1,-1,-1,-1,-1,-1,-1,-1],"split_conditions":[-1.3526462E0,-2.9546663E-1,1.908774E-1,9.596423E-1,7.148307E-1,-1.1853217E0,-8.2262635E-2,8.89752E-1,3.3820372E-3,3.0893123E-1,3.3626986E0,4.5497853E-1,-8.001607E-1,-3.3287248E-1,-1.212097E0,-4.3995512E-1,-3.5309005E-1,1.5421681E-1,2.8542656E-1,1.9223678E0,-1.7873868E0,1.1243169E0,1.5596766E0,-1.136526E0,-2.6561344E-1,3.981055E-2,-7.8609936E-2,3.467638E-1,7.613951E-1,2.0666E-2,-3.461128E-1,-3.0515438E-1,-3.0009496E-1,6.494276E-2,2.7030984E-1,-3.0424628E-1,-8.0049884E-1,-3.2297057E-1,-9.418959E-2,-1.297215E0,-1.9491334E-1,-3.112495E-1,1.354002E0,2.84044E-1,7.423259E-1,-1.2301244E-1,1.8757302E-1,-1.483464E0,-4.7095296E-1,1.4351662E0,5.0664764E-2,-3.1083924E-1,-2.1152267E0,-2.2201834E0,6.1925754E-2,2.1531354E-1,-2.816638E0,8.565069E-2,7.4564004E-1,1.9966765E-1,-5.0856596E-1,-7.146609E-1,1.2821687E-2,-3.1745976E-1,-4.0184382E-1,-3.305661E-1,-1.2734315E-1,-9.0334944E-2,1.7216912E-1,-5.930451E-1,1.7702098E-1,-4.0750873E-1,1.9039972E-1,1.6063188E-1,-4.2910954E-1,-6.3792765E-1,1.452879E-1,-3.648552E-1,-9.89941E-2,-9.769784E-1,-4.2629695E-1,8.461909E-3,-3.507295E-1,-3.4668738E-1,1.8069568E-1,-3.656495E-1,-3.1654182E-1,-3.115579E-1,1.1491845E-1,-3.8838163E-1,1.5965246E-1,-4.2399627E-1,1.8880385E-1,-2.3970476E-1,-3.053245E-1,-3.135155E-1,-3.8521454E-1,1.7248097E-1,-4.3679002E-1,1.7744957E-1,-3.7648627E-1,5.8693025E-2,-3.083413E-1,-3.3465695E-1,-4.567751E-3,1.7636769E-1,-3.2299227E-1,-7.995093E-1,-3.356927E-1,7.856112E-2,-2.9850787E-1,-2.258439E-1,-3.1827006E-1],"split_indices":[13,3,3,10,9,12,11,10,6,11,20,17,19,13,12,3,3,23,0,0,2,2,3,19,3,3,19,29,0,0,28,0,10,22,23,0,1,0,0,23,25,28,10,11,9,0,0,0,13,10,23,0,0,2,3,7,2,7,1,7,9,29,23,0,0,0,0,0,0,0,0,0,0,0,0,0,0,0,0,0,0,0,0,0,0,0,0,0,0,0,0,0,0,0,0,0,0,0,0,0,0,0,0,0,0,0,0,0,0,0,0,0,0],"split_type":[0,0,0,0,0,0,0,0,0,0,0,0,0,0,0,0,0,0,0,0,0,0,0,0,0,0,0,0,0,0,0,0,0,0,0,0,0,0,0,0,0,0,0,0,0,0,0,0,0,0,0,0,0,0,0,0,0,0,0,0,0,0,0,0,0,0,0,0,0,0,0,0,0,0,0,0,0,0,0,0,0,0,0,0,0,0,0,0,0,0,0,0,0,0,0,0,0,0,0,0,0,0,0,0,0,0,0,0,0,0,0,0,0],"sum_hessian":[1.81487E5,1.2519502E5,5.6291973E4,1.4133186E3,1.237817E5,2.3689232E4,3.260274E4,8.124016E2,6.00917E2,1.2360969E5,1.7201938E2,3.3593127E3,2.032992E4,1.6208184E4,1.6394557E4,7.861988E2,2.6202806E1,4.526298E2,1.482872E2,1.2239714E5,1.2125474E3,1.3786327E2,3.4156113E1,1.7581725E3,1.6011404E3,7.744251E2,1.9555496E4,7.9703906E3,8.237793E3,2.3533887E3,1.4041168E4,6.9725366E2,8.894511E1,1.8091675E1,8.111133E0,3.7305897E1,4.1532388E2,1.462331E2,2.0541105E0,1.2196216E5,4.349859E2,9.108426E2,3.017048E2,7.364879E1,6.421448E1,1.209472E0,3.294664E1,3.2221752E1,1.7259507E3,5.4766003E2,1.0534803E3,5.1840265E2,2.5602243E2,8.111524E3,1.1443972E4,7.309489E3,6.609017E2,6.0934824E3,2.1443108E3,1.7559958E3,5.973928E2,3.1980535E3,1.0843114E4,5.26759E1,3.6269207E1,1.4686924E1,3.4047503E0,1.4454818E0,6.665651E0,4.8851852E0,4.1043872E2,3.7184883E1,1.2192497E5,2.8708386E2,1.4790202E2,4.776462E1,8.6307794E2,2.2689851E2,7.4806305E1,4.7670532E1,2.5978256E1,1.2786475E0,6.2935825E1,1.3642958E1,1.8578796E1,1.9723643E2,1.5287142E3,5.0907632E2,3.8583714E1,1.0411576E2,9.4936456E2,2.4532927E1,2.314895E2,5.8881824E2,7.5227056E3,1.071615E4,7.2782086E2,7.2071216E3,1.0236747E2,2.2296112E2,4.3794052E2,4.9229814E3,1.170501E3,2.067654E3,7.6656876E1,1.6033129E3,1.5268294E2,2.1823135E1,5.7556964E2,2.0825847E3,1.1154688E3,5.2328477E3,5.610267E3],"tree_param":{"num_deleted":"0","num_feature":"30","num_nodes":"113","size_leaf_vector":"1"}},{"base_weights":[4.0156963E-1,1.0371525E0,-8.372644E-1,-7.9790705E-1,1.0564146E0,-1.4778479E0,-4.113823E-1,-1.5536444E0,1.17989115E-1,1.0611695E0,-2.0950127E0,-9.720589E-1,-1.5578959E0,1.279019E-1,-9.2498654E-1,-1.5822417E0,-8.333278E-1,7.4383056E-1,-2.8454068E-1,1.0902345E0,7.6023895E-1,-2.5009925E0,9.8544276E-1,-1.6027374E0,-1.8600199E-1,-8.8266027E-1,-1.5756892E0,7.401706E-1,-4.660858E-1,4.3443885E-2,-1.0853798E0,-2.7041852E-1,-3.057219E-1,-1.5013036E0,7.4689364E-1,9.338926E-1,-2.989187E-1,1.090633E0,-3.7730744E0,8.544644E-1,-1.8896304E0,-2.9045863E0,-2.7513084E-1,1.7953238E-1,4.3419473E-2,-2.3206091E-1,-1.627056E0,-1.5616647E0,4.9735293E-1,-2.7587777E-1,7.575084E-1,-1.5800307E0,-6.1458796E-1,9.027634E-1,-7.5574833E-1,-6.268187E-2,-1.6101661E0,7.1239567E-1,-1.7346497E0,-1.5920315E0,-6.682326E-1,-1.03253126E-1,-2.9269484E-1,-3.0928358E-2,1.6576673E-1,-3.8796237E-1,1.775788E-1,-7.8095746E-1,1.8963288E-1,-1.0361696E0,-3.508838E-1,1.558265E-1,-7.9093087E-1,1.6493793E-1,-5.267461E-1,-5.804844E-1,-3.2799608E-1,-2.9078966E-1,1.7318177E-1,-3.155625E-1,-2.7803022E-1,-2.911796E-1,1.20324284E-1,-2.723414E-1,1.4737228E-1,-3.5117853E-1,1.9191262E-1,-2.9382518E-1,-2.7182713E-1,-2.8719765E-1,1.8906756E-1,1.6503076E-1,-4.406553E-1,1.4922473E-1,-3.2173014E-1,4.9346488E-2,-2.5432205E-1,-2.8845698E-1,9.3193926E-2,1.6045107E-1,-3.7628755E-1,-3.0896574E-1,9.501946E-2,1.7422583E-2,-2.9971963E-1,2.1722022E-2,-2.638244E-1],"categories":[],"categories_nodes":[],"categories_segments":[],"categories_sizes":[],"default_left":[0,0,0,0,0,0,0,0,0,0,0,0,0,0,0,0,0,0,0,0,0,0,0,0,0,0,0,0,0,0,0,0,0,0,0,0,0,0,0,0,0,0,0,0,0,0,0,0,0,0,0,0,0,0,0,0,0,0,0,0,0,0,0,0,0,0,0,0,0,0,0,0,0,0,0,0,0,0,0,0,0,0,0,0,0,0,0,0,0,0,0,0,0,0,0,0,0,0,0,0,0,0,0,0,0,0,0],"id":4,"left_children":[1,3,5,7,9,11,13,15,17,19,21,23,25,27,29,31,33,35,-1,37,39,41,43,45,47,49,51,53,55,57,59,-1,-1,61,63,65,-1,67,69,71,73,75,-1,-1,-1,77,79,81,83,-1,85,87,89,91,93,95,97,99,101,103,105,-1,-1,-1,-1,-1,-1,-1,-1,-1,-1,-1,-1,-1,-1,-1,-1,-1,-1,-1,-1,-1,-1,-1,-1,-1,-1,-1,-1,-1,-1,-1,-1,-1,-1,-1,-1,-1,-1,-1,-1,-1,-1,-1,-1,-1,-1],"loss_changes":[1.2673074E5,3.7609219E3,1.488852E4,7.6543317E2,1.5796797E3,8.808711E2,9.080365E3,1.1160645E1,5.51119E2,9.185547E2,2.0122394E2,1.4773186E3,2.2465625E2,5.816567E3,2.6082666E3,1.0498047E-2,2.7769613E1,1.7472931E2,0E0,1.8985156E2,2.3140396E3,4.7559143E1,4.101448E-1,5.47417E1,1.2491589E3,5.6176465E2,7.5515625E1,1.9162163E3,3.7466367E3,2.840295E3,3.0435488E3,0E0,0E0,1.9901886E0,1.730401E0,9.759924E1,0E0,8.188281E1,1.896579E1,2.0271313E3,1.0330985E3,3.639453E1,0E0,0E0,0E0,5.4733944E1,5.595215E0,1.1367737E2,6.433999E2,0E0,1.4313626E2,3.04375E1,1.5023308E2,1.1379243E3,1.3669777E3,2.9130361E3,2.2367578E2,1.0528303E3,6.43125E1,1.4527324E3,5.3236094E3,0E0,0E0,0E0,0E0,0E0,0E0,0E0,0E0,0E0,0E0,0E0,0E0,0E0,0E0,0E0,0E0,0E0,0E0,0E0,0E0,0E0,0E0,0E0,0E0,0E0,0E0,0E0,0E0,0E0,0E0,0E0,0E0,0E0,0E0,0E0,0E0,0E0,0E0,0E0,0E0,0E0,0E0,0E0,0E0,0E0,0E0],"parents":[2147483647,0,0,1,1,2,2,3,3,4,4,5,5,6,6,7,7,8,8,9,9,10,10,11,11,12,12,13,13,14,14,15,15,16,16,17,17,19,19,20,20,21,21,22,22,23,23,24,24,25,25,26,26,27,27,28,28,29,29,30,30,33,33,34,34,35,35,37,37,38,38,39,39,40,40,41,41,45,45,46,46,47,47,48,48,50,50,51,51,52,52,53,53,54,54,55,55,56,56,57,57,58,58,59,59,60,60],"right_children":[2,4,6,8,10,12,14,16,18,20,22,24,26,28,30,32,34,36,-1,38,40,42,44,46,48,50,52,54,56,58,60,-1,-1,62,64,66,-1,68,70,72,74,76,-1,-1,-1,78,80,82,84,-1,86,88,90,92,94,96,98,100,102,104,106,-1,-1,-1,-1,-1,-1,-1,-1,-1,-1,-1,-1,-1,-1,-1,-1,-1,-1,-1,-1,-1,-1,-1,-1,-1,-1,-1,-1,-1,-1,-1,-1,-1,-1,-1,-1,-1,-1,-1,-1,-1,-1,-1,-1,-1,-1],"split_conditions":[-1.4722402E0,-2.9546663E-1,1.4888835E-1,9.596423E-1,6.883191E-1,-1.1853217E0,-8.2262635E-2,8.89752E-1,-2.5127882E-1,-1.2903903E0,5.6627135E0,4.838519E-1,-9.799885E-1,-3.3287248E-1,-1.1729499E0,-4.3995512E-1,-3.5309005E-1,-6.9086075E-2,-2.8454068E-1,1.3663172E0,2.6766896E-1,1.5664245E0,-9.5480865E-1,-1.136526E0,2.2529705E-1,3.981055E-2,3.747761E0,4.042581E-1,7.613951E-1,4.5512494E-2,-1.8628119E-2,-2.7041852E-1,-3.057219E-1,-8.482281E-1,2.7030984E-1,-8.0049884E-1,-2.989187E-1,-6.560206E-1,1.9223678E0,3.471447E-1,-3.39508E0,3.8440037E0,-2.7513084E-1,1.7953238E-1,4.3419473E-2,-1.483464E0,-4.7095296E-1,1.4868478E0,-4.3995512E-1,-2.7587777E-1,-2.0700014E0,-7.138002E-1,1.04555964E-1,1.8953581E0,-2.5530736E0,8.565069E-2,1.8294411E0,6.091127E-1,2.1099465E0,-2.2201834E0,-6.402E-1,-1.03253126E-1,-2.9269484E-1,-3.0928358E-2,1.6576673E-1,-3.8796237E-1,1.775788E-1,-7.8095746E-1,1.8963288E-1,-1.0361696E0,-3.508838E-1,1.558265E-1,-7.9093087E-1,1.6493793E-1,-5.267461E-1,-5.804844E-1,-3.2799608E-1,-2.9078966E-1,1.7318177E-1,-3.155625E-1,-2.7803022E-1,-2.911796E-1,1.20324284E-1,-2.723414E-1,1.4737228E-1,-3.5117853E-1,1.9191262E-1,-2.9382518E-1,-2.7182713E-1,-2.8719765E-1,1.8906756E-1,1.6503076E-1,-4.406553E-1,1.4922473E-1,-3.2173014E-1,4.9346488E-2,-2.5432205E-1,-2.8845698E-1,9.3193926E-2,1.6045107E-1,-3.7628755E-1,-3.0896574E-1,9.501946E-2,1.7422583E-2,-2.9971963E-1,2.1722022E-2,-2.638244E-1],"split_indices":[13,3,3,10,9,12,11,10,6,11,20,17,19,13,12,3,3,12,0,0,25,2,2,19,23,3,6,29,0,0,4,0,0,6,23,1,0,10,0,7,7,9,0,0,0,0,13,10,3,0,0,13,4,2,2,7,16,1,10,2,29,0,0,0,0,0,0,0,0,0,0,0,0,0,0,0,0,0,0,0,0,0,0,0,0,0,0,0,0,0,0,0,0,0,0,0,0,0,0,0,0,0,0,0,0,0,0],"split_type":[0,0,0,0,0,0,0,0,0,0,0,0,0,0,0,0,0,0,0,0,0,0,0,0,0,0,0,0,0,0,0,0,0,0,0,0,0,0,0,0,0,0,0,0,0,0,0,0,0,0,0,0,0,0,0,0,0,0,0,0,0,0,0,0,0,0,0,0,0,0,0,0,0,0,0,0,0,0,0,0,0,0,0,0,0,0,0,0,0,0,0,0,0,0,0,0,0,0,0,0,0,0,0,0,0,0,0],"sum_hessian":[1.6095E5,1.0637471E5,5.4575297E4,1.1045697E3,1.0527014E5,2.17931E4,3.27822E4,6.048177E2,4.9975204E2,1.0511221E5,1.5793077E2,2.9795737E3,1.8813525E4,1.5991687E4,1.6790512E4,5.805718E2,2.4245897E1,3.6879138E2,1.3096068E2,9.585185E4,9.260359E3,1.3970663E2,1.822413E1,1.6526007E3,1.3269731E3,4.8433185E2,1.8329195E4,7.8745435E3,8.117143E3,2.3858494E3,1.4404663E4,5.125288E2,6.804293E1,1.7077152E1,7.1687455E0,3.4295026E2,2.5841131E1,9.584477E4,7.076401E0,8.943035E3,3.173237E2,9.555389E1,4.4152752E1,1.6745302E1,1.478828E0,2.8993162E1,1.6236075E3,4.3997452E2,8.869986E2,3.3887112E2,1.4546074E2,1.824613E4,8.306438E1,7.1029175E3,7.716262E2,6.0019155E3,2.115227E3,1.7340623E3,6.5178705E2,6.5032456E3,7.9014175E3,3.5691383E0,1.3508015E1,1.3344498E0,5.8342957E0,8.57075E0,3.343795E2,1.66541E0,9.584311E4,2.0833583E0,4.993043E0,8.875126E3,6.790884E1,9.099078E1,2.2633292E2,6.537583E1,3.0178055E1,1.3176513E1,1.581665E1,2.008966E2,1.4227109E3,4.1917502E2,2.079949E1,1.2821329E2,7.5878534E2,1.5593187E1,1.2986754E2,2.3615503E3,1.588458E4,5.162809E1,3.1436285E1,7.008827E3,9.409028E1,3.119498E2,4.596764E2,4.8118545E3,1.1900613E3,2.068186E3,4.7041096E1,1.6164493E3,1.1761288E2,6.400732E2,1.1713838E1,4.7048245E2,6.032763E3,4.0861338E3,3.8152837E3],"tree_param":{"num_deleted":"0","num_feature":"30","num_nodes":"107","size_leaf_vector":"1"}},{"base_weights":[3.85238E-1,1.0219661E0,-7.404921E-1,-9.867629E-1,1.0370879E0,-1.3450699E0,-3.519029E-1,-2.4764869E-1,-1.6828026E-1,1.0419511E0,-1.7328194E0,-9.0366644E-1,-1.4191108E0,-1.4119945E-1,-1.4633534E0,5.608239E-1,-2.5048697E-1,1.0749134E0,7.2367364E-1,-1.9846865E0,9.3398184E-1,-1.4600236E0,-1.9463275E-1,-8.1744176E-1,-1.4347304E0,6.843294E-2,-1.3751459E0,1.011457E0,-1.494644E0,8.183191E-1,-2.5624374E-1,1.0751148E0,-2.7557447E0,8.144355E-1,-1.361667E0,-2.192181E0,-2.4966538E-1,1.732105E-1,2.9333262E-2,-2.5793844E-1,-1.4804574E0,-1.4253824E0,4.4959414E-1,-2.521367E-1,7.1153575E-1,-1.4386948E0,-5.500403E-1,6.7368495E-1,-2.8810304E-1,-1.5270694E0,4.9260578E-1,-2.0148678E-1,1.8642636E-1,-8.201417E-1,-1.5464376E0,-3.5862935E-1,1.760422E-1,-2.621494E-1,1.869298E-1,-5.378744E-1,-1.5285793E-1,1.4871813E-1,-5.761187E-1,1.691811E-1,-4.0829867E-1,-4.1750842E-1,-2.8361675E-1,-2.5859433E-1,1.6707705E-1,-2.508505E-1,-2.7604052E-1,-2.6440898E-1,1.10126965E-1,-2.088452E-1,1.4302707E-1,-3.1801307E-1,1.8627462E-1,-2.0037289E-1,-2.5105008E-1,1.8341245E-1,-2.6150364E-1,1.5086332E-1,-4.8999146E-2,-1.09113194E-1,5.7225153E-2,-3.311528E-1,-2.537184E-1,-2.6076248E-1,1.8480827E-1,-3.2902247E-1,7.3735096E-2,-3.326873E-1,-2.609814E-1],"categories":[],"categories_nodes":[],"categories_segments":[],"categories_sizes":[],"default_left":[0,0,0,0,0,0,0,0,0,0,0,0,0,0,0,0,0,0,0,0,0,0,0,0,0,0,0,0,0,0,0,0,0,0,0,0,0,0,0,0,0,0,0,0,0,0,0,0,0,0,0,0,0,0,0,0,0,0,0,0,0,0,0,0,0,0,0,0,0,0,0,0,0,0,0,0,0,0,0,0,0,0,0,0,0,0,0,0,0,0,0,0,0],"id":5,"left_children":[1,3,5,7,9,11,13,-1,15,17,19,21,23,25,27,29,-1,31,33,35,37,39,41,43,45,47,49,51,53,55,-1,57,59,61,63,65,-1,-1,-1,67,69,71,73,-1,75,77,79,81,83,85,87,-1,-1,89,91,-1,-1,-1,-1,-1,-1,-1,-1,-1,-1,-1,-1,-1,-1,-1,-1,-1,-1,-1,-1,-1,-1,-1,-1,-1,-1,-1,-1,-1,-1,-1,-1,-1,-1,-1,-1,-1,-1],"loss_changes":[1.0164636E5,2.7523594E3,1.2035559E4,2.4241138E2,1.2128125E3,6.538164E2,7.303628E3,0E0,2.2082289E2,9.407422E2,1.0793683E2,1.1366274E3,1.60125E2,6.78229E3,3.863916E2,8.057057E1,0E0,6.5703125E1,1.595728E3,1.3315002E1,5.144539E-1,3.928174E1,1.00627264E3,4.2352533E2,5.7878906E1,4.8366753E3,1.081148E3,9.5208435E0,1.7020996E2,7.771515E1,0E0,2.553125E1,1.7082977E-1,1.3694326E3,8.1283606E2,8.179199E0,0E0,0E0,0E0,4.3694992E1,4.1083984E0,8.670331E1,5.14259E2,0E0,1.1946163E2,2.3859375E1,1.1835049E2,1.541136E3,2.9562202E3,8.722949E1,3.279756E2,0E0,0E0,4.7071912E2,7.2868164E1,0E0,0E0,0E0,0E0,0E0,0E0,0E0,0E0,0E0,0E0,0E0,0E0,0E0,0E0,0E0,0E0,0E0,0E0,0E0,0E0,0E0,0E0,0E0,0E0,0E0,0E0,0E0,0E0,0E0,0E0,0E0,0E0,0E0,0E0,0E0,0E0,0E0,0E0],"parents":[2147483647,0,0,1,1,2,2,3,3,4,4,5,5,6,6,8,8,9,9,10,10,11,11,12,12,13,13,14,14,15,15,17,17,18,18,19,19,20,20,21,21,22,22,23,23,24,24,25,25,26,26,27,27,28,28,29,29,31,31,32,32,33,33,34,34,35,35,39,39,40,40,41,41,42,42,44,44,45,45,46,46,47,47,48,48,49,49,50,50,53,53,54,54],"right_children":[2,4,6,8,10,12,14,-1,16,18,20,22,24,26,28,30,-1,32,34,36,38,40,42,44,46,48,50,52,54,56,-1,58,60,62,64,66,-1,-1,-1,68,70,72,74,-1,76,78,80,82,84,86,88,-1,-1,90,92,-1,-1,-1,-1,-1,-1,-1,-1,-1,-1,-1,-1,-1,-1,-1,-1,-1,-1,-1,-1,-1,-1,-1,-1,-1,-1,-1,-1,-1,-1,-1,-1,-1,-1,-1,-1,-1,-1],"split_conditions":[-1.5294013E0,-4.6774164E-1,1.4888835E-1,1.0953263E0,6.883191E-1,-1.1480778E0,2.0692192E-1,-2.4764869E-1,-3.8134655E-1,-1.7355211E0,5.6627135E0,4.838519E-1,-9.799885E-1,1.5627818E0,-3.9520059E0,-1.7536081E-1,-2.5048697E-1,1.2686524E0,2.8577226E-1,1.451867E0,-1.2541906E0,-1.136526E0,2.2529705E-1,3.981055E-2,3.747761E0,-5.080921E-1,6.347576E-1,-1.5756935E0,2.2281127E-1,-2.0738684E-1,-2.5624374E-1,-1.297215E0,1.981232E0,3.471447E-1,-3.39508E0,3.8440037E0,-2.4966538E-1,1.732105E-1,2.9333262E-2,-1.483464E0,-2.9546663E-1,1.4868478E0,-3.5309005E-1,-2.521367E-1,-1.981757E0,-1.3526462E0,-5.018865E-1,3.1294346E-2,1.5596766E0,-7.138002E-1,-2.7156075E-2,-2.0148678E-1,1.8642636E-1,1.875287E0,-7.138002E-1,-3.5862935E-1,1.760422E-1,-2.621494E-1,1.869298E-1,-5.378744E-1,-1.5285793E-1,1.4871813E-1,-5.761187E-1,1.691811E-1,-4.0829867E-1,-4.1750842E-1,-2.8361675E-1,-2.5859433E-1,1.6707705E-1,-2.508505E-1,-2.7604052E-1,-2.6440898E-1,1.10126965E-1,-2.088452E-1,1.4302707E-1,-3.1801307E-1,1.8627462E-1,-2.0037289E-1,-2.5105008E-1,1.8341245E-1,-2.6150364E-1,1.5086332E-1,-4.8999146E-2,-1.09113194E-1,5.7225153E-2,-3.311528E-1,-2.537184E-1,-2.6076248E-1,1.8480827E-1,-3.2902247E-1,7.3735096E-2,-3.326873E-1,-2.609814E-1],"split_indices":[13,3,3,10,9,12,7,0,6,11,20,17,19,0,16,12,0,0,25,2,2,19,23,3,6,13,24,5,7,24,0,23,0,7,7,9,0,0,0,0,3,10,3,0,0,13,5,12,3,13,26,0,0,3,13,0,0,0,0,0,0,0,0,0,0,0,0,0,0,0,0,0,0,0,0,0,0,0,0,0,0,0,0,0,0,0,0,0,0,0,0,0,0],"split_type":[0,0,0,0,0,0,0,0,0,0,0,0,0,0,0,0,0,0,0,0,0,0,0,0,0,0,0,0,0,0,0,0,0,0,0,0,0,0,0,0,0,0,0,0,0,0,0,0,0,0,0,0,0,0,0,0,0,0,0,0,0,0,0,0,0,0,0,0,0,0,0,0,0,0,0,0,0,0,0,0,0,0,0,0,0,0,0,0,0,0,0,0,0],"sum_hessian":[1.4180686E5,9.057597E4,5.1230895E4,6.762873E2,8.989968E4,2.0043775E4,3.1187117E4,4.4015338E2,2.361339E2,8.974274E4,1.5693715E2,2.8810806E3,1.7162695E4,2.6217969E4,4.9691494E3,1.5047673E2,8.565717E1,8.131861E4,8.424133E3,1.4362793E2,1.3309218E1,1.613756E3,1.2673246E3,4.3562756E2,1.6727068E4,2.2411479E4,3.806491E3,6.1652565E1,4.907497E3,1.3410387E2,1.637286E1,8.1315055E4,3.556464E0,8.0733594E3,3.5077332E2,1.0203843E2,4.1589508E1,1.2027591E1,1.2816279E0,2.7200747E1,1.5865552E3,4.3502594E2,8.3229865E2,3.081376E2,1.2748996E2,1.6651822E4,7.524477E1,8.307633E3,1.4103845E4,3.5203289E3,2.8616214E2,1.1899248E0,6.046264E1,3.511642E2,4.5563325E3,7.864075E0,1.2623979E2,2.999267E0,8.1312055E4,2.46376E0,1.0927039E0,7.994757E3,7.860281E1,1.042201E2,2.4655322E2,7.191174E1,3.0126684E1,1.3432209E1,1.37685375E1,1.1860474E3,4.0050787E2,4.1598938E2,1.9036552E1,1.5301782E2,6.792808E2,1.5312732E1,1.1217722E2,3.0996567E2,1.6341857E4,2.8014164E1,4.7230602E1,6.905148E3,1.4024849E3,9.099002E3,5.004843E3,5.3071155E2,2.9896172E3,6.3326813E1,2.2283533E2,1.8832753E2,1.628367E2,4.954583E2,4.0608743E3],"tree_param":{"num_deleted":"0","num_feature":"30","num_nodes":"93","size_leaf_vector":"1"}},{"base_weights":[3.688218E-1,1.0047014E0,-6.629101E-1,-3.900665E-1,1.0258499E0,-1.2494714E0,-3.0654588E-1,2.2886251E-1,-1.4216897E0,1.0600505E0,6.666815E-1,-8.4113735E-1,-1.3194805E0,3.038456E-1,-6.277807E-1,5.8480364E-1,-1.8637476E0,-1.2487288E0,-2.9478943E0,-2.856201E0,1.0604169E0,1.3922532E-1,9.732227E-1,-1.3021839E0,-8.7884724E-2,-1.0390323E0,-1.3482218E0,5.2935123E-1,-1.3800384E0,-1.3735434E0,-2.1977927E-1,8.643064E-1,-8.7178594E-1,-2.4293208E-1,-3.7503266E0,-2.3670498E-1,-4.291363E-1,-3.549577E0,-2.6930666E-1,-5.4831356E-1,-1.4892876E-1,1.0606122E0,-3.1925824E-1,-3.537366E0,4.855673E-1,-1.947634E0,1.0066993E0,-1.3485472E0,2.0885235E-1,-1.4191684E0,4.5084187E-1,-1.3171657E0,5.176678E-1,-9.482475E-1,-1.3566146E0,6.3850313E-1,-2.0708609E0,9.8551923E-1,-1.4894041E0,-1.5018759E0,5.6515527E-1,-8.5066617E-1,2.3335998E-1,1.777677E-1,-5.596216E-2,-2.5124148E-1,6.546101E-2,-8.746818E-1,-3.063466E-1,1.737891E-1,-2.380537E-1,-7.503398E-1,-3.348882E-1,1.844216E-1,-3.0109218E-1,-4.9647418E-1,-1.0750343E0,-2.6503396E-1,1.1688815E-1,-8.81536E-1,-2.1660557E-2,1.7889242E-1,-3.2046565E-1,-1.6332446E-1,-2.4204667E-1,1.7529038E-1,-2.2910407E-1,-3.0259806E-1,-2.3658364E-1,-2.3476653E-1,1.3283585E-1,-2.3328818E-1,-8.027684E-2,-3.094716E-1,1.7242508E-1,-2.5358376E-1,1.3897915E-1,-2.534238E-1,-2.3332812E-1,1.5619002E-1,-3.120912E-2,-7.2885895E-1,-3.0422395E-1,1.8337144E-1,-2.0186329E-1,-3.5541323E-1,-2.369178E-1,-2.5433642E-1,-3.684184E-1,-5.0192314E-1,1.7313713E-1,-1.9808182E-1,1.1768085E-1,7.1297854E-2,-2.5105953E-1],"categories":[],"categories_nodes":[],"categories_segments":[],"categories_sizes":[],"default_left":[0,0,0,0,0,0,0,0,0,0,0,0,0,0,0,0,0,0,0,0,0,0,0,0,0,0,0,0,0,0,0,0,0,0,0,0,0,0,0,0,0,0,0,0,0,0,0,0,0,0,0,0,0,0,0,0,0,0,0,0,0,0,0,0,0,0,0,0,0,0,0,0,0,0,0,0,0,0,0,0,0,0,0,0,0,0,0,0,0,0,0,0,0,0,0,0,0,0,0,0,0,0,0,0,0,0,0,0,0,0,0,0,0,0,0],"id":6,"left_children":[1,3,5,7,9,11,13,15,17,19,21,23,25,27,29,31,33,35,37,39,41,43,45,47,49,51,53,55,57,59,61,63,65,-1,67,-1,69,71,-1,-1,-1,73,-1,75,77,79,81,83,85,87,89,91,93,95,97,99,101,103,105,107,109,111,113,-1,-1,-1,-1,-1,-1,-1,-1,-1,-1,-1,-1,-1,-1,-1,-1,-1,-1,-1,-1,-1,-1,-1,-1,-1,-1,-1,-1,-1,-1,-1,-1,-1,-1,-1,-1,-1,-1,-1,-1,-1,-1,-1,-1,-1,-1,-1,-1,-1,-1,-1,-1],"loss_changes":[8.20097E4,2.281664E3,9.963141E3,7.3835266E2,9.351172E2,5.1386523E2,5.814417E3,5.398388E2,1.1077051E2,1.02859375E2,1.0712463E3,9.1646216E2,1.2253516E2,3.883484E3,5.911191E3,2.5272801E2,8.748508E1,3.558258E1,3.1028412E1,1.334198E0,4.128125E1,3.104503E3,4.1171655E2,1.1497241E2,7.200988E2,6.2141235E2,4.551953E1,2.5608684E3,3.1396558E2,1.7101338E3,3.5905989E3,9.7882416E1,7.221946E1,0E0,4.2817993E1,0E0,6.690378E1,2.8476654E1,0E0,0E0,0E0,3.859375E1,0E0,3.6095288E2,8.374176E2,2.7165704E2,2.6523242E2,2.7101318E1,6.186638E1,3.0534058E0,4.043943E2,2.5105225E1,2.3930486E2,2.5973422E2,1.8060547E1,1.8404558E3,2.4021436E2,9.247929E0,7.8382324E1,1.517168E2,6.382204E2,2.3162031E3,2.167934E3,0E0,0E0,0E0,0E0,0E0,0E0,0E0,0E0,0E0,0E0,0E0,0E0,0E0,0E0,0E0,0E0,0E0,0E0,0E0,0E0,0E0,0E0,0E0,0E0,0E0,0E0,0E0,0E0,0E0,0E0,0E0,0E0,0E0,0E0,0E0,0E0,0E0,0E0,0E0,0E0,0E0,0E0,0E0,0E0,0E0,0E0,0E0,0E0,0E0,0E0,0E0,0E0],"parents":[2147483647,0,0,1,1,2,2,3,3,4,4,5,5,6,6,7,7,8,8,9,9,10,10,11,11,12,12,13,13,14,14,15,15,16,16,17,17,18,18,19,19,20,20,21,21,22,22,23,23,24,24,25,25,26,26,27,27,28,28,29,29,30,30,31,31,32,32,34,34,36,36,37,37,41,41,43,43,44,44,45,45,46,46,47,47,48,48,49,49,50,50,51,51,52,52,53,53,54,54,55,55,56,56,57,57,58,58,59,59,60,60,61,61,62,62],"right_children":[2,4,6,8,10,12,14,16,18,20,22,24,26,28,30,32,34,36,38,40,42,44,46,48,50,52,54,56,58,60,62,64,66,-1,68,-1,70,72,-1,-1,-1,74,-1,76,78,80,82,84,86,88,90,92,94,96,98,100,102,104,106,108,110,112,114,-1,-1,-1,-1,-1,-1,-1,-1,-1,-1,-1,-1,-1,-1,-1,-1,-1,-1,-1,-1,-1,-1,-1,-1,-1,-1,-1,-1,-1,-1,-1,-1,-1,-1,-1,-1,-1,-1,-1,-1,-1,-1,-1,-1,-1,-1,-1,-1,-1,-1,-1,-1],"split_conditions":[-1.5294013E0,-8.258074E-2,1.4888835E-1,-8.8853306E-1,-1.6628786E0,-1.1353987E0,-4.3841955E-1,6.6596997E-1,-2.9546663E-1,-4.880697E-1,1.9939569E0,6.108947E-1,-4.7197187E-1,1.925022E-1,-3.3063415E-2,1.838687E-1,-2.9546663E-1,8.1087506E-1,2.84044E-1,7.731867E-1,3.222268E-1,-3.4523323E-1,-4.760242E-2,1.7655518E0,1.1234092E-1,3.981055E-2,-1.3526462E0,3.660883E-1,-3.9520059E0,2.3690238E0,1.0224892E-2,-1.3511546E-1,1.4102521E0,-2.4293208E-1,-5.3803104E-1,-2.3670498E-1,9.974891E-3,8.023502E-1,-2.6930666E-1,-5.4831356E-1,-1.4892876E-1,1.282606E0,-3.1925824E-1,1.3283637E0,-1.6999555E-1,6.0708165E-1,6.3516414E-1,-1.360168E0,-8.457786E-1,-6.892534E-1,-4.6774164E-1,3.747761E0,5.928991E-3,1.3777379E0,-7.138002E-1,-3.1145206E-1,-3.5017508E-1,-2.5893015E-1,-7.138002E-1,5.558585E-1,-1.0070798E0,4.3767455E-1,2.2982696E-1,1.777677E-1,-5.596216E-2,-2.5124148E-1,6.546101E-2,-8.746818E-1,-3.063466E-1,1.737891E-1,-2.380537E-1,-7.503398E-1,-3.348882E-1,1.844216E-1,-3.0109218E-1,-4.9647418E-1,-1.0750343E0,-2.6503396E-1,1.1688815E-1,-8.81536E-1,-2.1660557E-2,1.7889242E-1,-3.2046565E-1,-1.6332446E-1,-2.4204667E-1,1.7529038E-1,-2.2910407E-1,-3.0259806E-1,-2.3658364E-1,-2.3476653E-1,1.3283585E-1,-2.3328818E-1,-8.027684E-2,-3.094716E-1,1.7242508E-1,-2.5358376E-1,1.3897915E-1,-2.534238E-1,-2.3332812E-1,1.5619002E-1,-3.120912E-2,-7.2885895E-1,-3.0422395E-1,1.8337144E-1,-2.0186329E-1,-3.5541323E-1,-2.369178E-1,-2.5433642E-1,-3.684184E-1,-5.0192314E-1,1.7313713E-1,-1.9808182E-1,1.1768085E-1,7.1297854E-2,-2.5105953E-1],"split_indices":[13,3,3,2,9,12,9,4,3,10,3,17,19,7,4,9,3,0,11,12,11,28,10,21,23,3,13,25,16,6,27,25,29,0,5,0,26,8,0,0,0,0,0,3,20,9,9,5,19,13,3,6,27,10,13,12,28,10,13,19,4,20,7,0,0,0,0,0,0,0,0,0,0,0,0,0,0,0,0,0,0,0,0,0,0,0,0,0,0,0,0,0,0,0,0,0,0,0,0,0,0,0,0,0,0,0,0,0,0,0,0,0,0,0,0],"split_type":[0,0,0,0,0,0,0,0,0,0,0,0,0,0,0,0,0,0,0,0,0,0,0,0,0,0,0,0,0,0,0,0,0,0,0,0,0,0,0,0,0,0,0,0,0,0,0,0,0,0,0,0,0,0,0,0,0,0,0,0,0,0,0,0,0,0,0,0,0,0,0,0,0,0,0,0,0,0,0,0,0,0,0,0,0,0,0,0,0,0,0,0,0,0,0,0,0,0,0,0,0,0,0,0,0,0,0,0,0,0,0,0,0,0,0],"sum_hessian":[1.2500186E5,7.733722E4,4.766464E4,1.154874E3,7.618234E4,1.8013172E4,2.9651469E4,7.2230225E2,4.3257172E2,6.955708E4,6.6252695E3,2.6382673E3,1.5374904E4,1.0224165E4,1.9427305E4,6.179184E2,1.0438389E2,3.901726E2,4.2399113E1,5.779601E0,6.95513E4,2.4356953E3,4.189574E3,1.6361149E3,1.0021526E3,1.432657E3,1.3942247E4,9.01726E3,1.206905E3,6.8691704E3,1.2558135E4,5.187776E2,9.914081E1,8.508921E1,1.9294678E1,3.423853E2,4.7787277E1,2.857188E1,1.3827233E1,4.528081E0,1.2515205E0,6.954724E4,4.0530944E0,2.0890045E2,2.226795E3,4.682568E1,4.1427485E3,1.5875126E3,4.860237E1,2.8823682E2,7.139158E2,1.215618E3,2.1703886E2,2.8888516E2,1.3653362E4,8.654706E3,3.6255356E2,5.2978542E1,1.1539265E3,6.4429062E3,4.2626398E2,5.2491226E3,7.3090117E3,4.5784592E2,6.093166E1,6.7828705E1,3.1312101E1,1.0803868E1,8.490809E0,1.89402E1,2.8847076E1,1.8281654E1,1.0290225E1,6.954315E4,4.0930057E0,1.6776659E2,4.1133865E1,1.8871712E2,2.0380779E3,1.660268E1,3.0222998E1,4.111222E3,3.1526306E1,1.5543512E2,1.4320774E3,3.2121704E1,1.6480665E1,3.9845978E1,2.4839084E2,1.0526863E2,6.086471E2,1.1809247E3,3.469338E1,3.6653114E1,1.8038574E2,2.2371736E2,6.5167816E1,1.7003076E3,1.1953054E4,6.5678184E3,2.086888E3,4.6055096E1,3.1649844E2,5.1815834E1,1.162709E0,2.1159029E2,9.423362E2,6.0639297E3,3.7897675E2,4.665272E1,3.7961127E2,4.414955E3,8.3416766E2,6.6129814E3,6.960304E2],"tree_param":{"num_deleted":"0","num_feature":"30","num_nodes":"115","size_leaf_vector":"1"}},{"base_weights":[3.5475203E-1,9.8970824E-1,-6.027841E-1,1.0503792E0,5.021678E-1,-1.1784048E0,-2.715049E-1,1.0508317E0,-1.2240931E0,-1.2607516E-1,9.7229725E-1,-7.8677946E-1,-1.246213E0,-1.10198736E-1,-1.3139746E0,1.0510186E0,-3.534465E-1,-2.2916964E-1,-1.9536672E-2,-2.4266512E0,1.604502E-1,-3.7455823E0,9.8950315E-1,-1.2862107E0,-1.6242194E-1,-9.768978E-1,-1.2739624E0,5.4535415E-2,-1.243968E0,9.6092963E-1,-1.3423998E0,-2.3333815E-1,1.0511483E0,-2.938398E0,-1.3566005E0,3.5704026E-1,-1.8413229E0,-5.667253E0,-1.7138938E0,-2.0915356E0,1.0133582E0,-2.5153145E-1,-1.3035325E0,-1.1476134E0,4.5432374E-1,-1.2444794E0,4.7038105E-1,-8.6393577E-1,-1.2828681E0,-5.1027834E-1,3.408874E-1,-1.3634374E0,5.015994E-1,-1.9104236E-1,1.8068545E-1,-1.5809573E0,-1.3112105E0,-1.9697976E-1,1.8275884E-1,-6.474677E-1,-3.4192714E-1,1.671898E-1,-2.7870432E-1,-2.073249E-1,9.75887E-2,-2.6269144E-1,-5.619727E-1,-3.0978695E-1,-1.1931926E0,-3.94134E-1,1.5888434E-2,-5.6259656E-1,-2.58796E-1,1.7786947E-1,-5.4151803E-1,-2.2201093E-1,1.5579863E-1,-2.4829687E-1,-2.2320916E-1,-2.2722788E-1,1.0640816E-1,-2.634866E-1,1.287735E-1,-2.2128256E-1,-6.660038E-2,-2.7897575E-1,1.6100071E-1,-2.3130472E-1,1.2639874E-1,-2.2383626E-1,-1.8389484E-1,-2.3585236E-1,7.046974E-2,1.0302859E-1,-1.958363E-1,-2.9835543E-1,-2.2506535E-1,-2.4156126E-1,1.7731345E-1,4.362143E-2,-2.9149732E-1,-2.2010359E-1,-2.379046E-1],"categories":[],"categories_nodes":[],"categories_segments":[],"categories_sizes":[],"default_left":[0,0,0,0,0,0,0,0,0,0,0,0,0,0,0,0,0,0,0,0,0,0,0,0,0,0,0,0,0,0,0,0,0,0,0,0,0,0,0,0,0,0,0,0,0,0,0,0,0,0,0,0,0,0,0,0,0,0,0,0,0,0,0,0,0,0,0,0,0,0,0,0,0,0,0,0,0,0,0,0,0,0,0,0,0,0,0,0,0,0,0,0,0,0,0,0,0,0,0,0,0,0,0],"id":7,"left_children":[1,3,5,7,9,11,13,15,17,19,21,23,25,27,29,31,-1,-1,-1,33,35,37,39,41,43,45,47,49,51,53,55,-1,57,59,61,63,65,67,69,71,73,75,77,79,81,83,85,87,89,91,93,95,97,-1,-1,99,101,-1,-1,-1,-1,-1,-1,-1,-1,-1,-1,-1,-1,-1,-1,-1,-1,-1,-1,-1,-1,-1,-1,-1,-1,-1,-1,-1,-1,-1,-1,-1,-1,-1,-1,-1,-1,-1,-1,-1,-1,-1,-1,-1,-1,-1,-1],"loss_changes":[6.667514E4,1.9499141E3,8.337726E3,6.1648438E1,2.156044E3,4.231621E2,4.666937E3,3.5921875E1,1.1207047E0,2.0604424E3,3.4262988E2,7.357063E2,1.0049219E2,4.48935E3,2.4177832E2,1.9613281E1,0E0,0E0,0E0,1.8558203E2,1.0946764E3,5.0335663E1,3.0793286E2,2.3169678E1,6.385064E2,4.9470056E2,4.3945312E1,3.394671E3,6.366123E2,8.646122E0,2.5259277E1,0E0,1.25546875E1,1.7083508E2,6.661041E1,8.0230804E2,1.0942871E2,2.2486847E1,9.104908E0,1.7468307E1,1.6948682E2,2.8009733E1,1.3208008E0,1.1427551E2,3.6582666E2,2.5813477E1,1.9043294E2,1.9792435E2,1.1269531E1,5.472601E3,5.145376E3,6.70957E1,1.9359732E2,0E0,0E0,7.40686E1,6.6796875E0,0E0,0E0,0E0,0E0,0E0,0E0,0E0,0E0,0E0,0E0,0E0,0E0,0E0,0E0,0E0,0E0,0E0,0E0,0E0,0E0,0E0,0E0,0E0,0E0,0E0,0E0,0E0,0E0,0E0,0E0,0E0,0E0,0E0,0E0,0E0,0E0,0E0,0E0,0E0,0E0,0E0,0E0,0E0,0E0,0E0,0E0],"parents":[2147483647,0,0,1,1,2,2,3,3,4,4,5,5,6,6,7,7,8,8,9,9,10,10,11,11,12,12,13,13,14,14,15,15,19,19,20,20,21,21,22,22,23,23,24,24,25,25,26,26,27,27,28,28,29,29,30,30,32,32,33,33,34,34,35,35,36,36,37,37,38,38,39,39,40,40,41,41,42,42,43,43,44,44,45,45,46,46,47,47,48,48,49,49,50,50,51,51,52,52,55,55,56,56],"right_children":[2,4,6,8,10,12,14,16,18,20,22,24,26,28,30,32,-1,-1,-1,34,36,38,40,42,44,46,48,50,52,54,56,-1,58,60,62,64,66,68,70,72,74,76,78,80,82,84,86,88,90,92,94,96,98,-1,-1,100,102,-1,-1,-1,-1,-1,-1,-1,-1,-1,-1,-1,-1,-1,-1,-1,-1,-1,-1,-1,-1,-1,-1,-1,-1,-1,-1,-1,-1,-1,-1,-1,-1,-1,-1,-1,-1,-1,-1,-1,-1,-1,-1,-1,-1,-1,-1],"split_conditions":[-1.5294013E0,-1.8581681E0,1.4888835E-1,9.9936736E-1,1.9939569E0,-1.1353987E0,2.2281127E-1,1.2686524E0,-2.3620045E-1,-3.4560758E-1,-1.090215E0,4.838519E-1,-4.7197187E-1,1.6445591E0,-3.9520059E0,-4.0570828E-1,-3.534465E-1,-2.2916964E-1,-1.9536672E-2,3.044611E-1,1.1747809E-1,-3.0463162E-1,-1.589929E-2,-1.136526E0,-2.6561344E-1,3.981055E-2,-1.3526462E0,-4.101432E-3,6.703739E-1,-4.490526E0,-7.138002E-1,-2.3333815E-1,-1.297215E0,3.0733615E-1,-4.6644177E0,-1.6999555E-1,1.9675243E0,-5.704799E-1,1.2456877E0,5.5049133E-1,2.7030984E-1,-1.483464E0,-5.080921E-1,1.3667697E0,1.1234092E-1,3.747761E0,3.903526E-1,1.3777379E0,1.8434179E0,-3.1327578E-1,4.8312786E-1,-7.138002E-1,-2.7156075E-2,-1.9104236E-1,1.8068545E-1,-3.5208485E-1,-4.101432E-3,-1.9697976E-1,1.8275884E-1,-6.474677E-1,-3.4192714E-1,1.671898E-1,-2.7870432E-1,-2.073249E-1,9.75887E-2,-2.6269144E-1,-5.619727E-1,-3.0978695E-1,-1.1931926E0,-3.94134E-1,1.5888434E-2,-5.6259656E-1,-2.58796E-1,1.7786947E-1,-5.4151803E-1,-2.2201093E-1,1.5579863E-1,-2.4829687E-1,-2.2320916E-1,-2.2722788E-1,1.0640816E-1,-2.634866E-1,1.287735E-1,-2.2128256E-1,-6.660038E-2,-2.7897575E-1,1.6100071E-1,-2.3130472E-1,1.2639874E-1,-2.2383626E-1,-1.8389484E-1,-2.3585236E-1,7.046974E-2,1.0302859E-1,-1.958363E-1,-2.9835543E-1,-2.2506535E-1,-2.4156126E-1,1.7731345E-1,4.362143E-2,-2.9149732E-1,-2.2010359E-1,-2.379046E-1],"split_indices":[13,11,3,9,3,12,7,0,20,28,21,17,19,0,16,10,0,0,0,25,7,25,27,19,3,3,13,4,24,16,13,0,23,8,6,20,16,10,12,9,23,0,13,15,23,6,17,10,6,29,18,13,26,0,0,28,4,0,0,0,0,0,0,0,0,0,0,0,0,0,0,0,0,0,0,0,0,0,0,0,0,0,0,0,0,0,0,0,0,0,0,0,0,0,0,0,0,0,0,0,0,0,0],"split_type":[0,0,0,0,0,0,0,0,0,0,0,0,0,0,0,0,0,0,0,0,0,0,0,0,0,0,0,0,0,0,0,0,0,0,0,0,0,0,0,0,0,0,0,0,0,0,0,0,0,0,0,0,0,0,0,0,0,0,0,0,0,0,0,0,0,0,0,0,0,0,0,0,0,0,0,0,0,0,0,0,0,0,0,0,0,0,0,0,0,0,0,0,0,0,0,0,0,0,0,0,0,0,0],"sum_hessian":[1.0966225E5,6.593786E4,4.3724387E4,5.8639445E4,7.298412E3,1.597104E4,2.7753348E4,5.862832E4,1.1128766E1,3.1242068E3,4.1742056E3,2.3590386E3,1.3612002E4,2.4035352E4,3.7179956E3,5.8625426E4,2.8924277E0,1.0089052E1,1.0397133E0,3.4518338E2,2.7790234E3,1.4380405E1,4.1598247E3,1.3100521E3,1.0489866E3,1.2749087E3,1.2337093E4,2.0986947E4,3.0484048E3,4.5478817E1,3.6725168E3,2.617378E0,5.862281E4,2.3232768E2,1.1285569E2,2.5312556E3,2.4776782E2,6.470684E0,7.909722E0,3.129418E1,4.128531E3,2.1826384E1,1.2882257E3,4.0352835E2,6.454582E2,1.076094E3,1.9881462E2,2.6434836E2,1.2072745E4,7.060235E3,1.3926712E4,2.853337E3,1.9506795E2,1.1898732E0,4.4288944E1,4.188885E2,3.2536284E3,1.8637604E0,5.8620945E4,1.2687521E2,1.0545247E2,1.056843E1,1.0228726E2,2.9428122E2,2.2369744E3,2.0191309E2,4.5854733E1,2.1091042E0,4.36158E0,5.8586802E0,2.0510416E0,9.290566E0,2.2003613E1,4.1195483E3,8.982489E0,1.1467376E1,1.0359008E1,1.6541655E2,1.1228091E3,3.702446E2,3.3283726E1,8.138189E1,5.640763E2,1.0413463E3,3.474771E1,3.534557E1,1.6346906E2,2.0453458E2,5.981377E1,1.182387E4,2.4887477E2,3.668646E3,3.3915889E3,1.1887834E4,2.0388783E3,4.6210565E2,2.3912312E3,4.160213E1,1.5346582E2,2.072653E1,3.9816196E2,1.831393E3,1.4222355E3],"tree_param":{"num_deleted":"0","num_feature":"30","num_nodes":"103","size_leaf_vector":"1"}},{"base_weights":[3.405799E-1,9.7550094E-1,-5.5023915E-1,1.041266E0,4.7375754E-1,-1.1499637E0,-2.5425577E-1,1.0417156E0,-2.1237627E-1,-1.09461054E-1,9.5419985E-1,-7.6173276E-1,-1.2066053E0,1.2527701E-1,-6.502032E-1,1.041914E0,-3.1271896E-1,-2.0717137E0,1.426965E-1,-1.8902915E0,9.805355E-1,-1.200659E0,-6.0349602E-2,-8.607801E-1,-1.2166972E0,4.331746E-1,-5.794363E-1,-4.5868805E-1,-1.2888225E0,-2.161184E-1,1.042051E0,1.6358493E-1,-2.158497E0,3.9701343E-1,-1.1547846E0,-2.609637E0,-2.3551641E-1,-2.2548144E0,9.9993163E-1,-1.2380867E0,1.24998696E-1,-1.0739236E0,5.745046E-1,-1.1631575E0,5.41838E-1,-1.0504466E0,-1.2284592E0,6.118656E-1,-1.2857863E0,5.694933E-1,-1.0354769E0,-1.5353006E-1,-9.5147824E-1,-1.3682251E0,5.945877E-1,1.8133153E-1,1.2834272E-1,-2.1149886E-1,-4.1825512E-1,1.2157219E-1,-1.7106386E-1,1.3828993E-1,-3.6446553E-1,-2.1345694E-1,-5.147027E-1,-5.6491905E-1,1.00757286E-1,1.7557606E-1,-4.662387E-1,-1.6337493E-1,-2.1838506E-1,-2.0052014E-1,1.6634928E-1,-2.1734633E-1,1.02809854E-1,1.3896367E-1,-3.1654626E-1,-2.3603866E-1,8.3074935E-2,-2.569174E-1,1.7668127E-1,-2.1288984E-1,4.5060545E-2,-2.3146217E-1,-2.1108286E-1,1.2909743E-1,-1.14362895E-1,-3.8409743E-1,3.5186224E-2,1.4013962E-1,-3.9747125E-1,1.4058104E-1,-2.455119E-1,-1.9063215E-1,4.096818E-2,-2.380187E-1,2.8832125E-2,-2.4550174E-1,8.220869E-2,2.005681E-1,-2.852511E-1],"categories":[],"categories_nodes":[],"categories_segments":[],"categories_sizes":[],"default_left":[0,0,0,0,0,0,0,0,0,0,0,0,0,0,0,0,0,0,0,0,0,0,0,0,0,0,0,0,0,0,0,0,0,0,0,0,0,0,0,0,0,0,0,0,0,0,0,0,0,0,0,0,0,0,0,0,0,0,0,0,0,0,0,0,0,0,0,0,0,0,0,0,0,0,0,0,0,0,0,0,0,0,0,0,0,0,0,0,0,0,0,0,0,0,0,0,0,0,0,0,0],"id":8,"left_children":[1,3,5,7,9,11,13,15,-1,17,19,21,23,25,27,29,-1,31,33,35,37,39,41,43,45,47,49,51,53,-1,55,-1,57,59,61,63,-1,65,67,69,71,73,75,77,79,81,83,85,87,89,91,93,95,97,99,-1,-1,-1,-1,-1,-1,-1,-1,-1,-1,-1,-1,-1,-1,-1,-1,-1,-1,-1,-1,-1,-1,-1,-1,-1,-1,-1,-1,-1,-1,-1,-1,-1,-1,-1,-1,-1,-1,-1,-1,-1,-1,-1,-1,-1,-1],"loss_changes":[5.442974E4,1.8535117E3,7.108371E3,5.1808594E1,1.8250602E3,2.9007617E2,4.0296812E3,2.9867188E1,0E0,1.4563483E3,2.6938086E2,5.194513E2,3.925E1,2.9711458E3,1.6045161E3,1.6832031E1,0E0,8.965747E1,8.6121246E2,9.2183E0,2.243479E2,5.16532E1,4.1927588E2,1.4093532E2,2.0644531E1,2.927856E3,2.1821821E3,1.518324E3,4.535166E2,0E0,1.39609375E1,0E0,7.3038086E1,9.1145435E2,7.872168E2,2.6928024E0,0E0,6.2207863E1,1.3212793E2,4.2630615E0,3.2377018E1,7.4391846E1,2.1723875E2,8.763376E1,5.8372364E1,1.7088043E2,1.3792969E1,1.4331672E3,1.2341956E3,8.016411E2,2.0720354E3,2.2892832E3,1.8020127E3,2.3552637E2,1.5580907E2,0E0,0E0,0E0,0E0,0E0,0E0,0E0,0E0,0E0,0E0,0E0,0E0,0E0,0E0,0E0,0E0,0E0,0E0,0E0,0E0,0E0,0E0,0E0,0E0,0E0,0E0,0E0,0E0,0E0,0E0,0E0,0E0,0E0,0E0,0E0,0E0,0E0,0E0,0E0,0E0,0E0,0E0,0E0,0E0,0E0,0E0],"parents":[2147483647,0,0,1,1,2,2,3,3,4,4,5,5,6,6,7,7,9,9,10,10,11,11,12,12,13,13,14,14,15,15,17,17,18,18,19,19,20,20,21,21,22,22,23,23,24,24,25,25,26,26,27,27,28,28,30,30,32,32,33,33,34,34,35,35,37,37,38,38,39,39,40,40,41,41,42,42,43,43,44,44,45,45,46,46,47,47,48,48,49,49,50,50,51,51,52,52,53,53,54,54],"right_children":[2,4,6,8,10,12,14,16,-1,18,20,22,24,26,28,30,-1,32,34,36,38,40,42,44,46,48,50,52,54,-1,56,-1,58,60,62,64,-1,66,68,70,72,74,76,78,80,82,84,86,88,90,92,94,96,98,100,-1,-1,-1,-1,-1,-1,-1,-1,-1,-1,-1,-1,-1,-1,-1,-1,-1,-1,-1,-1,-1,-1,-1,-1,-1,-1,-1,-1,-1,-1,-1,-1,-1,-1,-1,-1,-1,-1,-1,-1,-1,-1,-1,-1,-1,-1],"split_conditions":[-1.5294013E0,-1.8581681E0,8.333343E-2,1.1133977E0,1.9939569E0,-1.225658E0,-2.9464826E-2,1.2686524E0,-2.1237627E-1,-3.4560758E-1,-1.589929E-2,6.108947E-1,-1.2966703E0,2.7397153E-1,3.1905252E-1,-4.0570828E-1,-3.1271896E-1,-4.6644177E0,3.87095E-2,7.148307E-1,-1.0473038E0,1.7655518E0,-2.6561344E-1,1.4066027E0,-5.424598E-1,1.2325687E0,-6.299213E-1,1.19227745E-1,5.563938E0,-2.161184E-1,3.1528027E0,1.6358493E-1,-2.9546663E-1,-1.3511546E-1,-1.0071377E0,-3.8393635E-1,-2.3551641E-1,1.2456877E0,2.7030984E-1,-5.205602E-1,4.018928E-1,1.4351662E0,1.3862936E-1,2.039342E0,1.0546302E-1,-8.355083E-3,-7.138002E-1,1.2325237E0,1.4730226E-1,1.0771153E0,-1.86272E0,-1.8628119E-2,5.2946806E-1,1.1272405E0,-1.4008452E0,1.8133153E-1,1.2834272E-1,-2.1149886E-1,-4.1825512E-1,1.2157219E-1,-1.7106386E-1,1.3828993E-1,-3.6446553E-1,-2.1345694E-1,-5.147027E-1,-5.6491905E-1,1.00757286E-1,1.7557606E-1,-4.662387E-1,-1.6337493E-1,-2.1838506E-1,-2.0052014E-1,1.6634928E-1,-2.1734633E-1,1.02809854E-1,1.3896367E-1,-3.1654626E-1,-2.3603866E-1,8.3074935E-2,-2.569174E-1,1.7668127E-1,-2.1288984E-1,4.5060545E-2,-2.3146217E-1,-2.1108286E-1,1.2909743E-1,-1.14362895E-1,-3.8409743E-1,3.5186224E-2,1.4013962E-1,-3.9747125E-1,1.4058104E-1,-2.455119E-1,-1.9063215E-1,4.096818E-2,-2.380187E-1,2.8832125E-2,-2.4550174E-1,8.220869E-2,2.005681E-1,-2.852511E-1],"split_indices":[13,11,3,9,3,12,11,0,0,28,27,17,13,13,23,10,0,6,26,9,21,21,3,10,19,2,7,13,28,0,16,0,3,25,21,10,0,12,23,19,17,10,7,6,0,3,13,0,10,13,18,4,28,25,12,0,0,0,0,0,0,0,0,0,0,0,0,0,0,0,0,0,0,0,0,0,0,0,0,0,0,0,0,0,0,0,0,0,0,0,0,0,0,0,0,0,0,0,0,0,0],"split_type":[0,0,0,0,0,0,0,0,0,0,0,0,0,0,0,0,0,0,0,0,0,0,0,0,0,0,0,0,0,0,0,0,0,0,0,0,0,0,0,0,0,0,0,0,0,0,0,0,0,0,0,0,0,0,0,0,0,0,0,0,0,0,0,0,0,0,0,0,0,0,0,0,0,0,0,0,0,0,0,0,0,0,0,0,0,0,0,0,0,0,0,0,0,0,0,0,0,0,0,0,0],"sum_hessian":[9.623171E4,5.618582E4,4.0045895E4,4.967384E4,6.511979E3,1.3232063E4,2.681383E4,4.966451E4,9.327563E0,2.9417283E3,3.570251E3,1.6865574E3,1.1545506E4,1.369105E4,1.3122781E4,4.9661676E4,2.8358464E0,3.3415643E2,2.6075718E3,3.210254E1,3.5381484E3,1.0369323E3,6.496251E2,3.2981467E2,1.1215691E4,9.528375E3,4.1626743E3,1.0096628E4,3.0261533E3,2.4314823E0,4.9659246E4,9.0806875E0,3.2507574E2,2.1808093E3,4.267625E2,1.2048238E1,2.00543E1,2.0398218E1,3.5177502E3,1.00852435E3,2.8407856E1,2.4992183E2,3.9970334E2,2.7146317E2,5.8351486E1,7.4703503E2,1.0468656E4,8.631726E3,8.96649E2,1.1827229E3,2.9799514E3,6.2362017E3,3.8604263E3,2.9039976E3,1.2215576E2,4.9497766E4,1.6148108E2,6.883481E1,2.5624094E2,1.7895895E3,3.9121985E2,1.3901094E2,2.8775156E2,3.351363E0,8.696875E0,1.4991153E1,5.4070654E0,3.508955E3,8.795223E0,6.0634335E1,9.4789E2,1.104586E1,1.7361996E1,2.2622624E2,2.3695591E1,3.6601562E2,3.3687706E1,2.4284558E2,2.8617596E1,1.0697718E1,4.7653767E1,6.594338E2,8.760123E1,1.2659257E3,9.20273E3,7.826443E3,8.0528345E2,5.529841E2,3.436649E2,1.0928958E3,8.982715E1,5.0529504E2,2.4746565E3,1.8213088E3,4.4148926E3,2.8099424E3,1.050484E3,2.836575E3,6.742247E1,9.810302E1,2.4052738E1],"tree_param":{"num_deleted":"0","num_feature":"30","num_nodes":"101","size_leaf_vector":"1"}},{"base_weights":[3.2751048E-1,9.814959E-1,-4.8253793E-1,1.0341487E0,5.1304084E-1,-1.0726116E0,-1.8927361E-1,1.0345939E0,-2.0369136E-1,-1.754601E-1,9.454191E-1,-7.283043E-1,-1.1384375E0,-5.4569386E-2,-1.1799302E0,1.0347724E0,-2.6173028E-1,-1.7870126E0,1.5600702E-1,-2.1888041E0,9.746711E-1,-1.1916547E0,-1.6469714E-1,-7.5402915E-1,-1.1589772E0,4.4438064E-1,-3.536909E-1,9.373755E-1,-1.2177603E0,-1.8661492E-1,1.0348854E0,1.717537E-1,-2.014262E0,-1.8541124E0,3.4729514E-1,-3.0198092E0,-6.862463E-1,9.936336E-1,-1.6042055E0,-1.207237E0,-3.247558E-1,-1.1906142E0,3.564083E-1,5.4722372E-3,-1.3296689E0,-8.916907E-1,-1.1870058E0,7.5135833E-1,-3.047612E-1,-1.1438818E0,-5.047631E-2,1.7796306E-1,-2.9349503E-1,-2.5685555E-1,-1.26162E0,-1.668018E-1,1.7993003E-1,-2.771427E-1,-4.179597E-1,-4.5951992E-1,-2.2174811E-1,9.0250105E-2,-3.2218564E-1,-2.778281E-1,-6.714239E-1,-2.2129758E-1,1.3390605E-1,-4.6415997E-1,1.7451587E-1,-2.94054E-1,-2.1464766E-3,-2.3339766E-1,-2.067157E-1,-1.9651712E-1,1.5664898E-1,-2.1962872E-1,7.005055E-2,1.0750089E-1,-2.7512547E-1,1.11500375E-1,-2.4992275E-1,-2.453208E-1,2.5254718E-3,-1.9766766E-1,9.301576E-2,-2.0712939E-1,-1.6962814E-1,1.407896E-1,-3.1956673E-1,1.5802345E-1,-1.5845348E-1,-1.217114E-3,-2.3296943E-1,4.2417828E-2,-1.3742314E-1,1.7855014E-1,-2.1783243E-1,-2.7444726E-1,-2.1132988E-1],"categories":[],"categories_nodes":[],"categories_segments":[],"categories_sizes":[],"default_left":[0,0,0,0,0,0,0,0,0,0,0,0,0,0,0,0,0,0,0,0,0,0,0,0,0,0,0,0,0,0,0,0,0,0,0,0,0,0,0,0,0,0,0,0,0,0,0,0,0,0,0,0,0,0,0,0,0,0,0,0,0,0,0,0,0,0,0,0,0,0,0,0,0,0,0,0,0,0,0,0,0,0,0,0,0,0,0,0,0,0,0,0,0,0,0,0,0,0,0],"id":9,"left_children":[1,3,5,7,9,11,13,15,-1,17,19,21,23,25,27,29,-1,31,33,35,37,39,41,43,45,47,49,51,53,-1,55,-1,57,59,61,63,65,67,69,71,73,75,77,79,81,83,85,87,89,91,93,-1,-1,95,97,-1,-1,-1,-1,-1,-1,-1,-1,-1,-1,-1,-1,-1,-1,-1,-1,-1,-1,-1,-1,-1,-1,-1,-1,-1,-1,-1,-1,-1,-1,-1,-1,-1,-1,-1,-1,-1,-1,-1,-1,-1,-1,-1,-1],"loss_changes":[4.4657348E4,1.1498984E3,6.5160713E3,4.238672E1,1.4036807E3,2.8250684E2,3.3568374E3,2.0558594E1,0E0,9.7221985E2,2.6765796E2,5.24511E2,8.1975586E1,3.3053047E3,2.4231934E2,1.1105469E1,0E0,1.9777899E2,5.8127026E2,3.1750778E1,1.4194458E2,1.4501343E1,4.856922E2,2.3394891E2,7.355176E1,1.9091415E3,3.3173662E3,1.3828884E1,1.243667E2,0E0,7.6992188E0,0E0,4.3225464E1,5.6606903E1,5.226273E2,1.4361649E1,1.0328693E1,1.0905762E2,2.9404106E0,1.0693359E0,2.1594667E1,3.5957733E1,3.0709296E2,2.1352913E2,3.333783E1,3.3282416E2,7.2373047E0,8.930227E2,1.7779122E3,8.5629395E2,2.1807832E3,0E0,0E0,1.6806264E2,3.9375E1,0E0,0E0,0E0,0E0,0E0,0E0,0E0,0E0,0E0,0E0,0E0,0E0,0E0,0E0,0E0,0E0,0E0,0E0,0E0,0E0,0E0,0E0,0E0,0E0,0E0,0E0,0E0,0E0,0E0,0E0,0E0,0E0,0E0,0E0,0E0,0E0,0E0,0E0,0E0,0E0,0E0,0E0,0E0,0E0],"parents":[2147483647,0,0,1,1,2,2,3,3,4,4,5,5,6,6,7,7,9,9,10,10,11,11,12,12,13,13,14,14,15,15,17,17,18,18,19,19,20,20,21,21,22,22,23,23,24,24,25,25,26,26,27,27,28,28,30,30,32,32,33,33,34,34,35,35,36,36,37,37,38,38,39,39,40,40,41,41,42,42,43,43,44,44,45,45,46,46,47,47,48,48,49,49,50,50,53,53,54,54],"right_children":[2,4,6,8,10,12,14,16,-1,18,20,22,24,26,28,30,-1,32,34,36,38,40,42,44,46,48,50,52,54,-1,56,-1,58,60,62,64,66,68,70,72,74,76,78,80,82,84,86,88,90,92,94,-1,-1,96,98,-1,-1,-1,-1,-1,-1,-1,-1,-1,-1,-1,-1,-1,-1,-1,-1,-1,-1,-1,-1,-1,-1,-1,-1,-1,-1,-1,-1,-1,-1,-1,-1,-1,-1,-1,-1,-1,-1,-1,-1,-1,-1,-1,-1],"split_conditions":[-1.7882352E0,-1.8581681E0,1.4888835E-1,6.3516414E-1,1.9939569E0,-1.0817168E0,2.2281127E-1,1.2686524E0,-2.0369136E-1,-3.4105954E-1,-4.760242E-2,4.838519E-1,-1.2966703E0,-4.2535254E-1,-3.6724732E0,-3.0009496E-1,-2.6173028E-1,-2.2573004E0,-2.1462075E-1,5.5049133E-1,6.0708165E-1,1.7655518E0,2.1725884E-1,-3.2258788E-1,-4.7197187E-1,-3.1145206E-1,-6.15786E-2,-1.4825373E0,-3.5059065E-1,-1.8661492E-1,-1.297215E0,1.717537E-1,-2.2696443E0,7.148307E-1,2.8577226E-1,-1.090215E0,8.1087506E-1,-1.090215E0,6.509024E-1,-6.892534E-1,3.3488995E-1,1.4868478E0,1.4967082E-1,-6.3834977E-3,2.3690238E0,6.1925754E-2,1.8434179E0,3.7302482E-1,-1.2763033E0,-1.266643E0,2.7397153E-1,1.7796306E-1,-2.9349503E-1,-1.4037764E0,-7.138002E-1,-1.668018E-1,1.7993003E-1,-2.771427E-1,-4.179597E-1,-4.5951992E-1,-2.2174811E-1,9.0250105E-2,-3.2218564E-1,-2.778281E-1,-6.714239E-1,-2.2129758E-1,1.3390605E-1,-4.6415997E-1,1.7451587E-1,-2.94054E-1,-2.1464766E-3,-2.3339766E-1,-2.067157E-1,-1.9651712E-1,1.5664898E-1,-2.1962872E-1,7.005055E-2,1.0750089E-1,-2.7512547E-1,1.11500375E-1,-2.4992275E-1,-2.453208E-1,2.5254718E-3,-1.9766766E-1,9.301576E-2,-2.0712939E-1,-1.6962814E-1,1.407896E-1,-3.1956673E-1,1.5802345E-1,-1.5845348E-1,-1.217114E-3,-2.3296943E-1,4.2417828E-2,-1.3742314E-1,1.7855014E-1,-2.1783243E-1,-2.7444726E-1,-2.1132988E-1],"split_indices":[13,11,3,9,3,12,7,0,0,28,10,17,13,9,16,10,0,19,20,9,9,21,23,12,19,12,4,1,28,0,23,0,2,9,25,21,0,21,0,13,17,10,7,8,6,3,6,25,18,0,13,0,0,13,13,0,0,0,0,0,0,0,0,0,0,0,0,0,0,0,0,0,0,0,0,0,0,0,0,0,0,0,0,0,0,0,0,0,0,0,0,0,0,0,0,0,0,0,0],"split_type":[0,0,0,0,0,0,0,0,0,0,0,0,0,0,0,0,0,0,0,0,0,0,0,0,0,0,0,0,0,0,0,0,0,0,0,0,0,0,0,0,0,0,0,0,0,0,0,0,0,0,0,0,0,0,0,0,0,0,0,0,0,0,0,0,0,0,0,0,0,0,0,0,0,0,0,0,0,0,0,0,0,0,0,0,0,0,0,0,0,0,0,0,0,0,0,0,0,0,0],"sum_hessian":[8.429544E4,4.664046E4,3.7654977E4,4.192682E4,4.7136416E3,1.2500403E4,2.5154574E4,4.191889E4,7.929377E0,1.8185127E3,2.895129E3,2.0082367E3,1.0492167E4,2.2144533E4,3.010041E3,4.191654E4,2.3525124E0,3.094779E2,1.5090348E3,2.6088093E1,2.869041E3,1.1015339E3,9.0670276E2,5.3409174E2,9.958075E3,8.299708E3,1.3844825E4,5.2419235E1,2.9576218E3,1.7388532E0,4.1914797E4,2.317236E1,2.8630554E2,1.3037004E2,1.3786647E3,1.6147675E1,9.940418E0,2.848709E3,2.0331861E1,1.081698E3,1.9835867E1,3.0498474E2,6.01718E2,2.3069814E2,3.033936E2,9.482462E2,9.009829E3,5.887266E3,2.4124424E3,3.8385688E3,1.0006256E4,5.1342255E1,1.0769814E0,1.2940454E2,2.8282173E3,1.2051358E0,4.1913594E4,1.402536E2,1.4605193E2,5.3644695E1,7.672534E1,1.2795178E3,9.9146935E1,7.0851884E0,9.062487E0,7.1759806E0,2.7644377E0,7.1773267E0,2.8415317E3,1.9216585E1,1.1152774E0,1.196374E2,9.620606E2,1.2016375E1,7.8194923E0,2.918761E2,1.310862E1,5.307037E2,7.101439E1,1.6051979E2,7.017835E1,2.8601767E2,1.7375895E1,8.093023E2,1.3894392E2,8.821011E3,1.8881839E2,5.7579424E3,1.2932346E2,8.0381415E2,1.6086282E3,5.650285E2,3.2735405E3,7.1583735E3,2.8478828E3,5.6522717E1,7.288182E1,3.5444107E2,2.4737764E3],"tree_param":{"num_deleted":"0","num_feature":"30","num_nodes":"99","size_leaf_vector":"1"}},{"base_weights":[3.1380215E-1,9.71065E-1,-4.4091454E-1,1.0277643E0,4.8794183E-1,-1.0614061E0,-1.7978556E-1,1.0282362E0,-1.0493158E0,-1.5882857E-1,9.298511E-1,-6.654776E-1,-1.1114511E0,-5.7219293E-2,-1.1425288E0,1.0284274E0,-2.363832E-1,-5.3444915E-2,-1.9356212E-1,-1.8399377E0,1.2854362E-1,-1.8342277E0,9.6005356E-1,-1.1322345E0,-2.7990201E-4,-7.092224E-1,-1.1338454E0,5.701688E-1,-2.6352954E-1,9.1640514E-1,-1.1770955E0,-1.668421E-1,1.0285513E0,-2.338194E0,2.380231E-1,3.1053397E-1,-1.8024814E0,-2.159236E0,3.193198E-1,9.770539E-1,-2.0742877E0,-2.0181137E-1,-5.093785E-1,-1.354366E0,4.4876155E-1,-1.0484004E0,5.1734835E-1,-1.1484184E0,-8.728802E-1,6.5570045E-1,-2.2076466E0,6.619404E-1,-4.09363E-1,-2.7254832E-1,1.7618932E-1,-2.609623E-1,-1.2175349E0,1.7898187E-1,1.2827645E-1,-3.1254044E-1,-6.0107857E-1,1.4248364E-1,-1.0212067E0,1.0360727E-1,-1.295687E-1,-2.1753173E-1,-3.9049327E-1,-4.7052133E-1,-2.7078727E-1,1.2274543E-1,-5.802004E-2,-3.454717E-1,1.7212828E-1,-1.9470313E-1,-4.093149E-1,-2.1180487E-1,1.3727887E-1,-3.546223E-1,-2.1659724E-1,1.2374321E-1,-2.7006516E-1,-2.0983963E-1,5.7673424E-2,-2.3489407E-1,1.6986275E-1,-1.9994554E-1,-1.4239617E-1,5.6913707E-2,-1.9285259E-1,1.3937388E-1,-1.1592184E-1,1.1015682E-3,-4.481728E-1,1.3971885E-1,-2.9559633E-1,-1.8265265E-1,-2.1737201E-2,1.7582071E-1,-2.0925863E-1,-2.616058E-1,-2.0428807E-1],"categories":[],"categories_nodes":[],"categories_segments":[],"categories_sizes":[],"default_left":[0,0,0,0,0,0,0,0,0,0,0,0,0,0,0,0,0,0,0,0,0,0,0,0,0,0,0,0,0,0,0,0,0,0,0,0,0,0,0,0,0,0,0,0,0,0,0,0,0,0,0,0,0,0,0,0,0,0,0,0,0,0,0,0,0,0,0,0,0,0,0,0,0,0,0,0,0,0,0,0,0,0,0,0,0,0,0,0,0,0,0,0,0,0,0,0,0,0,0,0,0],"id":10,"left_children":[1,3,5,7,9,11,13,15,17,19,21,23,25,27,29,31,-1,-1,-1,33,35,37,39,41,43,45,47,49,51,53,55,-1,57,59,61,63,65,67,69,71,73,-1,75,77,79,81,83,85,87,89,91,93,95,-1,-1,97,99,-1,-1,-1,-1,-1,-1,-1,-1,-1,-1,-1,-1,-1,-1,-1,-1,-1,-1,-1,-1,-1,-1,-1,-1,-1,-1,-1,-1,-1,-1,-1,-1,-1,-1,-1,-1,-1,-1,-1,-1,-1,-1,-1,-1],"loss_changes":[3.674669E4,1.0841328E3,5.587089E3,3.5816406E1,1.1893557E3,2.0163379E2,2.8638928E3,1.7570312E1,6.382084E-2,8.165704E2,2.0812915E2,3.5662363E2,8.085742E1,2.7870437E3,1.961499E2,9.71875E0,0E0,0E0,0E0,2.560299E2,5.0802847E2,1.9631218E1,1.282002E2,1.1429871E1,2.8919675E2,2.0056682E2,3.165039E1,1.2674409E3,2.1871682E3,1.2634193E1,9.956665E1,0E0,9.1328125E0,1.1422888E2,1.7766888E2,3.9837936E2,2.764096E1,3.5686493E0,1.3518485E0,9.59812E1,1.0917206E0,0E0,2.988639E1,6.266571E0,1.8919606E2,8.292032E1,9.135718E1,3.5498047E0,1.3040393E2,9.986787E2,1.3068262E2,7.399636E2,2.5521968E3,0E0,0E0,1.3944844E2,2.9720215E1,0E0,0E0,0E0,0E0,0E0,0E0,0E0,0E0,0E0,0E0,0E0,0E0,0E0,0E0,0E0,0E0,0E0,0E0,0E0,0E0,0E0,0E0,0E0,0E0,0E0,0E0,0E0,0E0,0E0,0E0,0E0,0E0,0E0,0E0,0E0,0E0,0E0,0E0,0E0,0E0,0E0,0E0,0E0,0E0],"parents":[2147483647,0,0,1,1,2,2,3,3,4,4,5,5,6,6,7,7,8,8,9,9,10,10,11,11,12,12,13,13,14,14,15,15,19,19,20,20,21,21,22,22,23,23,24,24,25,25,26,26,27,27,28,28,29,29,30,30,32,32,33,33,34,34,35,35,36,36,37,37,38,38,39,39,40,40,42,42,43,43,44,44,45,45,46,46,47,47,48,48,49,49,50,50,51,51,52,52,55,55,56,56],"right_children":[2,4,6,8,10,12,14,16,18,20,22,24,26,28,30,32,-1,-1,-1,34,36,38,40,42,44,46,48,50,52,54,56,-1,58,60,62,64,66,68,70,72,74,-1,76,78,80,82,84,86,88,90,92,94,96,-1,-1,98,100,-1,-1,-1,-1,-1,-1,-1,-1,-1,-1,-1,-1,-1,-1,-1,-1,-1,-1,-1,-1,-1,-1,-1,-1,-1,-1,-1,-1,-1,-1,-1,-1,-1,-1,-1,-1,-1,-1,-1,-1,-1,-1,-1,-1],"split_conditions":[-1.7882352E0,-1.8581681E0,8.333343E-2,6.0708165E-1,1.9939569E0,-1.3170961E0,2.2281127E-1,1.2686524E0,-2.60748E-1,-1.2107885E0,-4.760242E-2,-2.6561344E-1,-1.2966703E0,-9.581454E-1,-3.6724732E0,-3.0009496E-1,-2.363832E-1,-5.3444915E-2,-1.9356212E-1,2.2789243E-1,1.3677254E0,1.0505483E-1,3.471447E-1,1.4638789E0,6.0678337E-2,1.3249211E0,1.4122913E-2,1.5866548E-1,-2.2696443E0,-2.0271225E-2,-3.502514E-1,-1.668421E-1,3.1528027E0,-3.453132E-1,7.5344604E-1,-1.1800679E-1,-8.258074E-2,2.3113051E-1,-1.6954342E0,-2.411462E-2,-3.6115804E-1,-2.0181137E-1,9.266099E-1,-6.1957914E-1,9.2343114E-2,2.039342E0,1.0546302E-1,3.747761E0,-5.424598E-1,7.9977155E-2,-1.0495836E0,1.7205174E-1,-4.101432E-3,-2.7254832E-1,1.7618932E-1,-1.4037764E0,-7.138002E-1,1.7898187E-1,1.2827645E-1,-3.1254044E-1,-6.0107857E-1,1.4248364E-1,-1.0212067E0,1.0360727E-1,-1.295687E-1,-2.1753173E-1,-3.9049327E-1,-4.7052133E-1,-2.7078727E-1,1.2274543E-1,-5.802004E-2,-3.454717E-1,1.7212828E-1,-1.9470313E-1,-4.093149E-1,-2.1180487E-1,1.3727887E-1,-3.546223E-1,-2.1659724E-1,1.2374321E-1,-2.7006516E-1,-2.0983963E-1,5.7673424E-2,-2.3489407E-1,1.6986275E-1,-1.9994554E-1,-1.4239617E-1,5.6913707E-2,-1.9285259E-1,1.3937388E-1,-1.1592184E-1,1.1015682E-3,-4.481728E-1,1.3971885E-1,-2.9559633E-1,-1.8265265E-1,-2.1737201E-2,1.7582071E-1,-2.0925863E-1,-2.616058E-1,-2.0428807E-1],"split_indices":[13,11,3,9,3,12,7,0,19,5,10,3,13,18,16,10,0,0,0,28,4,11,7,10,20,10,3,27,2,6,28,0,16,28,3,25,3,9,2,27,20,0,17,13,24,6,0,6,19,11,13,12,4,0,0,13,13,0,0,0,0,0,0,0,0,0,0,0,0,0,0,0,0,0,0,0,0,0,0,0,0,0,0,0,0,0,0,0,0,0,0,0,0,0,0,0,0,0,0,0,0],"split_type":[0,0,0,0,0,0,0,0,0,0,0,0,0,0,0,0,0,0,0,0,0,0,0,0,0,0,0,0,0,0,0,0,0,0,0,0,0,0,0,0,0,0,0,0,0,0,0,0,0,0,0,0,0,0,0,0,0,0,0,0,0,0,0,0,0,0,0,0,0,0,0,0,0,0,0,0,0,0,0,0,0,0,0,0,0,0,0,0,0,0,0,0,0,0,0,0,0,0,0,0,0],"sum_hessian":[7.407715E4,3.95948E4,3.448235E4,3.5435023E4,4.1597783E3,1.0212489E4,2.4269861E4,3.5427477E4,7.544361E0,1.6887684E3,2.47101E3,1.1476005E3,9.064889E3,2.1529955E4,2.7399062E3,3.542521E4,2.2669203E0,1.0605829E0,6.4837785E0,2.457491E2,1.4430193E3,2.6062693E1,2.4449473E3,6.7397943E2,4.73621E2,4.797981E2,8.585091E3,5.3274507E3,1.6202505E4,4.481855E1,2.695088E3,1.7267227E0,3.5423484E4,1.981187E2,4.7630394E1,1.3195015E3,1.23517845E2,2.2642847E1,3.4198456E0,2.4319998E3,1.2947606E1,6.435711E2,3.0408377E1,1.1744601E2,3.56175E2,3.7597632E2,1.03821754E2,8.127812E3,4.5727902E2,5.169054E3,1.5839635E2,2.2051184E3,1.3997386E4,1.1152741E0,4.3703278E1,1.1425098E2,2.580837E3,3.530431E4,1.191753E2,1.3536238E2,6.2756325E1,4.4282875E1,3.3475173E0,1.0390503E3,2.8045114E2,5.6784626E1,6.673322E1,1.0025756E1,1.2617091E1,2.0969605E0,1.3228848E0,9.985332E0,2.4220144E3,4.0720806E0,8.875525E0,1.9712473E1,1.0695904E1,1.3616217E1,1.03829796E2,3.1538882E2,4.078616E1,3.37335E2,3.8641323E1,2.0117208E1,8.3704544E1,8.0841465E3,4.3665367E1,7.518609E1,3.8209296E2,4.655541E3,5.135136E2,2.2835402E1,1.3556094E2,2.0809268E3,1.24191635E2,4.2989795E3,9.698406E3,4.8594307E1,6.565667E1,3.279458E2,2.252891E3],"tree_param":{"num_deleted":"0","num_feature":"30","num_nodes":"101","size_leaf_vector":"1"}},{"base_weights":[2.9883662E-1,9.6711534E-1,-3.9182016E-1,1.0195774E0,4.5700783E-1,-9.980102E-1,-1.4368965E-1,-1.8787874E-1,1.0202544E0,-1.375307E-1,8.900592E-1,-1.0658675E0,-6.7812556E-1,-3.650636E-2,-1.0940139E0,-2.6143745E-1,1.0205534E0,4.2126963E-1,-9.31215E-1,-1.7543067E0,9.275753E-1,-5.8023953E-1,-1.1221883E0,-1.0142169E0,2.0934102E-1,8.611765E-2,-1.0149652E0,9.212565E-1,-1.1369289E0,1.0208164E0,-1.3611847E0,-1.1455159E0,6.7520523E-1,-1.8666368E0,1.0177246E-1,-1.9210119E0,2.4373552E-2,9.433221E-1,-2.6398776E0,-1.1090906E0,3.063831E-1,-1.1336006E0,-5.8365697E-1,-6.00456E-1,-1.961699E-1,-1.9685374E-1,8.4676874E-1,1.6351241E-1,-1.765292E0,3.8882148E-1,-1.2516764E0,-2.5293514E-1,1.7533314E-1,-2.8651655E-1,-1.1848478E0,1.7751035E-1,-2.813225E-1,9.605254E-2,-4.1866574E-1,-2.1950127E-1,-4.404483E-2,-3.2235628E-1,1.4446197E-1,-3.6584997E-1,1.3744584E-1,-2.5972167E-1,1.0262333E-1,-3.613472E-1,-1.9178715E-1,1.6766874E-1,-2.4348317E-1,-8.29248E-1,-2.6085952E-1,-1.9620988E-1,-6.152588E-3,1.3266592E-1,-2.3603913E-1,-2.2834416E-1,-1.9399768E-1,-2.0851131E-1,1.3023618E-1,-2.1082348E-1,2.5847185E-2,-3.0202785E-1,1.6485949E-1,5.340628E-2,-1.2480385E-1,-3.3297893E-1,1.1768948E-1,1.7113878E-1,-3.3791918E-1,-2.7305868E-1,-2.0472448E-1,-2.0227218E-1,1.7174697E-1,-2.5121278E-1,-1.9889148E-1],"categories":[],"categories_nodes":[],"categories_segments":[],"categories_sizes":[],"default_left":[0,0,0,0,0,0,0,0,0,0,0,0,0,0,0,0,0,0,0,0,0,0,0,0,0,0,0,0,0,0,0,0,0,0,0,0,0,0,0,0,0,0,0,0,0,0,0,0,0,0,0,0,0,0,0,0,0,0,0,0,0,0,0,0,0,0,0,0,0,0,0,0,0,0,0,0,0,0,0,0,0,0,0,0,0,0,0,0,0,0,0,0,0,0,0,0,0],"id":11,"left_children":[1,3,5,7,9,11,13,-1,15,17,19,21,23,25,27,-1,29,31,33,35,37,39,41,43,45,47,49,51,53,55,57,59,61,63,65,67,-1,69,71,73,75,77,79,81,-1,-1,83,85,87,89,91,-1,-1,93,95,-1,-1,-1,-1,-1,-1,-1,-1,-1,-1,-1,-1,-1,-1,-1,-1,-1,-1,-1,-1,-1,-1,-1,-1,-1,-1,-1,-1,-1,-1,-1,-1,-1,-1,-1,-1,-1,-1,-1,-1,-1,-1],"loss_changes":[3.0252225E4,8.91E2,4.8481543E3,4.4046875E1,8.0039984E2,2.0248535E2,2.32971E3,0E0,2.4324219E1,5.8173505E2,1.8005127E2,2.1054102E2,4.897016E2,2.4663464E3,2.0153613E2,0E0,2.0314453E1,3.0708615E2,5.237958E2,8.324333E0,1.02147095E2,3.7756918E2,4.1856445E1,5.5555542E1,3.8717944E2,2.6177432E3,7.611821E2,1.1604881E1,9.217676E1,2.0064453E1,8.872731E0,1.0933533E1,2.6278607E2,1.8134723E2,2.023592E2,7.349014E-1,0E0,8.880237E1,1.2402363E1,1.0524963E1,2.3008063E2,2.011621E1,1.2039795E2,1.19228096E2,0E0,0E0,8.210428E1,2.220846E3,2.698755E2,4.6185666E2,4.445166E1,0E0,0E0,1.379691E2,2.1163086E1,0E0,0E0,0E0,0E0,0E0,0E0,0E0,0E0,0E0,0E0,0E0,0E0,0E0,0E0,0E0,0E0,0E0,0E0,0E0,0E0,0E0,0E0,0E0,0E0,0E0,0E0,0E0,0E0,0E0,0E0,0E0,0E0,0E0,0E0,0E0,0E0,0E0,0E0,0E0,0E0,0E0,0E0],"parents":[2147483647,0,0,1,1,2,2,3,3,4,4,5,5,6,6,8,8,9,9,10,10,11,11,12,12,13,13,14,14,16,16,17,17,18,18,19,19,20,20,21,21,22,22,23,23,24,24,25,25,26,26,27,27,28,28,29,29,30,30,31,31,32,32,33,33,34,34,35,35,37,37,38,38,39,39,40,40,41,41,42,42,43,43,46,46,47,47,48,48,49,49,50,50,53,53,54,54],"right_children":[2,4,6,8,10,12,14,-1,16,18,20,22,24,26,28,-1,30,32,34,36,38,40,42,44,46,48,50,52,54,56,58,60,62,64,66,68,-1,70,72,74,76,78,80,82,-1,-1,84,86,88,90,92,-1,-1,94,96,-1,-1,-1,-1,-1,-1,-1,-1,-1,-1,-1,-1,-1,-1,-1,-1,-1,-1,-1,-1,-1,-1,-1,-1,-1,-1,-1,-1,-1,-1,-1,-1,-1,-1,-1,-1,-1,-1,-1,-1,-1,-1],"split_conditions":[-1.8862135E0,-1.7506597E0,1.2799907E-1,-4.9406993E-1,1.9939569E0,9.195579E-1,2.2281127E-1,-1.8787874E-1,-6.349367E-1,4.5563033E-1,-4.760242E-2,-5.024757E-1,1.1177037E0,1.7159436E0,-3.5113254E0,-2.6143745E-1,4.1478433E-2,-4.3995512E-1,-2.256609E0,1.0505483E-1,5.51697E-1,-1.8144488E-1,2.039342E0,-8.452117E-1,2.786128E-2,6.818889E-1,-7.850399E-1,-1.649489E-1,-2.0127857E0,1.2686524E0,-1.0575656E0,1.4431236E0,-9.0238765E-2,3.3626986E0,5.1163346E-1,5.5049133E-1,2.4373552E-2,6.0708165E-1,-3.4120834E-1,1.7655518E0,-1.9491334E-1,-9.604472E-1,7.624397E-1,4.6568987E-1,-1.961699E-1,-1.9685374E-1,-6.250432E-1,1.2325687E0,1.3663172E0,5.9783596E-1,-7.138002E-1,-2.5293514E-1,1.7533314E-1,1.6173074E0,-7.138002E-1,1.7751035E-1,-2.813225E-1,9.605254E-2,-4.1866574E-1,-2.1950127E-1,-4.404483E-2,-3.2235628E-1,1.4446197E-1,-3.6584997E-1,1.3744584E-1,-2.5972167E-1,1.0262333E-1,-3.613472E-1,-1.9178715E-1,1.6766874E-1,-2.4348317E-1,-8.29248E-1,-2.6085952E-1,-1.9620988E-1,-6.152588E-3,1.3266592E-1,-2.3603913E-1,-2.2834416E-1,-1.9399768E-1,-2.0851131E-1,1.3023618E-1,-2.1082348E-1,2.5847185E-2,-3.0202785E-1,1.6485949E-1,5.340628E-2,-1.2480385E-1,-3.3297893E-1,1.1768948E-1,1.7113878E-1,-3.3791918E-1,-2.7305868E-1,-2.0472448E-1,-2.0227218E-1,1.7174697E-1,-2.5121278E-1,-1.9889148E-1],"split_indices":[13,9,3,3,3,15,7,0,10,4,10,19,10,0,16,0,2,3,13,11,7,3,6,13,17,24,9,6,12,0,15,29,20,20,0,9,0,9,9,21,25,13,16,10,0,0,4,2,0,8,13,0,0,10,13,0,0,0,0,0,0,0,0,0,0,0,0,0,0,0,0,0,0,0,0,0,0,0,0,0,0,0,0,0,0,0,0,0,0,0,0,0,0,0,0,0,0],"split_type":[0,0,0,0,0,0,0,0,0,0,0,0,0,0,0,0,0,0,0,0,0,0,0,0,0,0,0,0,0,0,0,0,0,0,0,0,0,0,0,0,0,0,0,0,0,0,0,0,0,0,0,0,0,0,0,0,0,0,0,0,0,0,0,0,0,0,0,0,0,0,0,0,0,0,0,0,0,0,0,0,0,0,0,0,0,0,0,0,0,0,0,0,0,0,0,0,0],"sum_hessian":[6.554284E4,3.3310875E4,3.2231967E4,3.020359E4,3.1072878E3,9.360637E3,2.287133E4,9.218063E0,3.0194371E4,1.3097742E3,1.7975135E3,7.7205415E3,1.6400956E3,2.0554146E4,2.3171821E3,2.9806473E0,3.019139E4,7.688957E2,5.408785E2,2.4504778E1,1.7730088E3,8.035135E2,6.917028E3,1.1894846E3,4.50611E2,1.826591E4,2.2882378E3,4.7888546E1,2.2692937E3,3.0188625E4,2.764283E0,1.0674803E2,6.6214764E2,2.8342023E2,2.5745822E2,2.2510036E1,1.9947425E0,1.7659495E3,7.059369E0,5.031466E2,3.0036688E2,6.7724043E3,1.4462341E2,2.585754E2,9.309092E2,1.4488399E2,3.05727E2,1.7533852E4,7.320586E2,3.3008243E2,1.9581555E3,1.1412983E0,4.6747246E1,1.214215E2,2.1478723E3,3.0186596E4,2.0303183E0,1.1445683E0,1.6197146E0,9.399885E1,1.2749183E1,3.7773827E1,6.2437384E2,2.6033545E2,2.3084787E1,5.9863255E1,1.9759499E2,1.7583048E1,4.926989E0,1.750765E3,1.5184418E1,1.3497866E0,5.7095823E0,4.9411353E2,9.033084E0,2.3610753E2,6.4259346E1,6.007837E2,6.1716206E3,9.89919E1,4.5631523E1,1.4195062E2,1.16624794E2,1.0946974E1,2.9478003E2,1.5076717E4,2.4571338E3,6.898966E2,4.2161945E1,2.634045E2,6.66779E1,3.6530484E2,1.5928506E3,7.197818E1,4.944332E1,2.8662646E2,1.8612457E3],"tree_param":{"num_deleted":"0","num_feature":"30","num_nodes":"97","size_leaf_vector":"1"}},{"base_weights":[2.8285268E-1,9.589209E-1,-3.5383263E-1,1.0178484E0,4.591748E-1,-1.0118612E0,-1.389855E-1,1.018257E0,-1.6730559E-1,-1.8295628E-1,9.009266E-1,-1.0825883E0,-6.676157E-1,1.6599694E-1,-4.4668317E-1,1.0197424E0,5.788388E-1,-1.630497E0,1.2398519E-1,-1.0821848E0,9.4847876E-1,-1.0968869E0,9.3037635E-2,-1.9242711E-1,-3.7115796E-3,2.7556783E-1,-1.4285312E0,2.3321566E-1,-7.6194656E-1,-1.9440277E-1,1.773109E-1,9.148825E-1,-7.8506465E0,-1.9810194E0,2.4901073E-1,-1.5564936E0,3.3343387E-1,-2.208066E0,4.2909408E-1,9.63625E-1,-2.3302531E0,-1.1030817E0,-2.0222275E-1,-1.8819293E-1,9.04573E-1,-1.0978818E0,5.91598E-1,-1.8274407E-1,5.895399E-1,-1.8834281E0,-1.1780103E0,6.002561E-1,-1.0721751E0,-5.44864E-1,-1.4573464E0,-4.601045E-1,1.7589913E-1,-2.1935587E-1,-1.8246614E0,-2.7159733E-1,-4.734458E-1,1.677546E-1,-5.692822E-1,-2.032707E-1,-3.5667917E-1,8.846411E-2,-2.4687752E-1,-5.5636555E-1,-2.8719997E-1,1.5146305E-1,-3.1599012E-1,-3.4163E-1,1.69793E-1,-6.8177605E-1,-2.0296367E-1,-1.9267042E-1,-1.2754102E-1,1.7838036E-1,-2.0004794E-1,-1.461874E-1,1.7570539E-1,-1.9736785E-1,-8.5742585E-2,1.4223933E-1,-2.0390701E-1,7.4028514E-2,-1.06352314E-1,1.1530626E-1,-2.4335097E-1,-3.7760586E-1,-2.3792548E-1,-2.277042E-1,1.4630046E-1,1.17708266E-1,-3.9113513E-1,-2.783102E-1,-3.049078E-2,-1.9074982E-1,-8.452098E-3,2.275497E-2,-2.6998797E-1],"categories":[],"categories_nodes":[],"categories_segments":[],"categories_sizes":[],"default_left":[0,0,0,0,0,0,0,0,0,0,0,0,0,0,0,0,0,0,0,0,0,0,0,0,0,0,0,0,0,0,0,0,0,0,0,0,0,0,0,0,0,0,0,0,0,0,0,0,0,0,0,0,0,0,0,0,0,0,0,0,0,0,0,0,0,0,0,0,0,0,0,0,0,0,0,0,0,0,0,0,0,0,0,0,0,0,0,0,0,0,0,0,0,0,0,0,0,0,0,0,0],"id":12,"left_children":[1,3,5,7,9,11,13,15,-1,17,19,21,23,25,27,29,31,33,35,37,39,41,43,-1,45,47,49,51,53,-1,-1,55,57,59,61,63,65,67,69,71,73,75,77,-1,79,81,83,85,87,89,91,93,95,97,99,-1,-1,-1,-1,-1,-1,-1,-1,-1,-1,-1,-1,-1,-1,-1,-1,-1,-1,-1,-1,-1,-1,-1,-1,-1,-1,-1,-1,-1,-1,-1,-1,-1,-1,-1,-1,-1,-1,-1,-1,-1,-1,-1,-1,-1,-1],"loss_changes":[2.5045969E4,8.3058984E2,4.236375E3,2.1408203E1,8.4503534E2,1.7885693E2,2.1201343E3,1.5880859E1,0E0,5.3992114E2,1.674397E2,1.0292627E2,3.6733752E2,1.9828097E3,2.4107415E3,9.634766E0,2.545701E2,1.405462E2,3.5360165E2,7.205597E1,8.785571E1,3.327246E1,7.198024E1,0E0,3.2801324E2,1.5279946E3,8.0942505E1,1.7080154E3,1.1591143E3,0E0,0E0,3.1969536E1,4.692328E1,5.1474243E1,8.96919E1,1.895285E1,2.7533795E2,8.016464E0,2.013795E1,6.743945E1,1.0631462E1,1.0644531E1,5.1021976E1,0E0,9.104069E0,3.4515533E0,1.3134186E2,1.1274304E3,9.248804E2,3.5284912E1,1.2702527E2,6.105347E2,3.7067377E2,1.605392E3,2.7776685E2,0E0,0E0,0E0,0E0,0E0,0E0,0E0,0E0,0E0,0E0,0E0,0E0,0E0,0E0,0E0,0E0,0E0,0E0,0E0,0E0,0E0,0E0,0E0,0E0,0E0,0E0,0E0,0E0,0E0,0E0,0E0,0E0,0E0,0E0,0E0,0E0,0E0,0E0,0E0,0E0,0E0,0E0,0E0,0E0,0E0,0E0],"parents":[2147483647,0,0,1,1,2,2,3,3,4,4,5,5,6,6,7,7,9,9,10,10,11,11,12,12,13,13,14,14,15,15,16,16,17,17,18,18,19,19,20,20,21,21,22,22,24,24,25,25,26,26,27,27,28,28,31,31,32,32,33,33,34,34,35,35,36,36,37,37,38,38,39,39,40,40,41,41,42,42,44,44,45,45,46,46,47,47,48,48,49,49,50,50,51,51,52,52,53,53,54,54],"right_children":[2,4,6,8,10,12,14,16,-1,18,20,22,24,26,28,30,32,34,36,38,40,42,44,-1,46,48,50,52,54,-1,-1,56,58,60,62,64,66,68,70,72,74,76,78,-1,80,82,84,86,88,90,92,94,96,98,100,-1,-1,-1,-1,-1,-1,-1,-1,-1,-1,-1,-1,-1,-1,-1,-1,-1,-1,-1,-1,-1,-1,-1,-1,-1,-1,-1,-1,-1,-1,-1,-1,-1,-1,-1,-1,-1,-1,-1,-1,-1,-1,-1,-1,-1,-1],"split_conditions":[-1.8862135E0,-1.8581681E0,3.981055E-2,5.771493E-1,1.9939569E0,9.774161E-1,-2.1918781E-1,3.1528027E0,-1.6730559E-1,-1.1860737E0,-8.251948E-1,1.7655518E0,2.786128E-2,5.13959E-1,-3.7885562E-1,-3.0009496E-1,1.2713417E0,3.8457742E-1,-1.6999555E-1,-1.9490518E-1,-3.974847E-1,3.747761E0,8.861109E-1,-1.9242711E-1,6.087384E-1,4.0843195E-1,3.0682856E-1,-9.938378E-2,4.2174645E-2,-1.9440277E-1,1.773109E-1,-1.646961E-1,-8.19317E-1,-3.4523323E-1,1.6644709E0,9.7760946E-1,2.6582325E-2,-1.0421869E0,-5.3803104E-1,-2.9584702E-2,-8.2452035E-1,1.44676E0,-5.200648E-1,-1.8819293E-1,2.8698054E-1,5.265354E-1,1.1747809E-1,-3.6218914E-1,9.301258E-2,1.9336021E-1,1.1296426E-1,1.5520432E0,2.4762776E-1,7.761709E-1,-2.3760073E0,-4.601045E-1,1.7589913E-1,-2.1935587E-1,-1.8246614E0,-2.7159733E-1,-4.734458E-1,1.677546E-1,-5.692822E-1,-2.032707E-1,-3.5667917E-1,8.846411E-2,-2.4687752E-1,-5.5636555E-1,-2.8719997E-1,1.5146305E-1,-3.1599012E-1,-3.4163E-1,1.69793E-1,-6.8177605E-1,-2.0296367E-1,-1.9267042E-1,-1.2754102E-1,1.7838036E-1,-2.0004794E-1,-1.461874E-1,1.7570539E-1,-1.9736785E-1,-8.5742585E-2,1.4223933E-1,-2.0390701E-1,7.4028514E-2,-1.06352314E-1,1.1530626E-1,-2.4335097E-1,-3.7760586E-1,-2.3792548E-1,-2.277042E-1,1.4630046E-1,1.17708266E-1,-3.9113513E-1,-2.783102E-1,-3.049078E-2,-1.9074982E-1,-8.452098E-3,2.275497E-2,-2.6998797E-1],"split_indices":[13,11,3,9,3,15,18,16,0,5,21,21,17,23,7,10,12,28,20,28,2,6,20,0,10,1,0,12,26,0,0,20,23,28,16,16,7,14,5,27,8,21,5,0,8,10,7,0,26,11,27,5,0,3,2,0,0,0,0,0,0,0,0,0,0,0,0,0,0,0,0,0,0,0,0,0,0,0,0,0,0,0,0,0,0,0,0,0,0,0,0,0,0,0,0,0,0,0,0,0,0],"split_type":[0,0,0,0,0,0,0,0,0,0,0,0,0,0,0,0,0,0,0,0,0,0,0,0,0,0,0,0,0,0,0,0,0,0,0,0,0,0,0,0,0,0,0,0,0,0,0,0,0,0,0,0,0,0,0,0,0,0,0,0,0,0,0,0,0,0,0,0,0,0,0,0,0,0,0,0,0,0,0,0,0,0,0,0,0,0,0,0,0,0,0,0,0,0,0,0,0,0,0,0,0],"sum_hessian":[5.818475E4,2.8219352E4,2.9965396E4,2.5241916E4,2.9774348E3,7.374684E3,2.2590713E4,2.5237193E4,4.7227383E0,1.2137345E3,1.7637003E3,6.115978E3,1.2587058E3,1.13456455E4,1.1245067E4,2.5150861E4,8.633358E1,2.1158485E2,1.0021496E3,4.0791153E1,1.7229092E3,6.0425527E3,7.342569E1,7.571284E2,5.015773E2,1.0616912E4,7.2873315E2,3.5624746E3,7.682593E3,1.3347273E0,2.5149525E4,8.38811E1,2.452476E0,1.7828185E2,3.3303017E1,1.1034914E2,8.918004E2,2.311199E1,1.7679161E1,1.7156896E3,7.219622E0,6.000769E3,4.1783276E1,2.9851324E1,4.3574368E1,1.7643964E2,3.251377E2,4.3164756E3,6.3004365E3,2.5648627E2,4.722469E2,2.7810571E3,7.8141754E2,5.8562383E3,1.8263547E3,1.5248002E0,8.235631E1,1.1255572E0,1.326919E0,1.1596175E2,6.2320103E1,2.828264E1,5.0203753E0,6.3805485E1,4.654365E1,8.1134467E2,8.045578E1,6.5931892E0,1.65188E1,1.5283681E1,2.3954802E0,6.936982E0,1.7087526E3,2.0464191E0,5.173203E0,5.9160273E3,8.474193E1,1.8170439E1,2.3612835E1,2.0999358E0,4.147443E1,1.6533946E2,1.1100169E1,2.8861432E2,3.6523376E1,1.7847356E3,2.53174E3,6.0759785E3,2.2445807E2,1.6230043E2,9.418582E1,4.4365433E2,2.8592556E1,2.7088193E3,7.223785E1,4.9111148E2,2.9030606E2,2.7709163E3,3.085322E3,1.0370824E2,1.7226465E3],"tree_param":{"num_deleted":"0","num_feature":"30","num_nodes":"101","size_leaf_vector":"1"}},{"base_weights":[2.6870242E-1,9.630125E-1,-3.1021684E-1,1.0145651E0,4.7057247E-1,-9.8623854E-1,-1.14016235E-1,1.0149506E0,-1.5671308E-1,-2.9353225E-1,8.889504E-1,-1.068003E0,-6.198483E-1,1.086231E-1,-5.3722847E-1,1.0162246E0,6.1571366E-1,3.584115E-1,-1.648916E0,-1.2521865E0,9.346258E-1,-1.0816422E0,7.287489E-2,-1.9058031E-1,3.5111472E-2,2.613675E-1,-8.2473415E-1,-2.352049E-1,-1.1572099E0,-7.454423E-2,1.0163134E0,9.2726547E-1,-5.232202E-1,6.0264754E-1,-1.4992971E0,-1.8956285E0,-5.269057E-1,-2.028001E0,2.760337E-1,9.494943E-1,-2.3983564E0,-1.0926569E0,-4.5898366E-1,-1.8416604E-1,8.982086E-1,-1.0880508E0,5.466587E-1,4.9845037E-1,-4.2925966E-1,-1.346691E0,5.157664E-1,6.38037E-2,-1.0006196E0,-1.2301456E0,8.7998587E-1,6.9018975E-2,1.7669302E-1,-3.3570325E-1,1.7456685E-1,-2.719398E-1,1.312795E-1,-2.0882265E-1,-3.0065852E-1,-2.6794946E-1,-3.947574E-1,-2.764953E-1,2.9345173E-2,-1.756531E-1,-4.0100172E-1,1.5731694E-1,-2.4278478E-1,-3.1530762E-1,1.6763566E-1,-5.657582E-1,-1.7145899E-1,-2.1153478E-1,-1.8614572E-1,-1.9438928E-1,1.3368273E-1,-1.341791E-1,1.7382336E-1,-1.9391859E-1,-4.3830715E-2,-2.3986165E-1,1.2493005E-1,-2.9358173E-2,1.21395096E-1,9.5678814E-2,-1.5285605E-1,-2.9826558E-1,-1.785023E-1,-2.4856463E-1,1.6783752E-1,4.6534277E-2,-2.2667031E-1,-2.4936602E-1,6.338511E-2,-2.1550207E-1,-5.652076E-2,2.0890485E-1,-2.8096867E-1],"categories":[],"categories_nodes":[],"categories_segments":[],"categories_sizes":[],"default_left":[0,0,0,0,0,0,0,0,0,0,0,0,0,0,0,0,0,0,0,0,0,0,0,0,0,0,0,0,0,0,0,0,0,0,0,0,0,0,0,0,0,0,0,0,0,0,0,0,0,0,0,0,0,0,0,0,0,0,0,0,0,0,0,0,0,0,0,0,0,0,0,0,0,0,0,0,0,0,0,0,0,0,0,0,0,0,0,0,0,0,0,0,0,0,0,0,0,0,0,0,0],"id":13,"left_children":[1,3,5,7,9,11,13,15,-1,17,19,21,23,25,27,29,31,33,35,37,39,41,43,-1,45,47,49,51,53,-1,55,57,-1,59,61,63,65,67,69,71,73,75,77,-1,79,81,83,85,87,89,91,93,95,97,99,-1,-1,-1,-1,-1,-1,-1,-1,-1,-1,-1,-1,-1,-1,-1,-1,-1,-1,-1,-1,-1,-1,-1,-1,-1,-1,-1,-1,-1,-1,-1,-1,-1,-1,-1,-1,-1,-1,-1,-1,-1,-1,-1,-1,-1,-1],"loss_changes":[2.0733604E4,5.949375E2,3.7308135E3,1.6595703E1,7.114039E2,1.8888965E2,2.0543955E3,1.0171875E1,0E0,6.9673035E2,1.4177356E2,8.055176E1,3.6096494E2,2.0371431E3,1.4071033E3,3.1484375E0,8.191573E1,2.4263068E2,6.987842E1,3.666924E1,7.2064575E1,3.454785E1,5.891716E1,0E0,2.81011E2,2.0107439E3,1.4067771E3,1.1570398E3,3.6686768E2,0E0,2.734375E-2,1.6277294E1,0E0,1.5698914E2,2.1892853E0,2.43443E1,3.5440544E1,3.4303055E0,1.2975898E1,5.8932495E1,4.6925125E0,1.2366699E1,7.415568E1,0E0,6.9529743E0,3.221756E0,1.12283066E2,1.2190867E3,1.3839551E3,1.690044E2,4.9468823E2,1.01412976E3,8.4146533E2,1.9889404E1,7.0726746E1,0E0,0E0,0E0,0E0,0E0,0E0,0E0,0E0,0E0,0E0,0E0,0E0,0E0,0E0,0E0,0E0,0E0,0E0,0E0,0E0,0E0,0E0,0E0,0E0,0E0,0E0,0E0,0E0,0E0,0E0,0E0,0E0,0E0,0E0,0E0,0E0,0E0,0E0,0E0,0E0,0E0,0E0,0E0,0E0,0E0,0E0],"parents":[2147483647,0,0,1,1,2,2,3,3,4,4,5,5,6,6,7,7,9,9,10,10,11,11,12,12,13,13,14,14,15,15,16,16,17,17,18,18,19,19,20,20,21,21,22,22,24,24,25,25,26,26,27,27,28,28,30,30,31,31,33,33,34,34,35,35,36,36,37,37,38,38,39,39,40,40,41,41,42,42,44,44,45,45,46,46,47,47,48,48,49,49,50,50,51,51,52,52,53,53,54,54],"right_children":[2,4,6,8,10,12,14,16,-1,18,20,22,24,26,28,30,32,34,36,38,40,42,44,-1,46,48,50,52,54,-1,56,58,-1,60,62,64,66,68,70,72,74,76,78,-1,80,82,84,86,88,90,92,94,96,98,100,-1,-1,-1,-1,-1,-1,-1,-1,-1,-1,-1,-1,-1,-1,-1,-1,-1,-1,-1,-1,-1,-1,-1,-1,-1,-1,-1,-1,-1,-1,-1,-1,-1,-1,-1,-1,-1,-1,-1,-1,-1,-1,-1,-1,-1,-1],"split_conditions":[-2.1004684E0,-1.8581681E0,1.4122913E-2,5.771493E-1,1.9939569E0,9.774161E-1,1.536262E-1,3.1528027E0,-1.5671308E-1,6.8581975E-1,-8.251948E-1,1.7655518E0,2.786128E-2,1.2325687E0,7.206379E-1,-2.2228728E-1,9.467476E-1,-1.3822325E-1,-2.256609E0,1.2777505E0,-4.481475E-1,2.3690238E0,9.3520224E-1,-1.9058031E-1,6.087384E-1,4.042581E-1,3.5933292E-1,3.9689794E-1,6.701814E-2,-7.454423E-2,-4.6774164E-1,-1.646961E-1,-5.232202E-1,-1.3081226E0,3.0591297E-1,-3.4523323E-1,-4.0455964E-1,-9.250446E-1,-1.3727729E0,-3.8355935E-1,-2.602065E-1,-7.6823527E-1,8.914461E-1,-1.8416604E-1,2.8698054E-1,5.672582E-1,-6.250432E-1,-3.3063415E-2,-2.2201834E0,-1.3030055E-3,3.6598167E-1,1.8500356E-1,1.7253642E-1,5.6369632E-2,-6.820662E-1,6.9018975E-2,1.7669302E-1,-3.3570325E-1,1.7456685E-1,-2.719398E-1,1.312795E-1,-2.0882265E-1,-3.0065852E-1,-2.6794946E-1,-3.947574E-1,-2.764953E-1,2.9345173E-2,-1.756531E-1,-4.0100172E-1,1.5731694E-1,-2.4278478E-1,-3.1530762E-1,1.6763566E-1,-5.657582E-1,-1.7145899E-1,-2.1153478E-1,-1.8614572E-1,-1.9438928E-1,1.3368273E-1,-1.341791E-1,1.7382336E-1,-1.9391859E-1,-4.3830715E-2,-2.3986165E-1,1.2493005E-1,-2.9358173E-2,1.21395096E-1,9.5678814E-2,-1.5285605E-1,-2.9826558E-1,-1.785023E-1,-2.4856463E-1,1.6783752E-1,4.6534277E-2,-2.2667031E-1,-2.4936602E-1,6.338511E-2,-2.1550207E-1,-5.652076E-2,2.0890485E-1,-2.8096867E-1],"split_indices":[13,11,3,9,3,15,13,16,0,4,21,21,17,2,0,10,12,7,13,10,2,6,20,0,10,29,20,14,27,0,3,20,0,5,3,28,5,11,14,19,8,13,16,0,8,10,4,4,2,16,10,24,0,27,29,0,0,0,0,0,0,0,0,0,0,0,0,0,0,0,0,0,0,0,0,0,0,0,0,0,0,0,0,0,0,0,0,0,0,0,0,0,0,0,0,0,0,0,0,0,0],"split_type":[0,0,0,0,0,0,0,0,0,0,0,0,0,0,0,0,0,0,0,0,0,0,0,0,0,0,0,0,0,0,0,0,0,0,0,0,0,0,0,0,0,0,0,0,0,0,0,0,0,0,0,0,0,0,0,0,0,0,0,0,0,0,0,0,0,0,0,0,0,0,0,0,0,0,0,0,0,0,0,0,0,0,0,0,0,0,0,0,0,0,0,0,0,0,0,0,0,0,0,0,0],"sum_hessian":[5.1580875E4,2.345279E4,2.8128086E4,2.1229273E4,2.2235144E3,6.32632E3,2.1801768E4,2.1225473E4,3.800656E0,7.868143E2,1.4367002E3,5.170536E3,1.1557838E3,1.4286702E4,7.515065E3,2.1156418E4,6.90551E1,5.317678E2,2.5504642E2,2.9456285E1,1.4072439E3,5.109504E3,6.1031982E1,6.6872205E2,4.870618E2,1.2278104E4,2.0085979E3,5.054263E3,2.4608018E3,1.0029055E0,2.1155416E4,6.427559E1,4.779506E0,4.7057602E2,6.1191822E1,2.0850903E2,4.6537373E1,1.932085E1,1.0135435E1,1.401706E3,5.5378966E0,5.0199478E3,8.955643E1,2.5612633E1,3.541935E1,1.5206287E2,3.3499896E2,9.140555E3,3.1375496E3,1.4456816E3,5.629163E2,3.6351226E3,1.4191407E3,2.3761277E3,8.467401E1,1.761295E0,2.1153654E4,1.0512476E0,6.3224346E1,3.0327997E1,4.4024802E2,2.9364765E1,3.1827055E1,1.09835045E2,9.8673996E1,1.7895185E1,2.8642187E1,5.146773E0,1.4174078E1,7.6994753E0,2.4359598E0,6.796969E0,1.394909E3,2.635774E0,2.9021225E0,7.459224E2,4.2740254E3,5.833286E1,3.1223564E1,1.6535704E0,3.3765778E1,1.4691685E2,5.1460114E0,2.6875824E1,3.081231E2,2.1063435E3,7.0342104E3,9.8750366E2,2.150046E3,6.693907E2,7.762909E2,1.05266716E2,4.5764963E2,3.1642502E3,4.7087244E2,1.0769349E3,3.422059E2,2.3512537E3,2.4873964E1,7.5468025E1,9.205991E0],"tree_param":{"num_deleted":"0","num_feature":"30","num_nodes":"101","size_leaf_vector":"1"}},{"base_weights":[2.5484705E-1,9.8311067E-1,-2.6338443E-1,1.0075891E0,3.7983093E-1,-9.5287895E-1,-8.274676E-2,1.0086205E0,-2.8573105E-1,-1.8408666E0,9.094988E-1,-5.7341194E-1,-1.0314863E0,3.1536347E-1,-2.8670302E-1,1.0091816E0,-2.0046511E-1,-2.0015337E0,-1.9727078E-1,-1.7434288E0,9.6461177E-1,-9.2493296E-1,4.2619896E-3,-1.051538E0,-3.8706604E-1,5.693285E-1,-3.6007515E-1,-1.0365305E0,-1.5412582E-1,-2.6154992E-1,1.0095282E0,-1.5085409E0,-2.4871535E0,1.2353918E-1,-2.371587E0,9.791798E-1,-6.179271E-1,-1.1967782E0,6.259019E-1,-2.0316854E-1,4.733488E-1,-8.891728E-1,-1.0708534E0,-1.8633084E-1,9.514798E-1,6.54445E-1,-8.4248334E-1,1.5053381E-1,-1.3196903E0,2.5854012E-1,-1.2023897E0,2.828742E-1,-4.2734325E-1,1.7556764E-1,-1.5640768E-1,-3.55277E-1,-2.2860716E-1,-2.3569466E-1,-4.6734905E-1,-4.7548974E-1,-1.5495208E-1,1.7244431E-1,-2.5474235E-1,-1.8845868E-1,-2.4930675E-1,-1.9329746E-1,1.65864E-1,-2.1195573E-1,1.2760645E-1,-1.8648404E-1,1.2368199E-2,-1.6623628E-1,-1.8686056E-1,-1.2418008E-1,1.8015395E-1,1.2411239E-1,-1.9899333E-1,1.6106503E-1,-2.9872313E-1,7.3786885E-2,-1.1303392E-1,-3.7158188E-1,-1.12221174E-1,1.575252E-1,-2.810046E-1,1.1211779E-1,-2.3629607E-1,-8.257702E-2,1.2173375E-1,4.7427483E-2,-1.3561337E-1],"categories":[],"categories_nodes":[],"categories_segments":[],"categories_sizes":[],"default_left":[0,0,0,0,0,0,0,0,0,0,0,0,0,0,0,0,0,0,0,0,0,0,0,0,0,0,0,0,0,0,0,0,0,0,0,0,0,0,0,0,0,0,0,0,0,0,0,0,0,0,0,0,0,0,0,0,0,0,0,0,0,0,0,0,0,0,0,0,0,0,0,0,0,0,0,0,0,0,0,0,0,0,0,0,0,0,0,0,0,0,0],"id":14,"left_children":[1,3,5,7,9,11,13,15,-1,17,19,21,23,25,27,29,-1,31,-1,33,35,37,39,41,43,45,47,49,51,-1,53,55,57,-1,59,61,-1,63,65,-1,67,69,71,-1,73,75,77,79,81,83,85,87,89,-1,-1,-1,-1,-1,-1,-1,-1,-1,-1,-1,-1,-1,-1,-1,-1,-1,-1,-1,-1,-1,-1,-1,-1,-1,-1,-1,-1,-1,-1,-1,-1,-1,-1,-1,-1,-1,-1],"loss_changes":[1.7268242E4,2.8052734E2,3.329422E3,5.164258E1,8.7603204E2,1.6494434E2,1.7201698E3,2.3333984E1,0E0,1.400824E1,8.9535126E1,1.938435E2,5.8980957E1,1.2312935E3,1.3923986E3,1.7429688E1,0E0,2.391919E1,0E0,2.108503E1,4.227411E1,2.5094202E2,1.9978618E2,1.3024902E1,1.295845E2,6.2735815E2,9.6141296E2,4.523557E2,1.4214983E3,0E0,1.2933594E1,3.5164642E0,9.250427E0,0E0,3.0772476E0,1.9753052E1,0E0,1.196228E1,5.1909218E1,0E0,1.1532093E2,8.46055E1,7.861328E-1,0E0,7.5186768E0,5.270818E2,4.6174835E2,2.8127625E2,3.7425195E2,2.9253818E2,5.412883E2,1.4490286E3,1.809228E3,0E0,0E0,0E0,0E0,0E0,0E0,0E0,0E0,0E0,0E0,0E0,0E0,0E0,0E0,0E0,0E0,0E0,0E0,0E0,0E0,0E0,0E0,0E0,0E0,0E0,0E0,0E0,0E0,0E0,0E0,0E0,0E0,0E0,0E0,0E0,0E0,0E0,0E0],"parents":[2147483647,0,0,1,1,2,2,3,3,4,4,5,5,6,6,7,7,9,9,10,10,11,11,12,12,13,13,14,14,15,15,17,17,19,19,20,20,21,21,22,22,23,23,24,24,25,25,26,26,27,27,28,28,30,30,31,31,32,32,34,34,35,35,37,37,38,38,40,40,41,41,42,42,44,44,45,45,46,46,47,47,48,48,49,49,50,50,51,51,52,52],"right_children":[2,4,6,8,10,12,14,16,-1,18,20,22,24,26,28,30,-1,32,-1,34,36,38,40,42,44,46,48,50,52,-1,54,56,58,-1,60,62,-1,64,66,-1,68,70,72,-1,74,76,78,80,82,84,86,88,90,-1,-1,-1,-1,-1,-1,-1,-1,-1,-1,-1,-1,-1,-1,-1,-1,-1,-1,-1,-1,-1,-1,-1,-1,-1,-1,-1,-1,-1,-1,-1,-1,-1,-1,-1,-1,-1,-1],"split_conditions":[-2.7074966E0,3.948062E-1,1.4122913E-2,1.8762652E0,2.1427753E0,-9.604472E-1,-5.968684E-1,3.222268E-1,-2.8573105E-1,3.941535E-1,9.850936E-1,1.06939E0,1.44676E0,3.798879E-1,-5.6264055E-1,-2.3910737E0,-2.0046511E-1,-3.4523323E-1,-1.9727078E-1,-1.1273264E0,1.9057143E0,2.3690238E0,2.786128E-2,-9.1457206E-1,9.3520224E-1,3.660883E-1,-1.7873868E0,-1.3400321E0,-3.2272398E-1,-2.6154992E-1,5.771493E-1,-2.5601918E-1,1.05807155E-1,1.2353918E-1,5.5049133E-1,2.039342E0,-6.179271E-1,-2.9546663E-1,9.194864E-1,-2.0316854E-1,-1.4235277E-2,9.195579E-1,-6.468183E-1,-1.8633084E-1,2.788667E-1,2.6222217E-1,-2.4286184E0,-1.1969604E0,4.6641952E-1,-1.03151634E-1,-1.2805094E0,1.3283637E0,-4.1407982E-1,1.7556764E-1,-1.5640768E-1,-3.55277E-1,-2.2860716E-1,-2.3569466E-1,-4.6734905E-1,-4.7548974E-1,-1.5495208E-1,1.7244431E-1,-2.5474235E-1,-1.8845868E-1,-2.4930675E-1,-1.9329746E-1,1.65864E-1,-2.1195573E-1,1.2760645E-1,-1.8648404E-1,1.2368199E-2,-1.6623628E-1,-1.8686056E-1,-1.2418008E-1,1.8015395E-1,1.2411239E-1,-1.9899333E-1,1.6106503E-1,-2.9872313E-1,7.3786885E-2,-1.1303392E-1,-3.7158188E-1,-1.12221174E-1,1.575252E-1,-2.810046E-1,1.1211779E-1,-2.3629607E-1,-8.257702E-2,1.2173375E-1,4.7427483E-2,-1.3561337E-1],"split_indices":[13,6,3,0,3,13,13,11,0,9,10,15,21,29,21,18,0,28,0,15,0,6,17,18,20,25,2,18,28,0,9,0,3,0,9,6,0,3,16,0,23,15,19,0,17,7,7,13,0,13,9,3,25,0,0,0,0,0,0,0,0,0,0,0,0,0,0,0,0,0,0,0,0,0,0,0,0,0,0,0,0,0,0,0,0,0,0,0,0,0,0],"split_type":[0,0,0,0,0,0,0,0,0,0,0,0,0,0,0,0,0,0,0,0,0,0,0,0,0,0,0,0,0,0,0,0,0,0,0,0,0,0,0,0,0,0,0,0,0,0,0,0,0,0,0,0,0,0,0,0,0,0,0,0,0,0,0,0,0,0,0,0,0,0,0,0,0,0,0,0,0,0,0,0,0,0,0,0,0,0,0,0,0,0,0],"sum_hessian":[4.575301E4,1.9021482E4,2.6731527E4,1.8279127E4,7.4235474E2,5.5485234E3,2.1183004E4,1.8272639E4,6.4892163E0,1.4248662E2,5.998681E2,9.535714E2,4.594952E3,7.1757773E3,1.4007227E4,1.826843E4,4.2097425E0,1.1458209E2,2.7904533E1,1.1584833E1,5.8828326E2,5.9245496E2,3.6111652E2,4.455678E3,1.3927402E2,5.215068E3,1.9607094E3,2.1034966E3,1.190373E4,1.9194931E0,1.826651E4,5.8897156E1,5.5684937E1,2.3342702E0,9.250564E0,5.871737E2,1.109585E0,5.0428696E2,8.816798E1,1.0273882E2,2.583777E2,4.7870703E2,3.9769712E3,9.227244E1,4.7001587E1,4.919041E3,2.960267E2,1.2803052E3,6.804041E2,2.3874643E2,1.8647501E3,4.5792974E3,7.3244326E3,1.8263682E4,2.8279407E0,1.310913E1,4.5788025E1,9.570653E0,4.6114285E1,6.746493E0,2.5040703E0,5.847234E2,2.450279E0,3.4560223E2,1.5868472E2,1.3625498E1,7.454247E1,3.398946E1,2.2438823E2,4.0181363E2,7.689338E1,1.4142073E2,3.8355503E3,1.9165443E0,4.508504E1,4.762262E3,1.5677913E2,9.80085E1,1.9801822E2,9.543345E2,3.2597067E2,3.0650302E2,3.7390112E2,1.7784044E2,6.0905994E1,1.4565059E2,1.7190996E3,1.626171E3,2.9531265E3,2.4537825E3,4.8706504E3],"tree_param":{"num_deleted":"0","num_feature":"30","num_nodes":"91","size_leaf_vector":"1"}},{"base_weights":[2.4083339E-1,9.784204E-1,-2.3754887E-1,1.0037355E0,3.694916E-1,-9.5343995E-1,-7.644354E-2,1.0047984E0,-2.695961E-1,-1.6647888E0,8.970111E-1,-3.8819453E-1,-1.0047938E0,1.12873815E-1,-4.6931472E-1,1.0053746E0,-1.9570443E-1,-1.3139495E0,-1.8793939E0,-1.5358082E0,9.542102E-1,7.694116E-2,-1.1075455E0,-6.208854E-1,-1.0507311E0,2.0826443E-1,-1.2450444E0,2.9560286E-1,-7.0044553E-1,-2.3306644E-1,1.0057514E0,-6.62528E-3,-1.3378965E0,-1.4628742E0,-2.1613595E0,1.18780926E-1,-2.0609617E0,9.7024536E-1,-5.09944E-1,-1.428657E0,3.1809303E-1,-1.2296443E0,-1.9555898E-1,-1.0304677E0,9.244255E-2,-1.0622656E0,-8.4669715E-1,-1.5601711E0,2.6812753E-1,5.6204844E-1,-1.3749037E0,5.2688086E-1,-1.575926E0,-1.4323297E-1,-1.2169296E0,1.7491403E-1,-1.4864564E-1,-2.5473833E-1,-1.7967984E-1,-3.4641826E-1,-2.1538286E-1,-2.0830186E-1,-4.1970524E-1,-4.0119332E-1,-1.4650664E-1,1.7105389E-1,-2.4448964E-1,-2.1039441E-1,-3.3852568E-1,1.0516775E-1,-2.0522179E-1,-1.9548924E-1,-2.7596352E-1,1.5555188E-1,-1.8921709E-1,-1.8471654E-1,-5.633171E-2,-1.8554069E-1,9.3988605E-2,-1.9257674E-1,-1.8337493E-1,6.1407525E-2,-1.8201366E-1,-2.0565006E-1,-3.5140696E-1,6.898439E-2,-1.0642107E-1,1.633695E-1,-3.0083847E-1,-4.2796776E-2,-2.5515097E-1,1.1904631E-1,-3.163321E-1,-2.9793286E-1,-2.5128204E-1,-2.2821411E-1,2.7752513E-2,-5.6347262E-2,-2.1909906E-1],"categories":[],