{"learner":{"attributes":{"best_iteration":"159","best_score":"0.7647222642487226"},"feature_names":["V1","V2","V3","V4","V5","V6","V7","V8","V9","V10","V11","V12","V13","V14","V15","V16","V17","V18","V19","V20","V21","V22","V23","V24","V25","V26","V27","V28","scaled_amount","scaled_time"],"feature_types":["float","float","float","float","float","float","float","float","float","float","float","float","float","float","float","float","float","float","float","float","float","float","float","float","float","float","float","float","float","float"],"gradient_booster":{"model":{"cats":{"enc":[],"feature_segments":[],"sorted_idx":[]},"gbtree_model_param":{"num_parallel_tree":"1","num_trees":"180"},"iteration_indptr":[0,1,2,3,4,5,6,7,8,9,10,11,12,13,14,15,16,17,18,19,20,21,22,23,24,25,26,27,28,29,30,31,32,33,34,35,36,37,38,39,40,41,42,43,44,45,46,47,48,49,50,51,52,53,54,55,56,57,58,59,60,61,62,63,64,65,66,67,68,69,70,71,72,73,74,75,76,77,78,79,80,81,82,83,84,85,86,87,88,89,90,91,92,93,94,95,96,97,98,99,100,101,102,103,104,105,106,107,108,109,110,111,112,113,114,115,116,117,118,119,120,121,122,123,124,125,126,127,128,129,130,131,132,133,134,135,136,137,138,139,140,141,142,143,144,145,146,147,148,149,150,151,152,153,154,155,156,157,158,159,160,161,162,163,164,165,166,167,168,169,170,171,172,173,174,175,176,177,178,179,180],"tree_info":[0,0,0,0,0,0,0,0,0,0,0,0,0,0,0,0,0,0,0,0,0,0,0,0,0,0,0,0,0,0,0,0,0,0,0,0,0,0,0,0,0,0,0,0,0,0,0,0,0,0,0,0,0,0,0,0,0,0,0,0,0,0,0,0,0,0,0,0,0,0,0,0,0,0,0,0,0,0,0,0,0,0,0,0,0,0,0,0,0,0,0,0,0,0,0,0,0,0,0,0,0,0,0,0,0,0,0,0,0,0,0,0,0,0,0,0,0,0,0,0,0,0,0,0,0,0,0,0,0,0,0,0,0,0,0,0,0,0,0,0,0,0,0,0,0,0,0,0,0,0,0,0,0,0,0,0,0,0,0,0,0,0,0,0,0,0,0,0,0,0,0,0,0,0,0,0,0,0,0,0],"trees":[{"base_weights":[1.1199169E0,-8.223798E0,1.1245124E0,-5.251833E0,-8.3365196E-1,1.1250652E0,-8.3245367E-1,-8.27207E-1,6.879482E-1,1.1255273E0,-8.321857E-1,1.0858871E-1,-6.1112493E-1,-8.318016E-1,1.1259013E0,1.1262559E0,-8.316911E-1,-8.31219E-1,1.12654604E-1],"categories":[],"categories_nodes":[],"categories_segments":[],"categories_sizes":[],"default_left":[0,0,0,0,0,0,0,0,0,0,0,0,0,0,0,0,0,0,0],"id":0,"left_children":[1,3,5,7,-1,9,-1,-1,11,13,-1,-1,-1,-1,15,17,-1,-1,-1],"loss_changes":[4.47851E5,1.6738438E3,5.4457E4,3.415317E3,0E0,4.551E4,0E0,0E0,1.8247514E2,3.6828E4,0E0,0E0,0E0,0E0,3.491E4,2.855E4,0E0,0E0,0E0],"parents":[2147483647,0,0,1,1,2,2,3,3,5,5,8,8,9,9,14,14,15,15],"right_children":[2,4,6,8,-1,10,-1,-1,12,14,-1,-1,-1,-1,16,18,-1,-1,-1],"split_conditions":[-7.5518125E-1,-1.7882352E0,1.2624959E0,-7.7685094E-1,-8.3365196E-1,1.528691E0,-8.3245367E-1,-8.27207E-1,-1.0632558E0,-1.297215E0,-8.321857E-1,1.0858871E-1,-6.1112493E-1,-8.318016E-1,2.2928925E0,-1.7358774E0,-8.316911E-1,-8.31219E-1,1.12654604E-1],"split_indices":[3,13,11,3,0,13,0,0,6,23,0,0,0,0,2,10,0,0,0],"split_type":[0,0,0,0,0,0,0,0,0,0,0,0,0,0,0,0,0,0,0],"sum_hessian":[1.0429654E7,5.126219E3,1.0424528E7,1.8906201E2,4.937157E3,1.0423919E7,6.088988E2,1.2507282E2,6.3989197E1,1.042341E7,5.089461E2,6.1244984E1,2.7442138E0,4.119487E2,1.0422998E7,1.0422608E7,3.9052274E2,3.194898E2,1.0422288E7],"tree_param":{"num_deleted":"0","num_feature":"30","num_nodes":"19","size_leaf_vector":"1"}},{"base_weights":[1.1041757E0,-4.154716E0,1.1090052E0,-3.1251414E0,-4.1876647E-1,1.1095865E0,-4.187983E-1,-4.189255E-1,6.5741885E-1,1.1100724E0,-4.188052E-1,-4.0869236E-1,1.0682043E-1,1.1102982E0,-9.007833E0,-4.1881523E-1,1.1106917E0,-9.1512185E-1,-3.6097E-1,1.1110612E-1,-4.1881225E-1],"categories":[],"categories_nodes":[],"categories_segments":[],"categories_sizes":[],"default_left":[0,0,0,0,0,0,0,0,0,0,0,0,0,0,0,0,0,0,0,0,0],"id":1,"left_children":[1,3,5,7,-1,9,-1,-1,11,13,-1,-1,-1,15,17,-1,19,-1,-1,-1,-1],"loss_changes":[2.42992E5,2.8470312E2,2.9432E4,1.1142893E3,0E0,2.4608E4,0E0,0E0,1.2421411E2,2.1848E4,0E0,0E0,0E0,1.9923E4,1.3215039E2,0E0,1.8718E4,0E0,0E0,0E0,0E0],"parents":[2147483647,0,0,1,1,2,2,3,3,5,5,8,8,9,9,13,13,14,14,16,16],"right_children":[2,4,6,8,-1,10,-1,-1,12,14,-1,-1,-1,16,18,-1,20,-1,-1,-1,-1],"split_conditions":[-7.5518125E-1,-1.7882352E0,1.2624959E0,-7.7685094E-1,-4.1876647E-1,1.528691E0,-4.187983E-1,-4.189255E-1,1.4595774E0,1.00591E0,-4.188052E-1,-4.0869236E-1,1.0682043E-1,-1.297215E0,2.2928925E0,-4.1881523E-1,2.2928925E0,-9.1512185E-1,-3.6097E-1,1.1110612E-1,-4.1881225E-1],"split_indices":[3,13,11,3,0,13,0,0,29,23,0,0,0,23,2,0,2,0,0,0,0],"split_type":[0,0,0,0,0,0,0,0,0,0,0,0,0,0,0,0,0,0,0,0,0],"sum_hessian":[9.567124E6,8.777252E3,9.558347E6,2.7515292E2,8.502099E3,9.557299E6,1.047906E3,2.1465773E2,6.0495213E1,9.556423E6,8.757662E2,4.107447E0,5.6387764E1,9.55621E6,2.1241463E2,7.0871594E2,9.555502E6,2.0624118E2,6.1734443E0,9.554836E6,6.656425E2],"tree_param":{"num_deleted":"0","num_feature":"30","num_nodes":"21","size_leaf_vector":"1"}},{"base_weights":[1.0901107E0,-3.0771956E0,1.09513E0,-2.425681E0,-3.097051E-1,1.0957342E0,-3.0973446E-1,-3.0985916E-1,6.3078344E-1,-8.4109575E-2,1.0976024E0,-3.1094155E-1,1.05131224E-1,1.0267226E0,-8.621493E0,1.0980546E0,-3.0970594E-1,-8.637268E0,1.0949581E0,-9.040244E0,-3.0729887E-1,-4.2875066E0,1.0983976E0,-9.177085E-1,-2.7455947E-1,-8.4902585E-1,1.1039608E-1,-3.070451E-1,-9.470649E-1,-4.4084787E-1,-3.0433747E-1,-8.3194077E-1,1.0985696E-1],"categories":[],"categories_nodes":[],"categories_segments":[],"categories_sizes":[],"default_left":[0,0,0,0,0,0,0,0,0,0,0,0,0,0,0,0,0,0,0,0,0,0,0,0,0,0,0,0,0,0,0,0,0],"id":2,"left_children":[1,3,5,7,-1,9,-1,-1,11,13,15,-1,-1,17,19,21,-1,23,25,27,-1,29,31,-1,-1,-1,-1,-1,-1,-1,-1,-1,-1],"loss_changes":[1.83311E5,1.2888281E2,2.2178E4,6.527196E2,0E0,1.9291E4,0E0,0E0,9.437229E1,1.3122867E5,1.658E4,0E0,0E0,8.083709E3,3.6738047E3,1.6144E4,0E0,2.4819678E2,1.0586338E3,3.7758203E3,0E0,7.034766E1,1.4153E4,0E0,0E0,0E0,0E0,0E0,0E0,0E0,0E0,0E0,0E0],"parents":[2147483647,0,0,1,1,2,2,3,3,5,5,8,8,9,9,10,10,13,13,14,14,15,15,17,17,18,18,19,19,21,21,22,22],"right_children":[2,4,6,8,-1,10,-1,-1,12,14,16,-1,-1,18,20,22,-1,24,26,28,-1,30,32,-1,-1,-1,-1,-1,-1,-1,-1,-1,-1],"split_conditions":[-7.5518125E-1,-1.7882352E0,1.2624959E0,-7.7685094E-1,-3.097051E-1,-4.6774164E-1,-3.0973446E-1,-3.0985916E-1,1.4595774E0,-1.3526462E0,1.528691E0,-3.1094155E-1,1.05131224E-1,1.0513395E0,1.528691E0,-1.7358774E0,-3.0970594E-1,2.2928925E0,3.1630896E-2,-1.297215E0,-3.0729887E-1,2.2928925E0,-1.9172789E0,-9.177085E-1,-2.7455947E-1,-8.4902585E-1,1.1039608E-1,-3.070451E-1,-9.470649E-1,-4.4084787E-1,-3.0433747E-1,-8.3194077E-1,1.0985696E-1],"split_indices":[3,13,11,3,0,3,0,0,29,13,13,0,0,10,13,10,0,2,7,23,0,2,29,0,0,0,0,0,0,0,0,0,0],"split_type":[0,0,0,0,0,0,0,0,0,0,0,0,0,0,0,0,0,0,0,0,0,0,0,0,0,0,0,0,0,0,0,0,0],"sum_hessian":[8.763565E6,1.0541801E4,8.753023E6,3.1540833E2,1.0226392E4,8.751763E6,1.2606979E3,2.584863E2,5.692204E1,1.3835498E4,8.737927E6,5.106911E0,5.181513E1,1.2243349E4,1.5921499E3,8.736986E6,9.413388E2,8.4961205E1,1.2158388E4,1.479836E3,1.12313866E2,5.5555835E2,8.73643E6,7.731929E1,7.6419106E0,1.0524692E1,1.2147862E4,1.0006404E2,1.3797721E3,5.0400824E2,5.1550114E1,1.5859628E2,8.736272E6],"tree_param":{"num_deleted":"0","num_feature":"30","num_nodes":"33","size_leaf_vector":"1"}},{"base_weights":[1.0774938E0,-2.5241199E0,1.0826682E0,-2.0391073E0,-2.538524E-1,1.0940263E0,8.3863264E-1,-2.5392288E-1,6.0728836E-1,1.0943698E0,-4.7655826E0,9.154135E-1,-6.265718E0,1.0356428E-1,-2.5660053E-1,-3.6710992E0,1.0945648E0,-7.892255E0,-2.5308454E-1,9.718404E-1,-7.4568696E0,-6.880346E0,-2.5189934E0,-3.0039525E0,-7.27077E0,1.0947244E0,-3.132883E0,-8.8492155E0,-3.0930889E0,-5.460781E0,9.998431E-1,-8.085937E0,-2.531043E-1,-3.9688206E0,-7.6600165E0,6.589439E-1,-2.861627E0,-3.1217608E-1,-2.5042126E-1,-8.604803E-1,-2.9601845E-1,-3.1731346E-1,1.0948099E-1,-1.8970148E-1,-3.2528025E-1,-4.2220965E-1,-9.5262045E-1,-1.2660156E-1,-3.169321E-1,-4.211681E-1,-8.561412E-1,1.0079676E-1,-7.7679425E-1,-8.872921E-1,-2.5313723E-1,-2.503565E-1,-4.102839E-1,-3.190987E-1,-8.382039E-1,-2.586483E-1,1.0567372E-1,-7.173503E-1,-2.5348982E-1],"categories":[],"categories_nodes":[],"categories_segments":[],"categories_sizes":[],"default_left":[0,0,0,0,0,0,0,0,0,0,0,0,0,0,0,0,0,0,0,0,0,0,0,0,0,0,0,0,0,0,0,0,0,0,0,0,0,0,0,0,0,0,0,0,0,0,0,0,0,0,0,0,0,0,0,0,0,0,0,0,0,0,0],"id":3,"left_children":[1,3,5,7,-1,9,11,-1,13,15,17,19,21,-1,-1,23,25,27,-1,29,31,33,35,37,39,41,43,45,47,49,51,53,-1,55,57,59,61,-1,-1,-1,-1,-1,-1,-1,-1,-1,-1,-1,-1,-1,-1,-1,-1,-1,-1,-1,-1,-1,-1,-1,-1,-1,-1],"loss_changes":[1.49444E5,7.5203125E1,2.2194E4,4.4742566E2,0E0,1.5402E4,1.9425786E5,0E0,7.654081E1,7.115E3,3.11438E3,1.6644475E5,8.751219E3,0E0,0E0,7.306455E2,5.165E3,8.291699E2,0E0,6.3042125E4,7.288297E3,7.3937812E3,5.878948E2,7.845703E0,2.522107E2,2.795E3,3.6674805E1,4.451953E2,5.203247E-1,5.8391367E3,2.4828062E4,9.1185E3,0E0,1.2579199E2,8.293828E3,7.140262E1,6.664878E2,0E0,0E0,0E0,0E0,0E0,0E0,0E0,0E0,0E0,0E0,0E0,0E0,0E0,0E0,0E0,0E0,0E0,0E0,0E0,0E0,0E0,0E0,0E0,0E0,0E0,0E0],"parents":[2147483647,0,0,1,1,2,2,3,3,5,5,6,6,8,8,9,9,10,10,11,11,12,12,15,15,16,16,17,17,19,19,20,20,21,21,22,22,23,23,24,24,25,25,26,26,27,27,28,28,29,29,30,30,31,31,33,33,34,34,35,35,36,36],"right_children":[2,4,6,8,-1,10,12,-1,14,16,18,20,22,-1,-1,24,26,28,-1,30,32,34,36,38,40,42,44,46,48,50,52,54,-1,56,58,60,62,-1,-1,-1,-1,-1,-1,-1,-1,-1,-1,-1,-1,-1,-1,-1,-1,-1,-1,-1,-1,-1,-1,-1,-1,-1,-1],"split_conditions":[-7.5518125E-1,-1.7882352E0,-4.5272017E-1,-7.7685094E-1,-2.538524E-1,9.925471E-1,2.2281127E-1,-2.5392288E-1,-1.0632558E0,-1.6033585E0,1.2624959E0,1.297097E0,1.217175E0,1.0356428E-1,-2.5660053E-1,-1.7358774E0,2.2928925E0,2.2928925E0,-2.5308454E-1,-2.0901999E-1,1.2624959E0,-4.6774164E-1,2.2982696E-1,2.2928925E0,2.2928925E0,-1.297215E0,-4.6774164E-1,-4.6774164E-1,-4.9406993E-1,-4.6774164E-1,6.818889E-1,1.528691E0,-2.531043E-1,-1.297215E0,-1.297215E0,1.9939569E0,1.2624959E0,-3.1217608E-1,-2.5042126E-1,-8.604803E-1,-2.9601845E-1,-3.1731346E-1,1.0948099E-1,-1.8970148E-1,-3.2528025E-1,-4.2220965E-1,-9.5262045E-1,-1.2660156E-1,-3.169321E-1,-4.211681E-1,-8.561412E-1,1.0079676E-1,-7.7679425E-1,-8.872921E-1,-2.5313723E-1,-2.503565E-1,-4.102839E-1,-3.190987E-1,-8.382039E-1,-2.586483E-1,1.0567372E-1,-7.173503E-1,-2.5348982E-1],"split_indices":[3,13,13,3,0,11,7,0,6,10,11,0,11,0,0,10,2,2,0,3,11,3,7,2,2,23,3,3,3,3,24,13,0,23,23,3,11,0,0,0,0,0,0,0,0,0,0,0,0,0,0,0,0,0,0,0,0,0,0,0,0,0,0],"split_type":[0,0,0,0,0,0,0,0,0,0,0,0,0,0,0,0,0,0,0,0,0,0,0,0,0,0,0,0,0,0,0,0,0,0,0,0,0,0,0,0,0,0,0,0,0,0,0,0,0,0,0,0,0,0,0,0,0,0,0,0,0,0,0],"sum_hessian":[8.0188485E6,1.1503509E4,8.007345E6,3.3589258E2,1.1167616E4,7.6512325E6,3.5611247E5,2.825384E2,5.3354195E1,7.650785E6,4.4757925E2,3.5230578E5,3.806703E3,4.7602146E1,5.752048E0,3.123391E2,7.6504725E6,1.855043E2,2.6207495E2,3.499481E5,2.3576711E3,3.269521E3,5.3718176E2,2.6505038E2,4.728872E1,7.6501845E6,2.8809695E2,1.5396045E2,3.154385E1,1.515963E3,3.4843212E5,2.0901064E3,2.6756467E2,6.918892E2,2.5776318E3,5.219047E1,4.849913E2,2.1024147E2,5.4808914E1,3.5351875E1,1.1936843E1,1.5254002E2,7.650032E6,2.6969776E1,2.6112717E2,2.057435E1,1.333861E2,1.968629E0,2.9575222E1,1.0823091E3,4.3365387E2,3.4811047E5,3.2168506E2,1.8302015E3,2.5990488E2,5.962931E1,6.322599E2,3.5927634E2,2.2183555E3,5.0977793E0,4.7092693E1,3.2685272E1,4.5230603E2],"tree_param":{"num_deleted":"0","num_feature":"30","num_nodes":"63","size_leaf_vector":"1"}},{"base_weights":[1.0662901E0,-2.182118E0,1.0715934E0,-1.7897177E0,-2.1935843E-1,1.0837024E0,8.207113E-1,-2.1935645E-1,5.8626467E-1,1.0840489E0,-3.2437947E0,8.9741224E-1,-3.9202414E0,-2.212116E-1,1.0207112E-1,-2.823134E0,1.0842458E0,-4.177435E0,-2.187743E-1,9.5451283E-1,-4.15054E0,-4.1035814E0,-1.8530734E0,-2.4884443E0,-4.101242E0,1.0844064E0,-2.5657568E0,-4.3814983E0,-2.5402847E-1,-3.6653898E0,9.830297E-1,-2.4314713E0,-4.4344487E0,-4.3082547E0,-2.1328018E0,-1.7478114E0,-2.1744888E-1,-1.9772059E-1,-2.5369772E-1,-2.3409112E-1,-4.5691147E-1,1.0844745E-1,-4.330363E-1,-1.7419915E-1,-2.6366505E-1,-1.76778E-1,-4.5300302E-1,-3.1456944E-1,-4.6107015E-1,-8.1886595E-1,9.898138E-2,-1.3977607E-1,-2.4448796E-1,-4.6422598E-1,-2.187932E-1,-4.4592354E-1,-1.9870533E-1,6.3903175E-2,-2.4567829E-1,-1.9984166E-1,-1.6988622E-1],"categories":[],"categories_nodes":[],"categories_segments":[],"categories_sizes":[],"default_left":[0,0,0,0,0,0,0,0,0,0,0,0,0,0,0,0,0,0,0,0,0,0,0,0,0,0,0,0,0,0,0,0,0,0,0,0,0,0,0,0,0,0,0,0,0,0,0,0,0,0,0,0,0,0,0,0,0,0,0,0,0],"id":4,"left_children":[1,3,5,7,-1,9,11,-1,13,15,17,19,21,-1,-1,23,25,27,-1,29,31,33,35,37,39,41,43,45,-1,47,49,51,53,55,57,59,-1,-1,-1,-1,-1,-1,-1,-1,-1,-1,-1,-1,-1,-1,-1,-1,-1,-1,-1,-1,-1,-1,-1,-1,-1],"loss_changes":[1.262775E5,4.983203E1,2.2232E4,3.319751E2,0E0,1.04675E4,1.225337E5,0E0,6.4087036E1,5.374E3,5.4197754E2,9.558322E4,2.0256406E3,0E0,0E0,1.4039795E2,4.095E3,8.761621E1,0E0,4.3201156E4,1.7994766E3,1.9781875E3,1.1047852E1,1.9696045E0,4.820764E1,2.574E3,1.3361816E1,9.348584E1,0E0,9.738008E2,2.0284594E4,3.9001465E0,1.4754336E3,1.5550312E3,4.1962183E2,7.2302246E-1,0E0,0E0,0E0,0E0,0E0,0E0,0E0,0E0,0E0,0E0,0E0,0E0,0E0,0E0,0E0,0E0,0E0,0E0,0E0,0E0,0E0,0E0,0E0,0E0,0E0],"parents":[2147483647,0,0,1,1,2,2,3,3,5,5,6,6,8,8,9,9,10,10,11,11,12,12,15,15,16,16,17,17,19,19,20,20,21,21,22,22,23,23,24,24,25,25,26,26,27,27,29,29,30,30,31,31,32,32,33,33,34,34,35,35],"right_children":[2,4,6,8,-1,10,12,-1,14,16,18,20,22,-1,-1,24,26,28,-1,30,32,34,36,38,40,42,44,46,-1,48,50,52,54,56,58,60,-1,-1,-1,-1,-1,-1,-1,-1,-1,-1,-1,-1,-1,-1,-1,-1,-1,-1,-1,-1,-1,-1,-1,-1,-1],"split_conditions":[-7.5518125E-1,-1.7882352E0,-4.7095296E-1,-7.7685094E-1,-2.1935843E-1,9.925471E-1,2.2281127E-1,-2.1935645E-1,1.4595774E0,-1.6033585E0,1.2624959E0,1.297097E0,1.528691E0,-2.212116E-1,1.0207112E-1,-1.7358774E0,2.2928925E0,2.2928925E0,-2.187743E-1,-2.0901999E-1,-4.6774164E-1,1.217175E0,1.2624959E0,-4.6774164E-1,-4.6774164E-1,1.00591E0,-4.6774164E-1,-1.7358774E0,-2.5402847E-1,-4.6774164E-1,-1.0473038E0,-1.7358774E0,1.2624959E0,2.2928925E0,2.2982696E-1,-4.6774164E-1,-2.1744888E-1,-1.9772059E-1,-2.5369772E-1,-2.3409112E-1,-4.5691147E-1,1.0844745E-1,-4.330363E-1,-1.7419915E-1,-2.6366505E-1,-1.76778E-1,-4.5300302E-1,-3.1456944E-1,-4.6107015E-1,-8.1886595E-1,9.898138E-2,-1.3977607E-1,-2.4448796E-1,-4.6422598E-1,-2.187932E-1,-4.4592354E-1,-1.9870533E-1,6.3903175E-2,-2.4567829E-1,-1.9984166E-1,-1.6988622E-1],"split_indices":[3,13,13,3,0,11,7,0,29,10,11,0,13,0,0,10,2,2,0,3,3,11,11,3,3,23,3,10,0,3,21,10,11,2,7,3,0,0,0,0,0,0,0,0,0,0,0,0,0,0,0,0,0,0,0,0,0,0,0,0,0],"split_type":[0,0,0,0,0,0,0,0,0,0,0,0,0,0,0,0,0,0,0,0,0,0,0,0,0,0,0,0,0,0,0,0,0,0,0,0,0,0,0,0,0,0,0,0,0,0,0,0,0,0,0,0,0,0,0,0,0,0,0,0,0],"sum_hessian":[7.3300815E6,1.1946647E4,7.318135E6,3.4363556E2,1.1603012E4,6.981177E6,3.3695775E5,2.9377866E2,4.9856903E1,6.980619E6,5.579576E2,3.315939E5,5.3638433E3,6.150186E0,4.370672E1,3.510681E2,6.980268E6,2.9457358E2,2.6338403E2,3.2788578E5,3.7081123E3,4.925968E3,4.378755E2,2.805495E2,7.0518616E1,6.9799615E6,3.0644733E2,2.6043518E2,3.4138386E1,2.0107152E3,3.2587506E5,5.2695605E2,3.1811562E3,4.4614424E3,4.645255E2,3.3470062E2,1.0317487E2,2.7942877E1,2.5260661E2,1.6067883E1,5.4450733E1,6.979875E6,8.685134E1,2.6309504E1,2.8013782E2,1.4697875E1,2.457373E2,1.300228E3,7.104872E2,2.399726E2,3.256351E5,8.095283E0,5.188608E2,2.9108276E3,2.703287E2,4.18811E3,2.733324E2,4.8511436E1,4.1601407E2,4.8184475E1,2.8651614E2],"tree_param":{"num_deleted":"0","num_feature":"30","num_nodes":"61","size_leaf_vector":"1"}},{"base_weights":[1.0561937E0,-1.9488184E0,1.0616052E0,-1.6147101E0,-1.9584729E-1,1.0743903E0,8.012958E-1,-1.9578592E-1,5.672212E-1,1.0747486E0,-2.6207397E0,8.786318E-1,-3.0146768E0,9.92101E-2,-2.0637432E-1,-2.3804317E0,1.0749516E0,-3.1173747E0,-1.9536678E-1,9.366897E-1,-3.1273043E0,-3.1109128E0,-1.7095017E0,-2.1637039E-1,-3.0990968E0,1.0751168E0,-2.2149615E0,-1.6392072E-1,-3.1778903E0,-2.891404E0,9.657427E-1,-2.1254878E0,-3.2681413E0,-3.2180147E0,-1.8952736E0,-1.6287519E-1,-1.9432221E-1,-3.3021483E-1,-1.9258706E-1,1.0751563E-1,-9.196564E-1,-1.6210462E-1,-2.2610259E-1,-3.2838064E-1,-2.2017677E-1,-2.583245E-1,-3.3969164E-1,9.722073E-2,-7.605407E-1,-3.2281432E-1,-2.1106386E-1,-3.376043E-1,-1.7451975E-1,-2.3712437E-1,-3.3785543E-1,6.0616422E-2,-2.1688326E-1],"categories":[],"categories_nodes":[],"categories_segments":[],"categories_sizes":[],"default_left":[0,0,0,0,0,0,0,0,0,0,0,0,0,0,0,0,0,0,0,0,0,0,0,0,0,0,0,0,0,0,0,0,0,0,0,0,0,0,0,0,0,0,0,0,0,0,0,0,0,0,0,0,0,0,0,0,0],"id":5,"left_children":[1,3,5,7,-1,9,11,-1,13,15,17,19,21,-1,-1,23,25,27,-1,29,31,33,35,-1,37,39,41,-1,43,45,47,49,51,53,55,-1,-1,-1,-1,-1,-1,-1,-1,-1,-1,-1,-1,-1,-1,-1,-1,-1,-1,-1,-1,-1,-1],"loss_changes":[1.088505E5,3.5652344E1,2.2236E4,2.5839294E2,0E0,8.437E3,9.231647E4,0E0,5.5114677E1,4.4695E3,1.9862646E2,7.131006E4,7.751719E2,0E0,0E0,5.1615967E1,3.462E3,2.6326416E1,0E0,3.361472E4,6.110703E2,7.472031E2,4.9300537E0,0E0,1.3757324E1,2.5965E3,5.0861816E0,0E0,2.7674316E1,3.45875E2,1.6626719E4,2.0732422E0,6.248828E2,7.1465234E2,3.2355737E2,0E0,0E0,0E0,0E0,0E0,0E0,0E0,0E0,0E0,0E0,0E0,0E0,0E0,0E0,0E0,0E0,0E0,0E0,0E0,0E0,0E0,0E0],"parents":[2147483647,0,0,1,1,2,2,3,3,5,5,6,6,8,8,9,9,10,10,11,11,12,12,15,15,16,16,17,17,19,19,20,20,21,21,22,22,24,24,25,25,26,26,28,28,29,29,30,30,31,31,32,32,33,33,34,34],"right_children":[2,4,6,8,-1,10,12,-1,14,16,18,20,22,-1,-1,24,26,28,-1,30,32,34,36,-1,38,40,42,-1,44,46,48,50,52,54,56,-1,-1,-1,-1,-1,-1,-1,-1,-1,-1,-1,-1,-1,-1,-1,-1,-1,-1,-1,-1,-1,-1],"split_conditions":[-7.5518125E-1,-1.7882352E0,-4.7095296E-1,-7.7685094E-1,-1.9584729E-1,9.925471E-1,2.2281127E-1,-1.9578592E-1,-6.0711515E-1,-1.6033585E0,1.2624959E0,1.297097E0,1.528691E0,9.92101E-2,-2.0637432E-1,-1.7358774E0,2.2928925E0,-1.7358774E0,-1.9536678E-1,-2.0901999E-1,-4.6774164E-1,1.217175E0,1.2624959E0,-2.1637039E-1,2.2928925E0,1.6041956E0,-4.6774164E-1,-1.6392072E-1,2.2928925E0,-4.6774164E-1,1.0044597E0,-4.5272017E-1,1.528691E0,-4.6774164E-1,2.2982696E-1,-1.6287519E-1,-1.9432221E-1,-3.3021483E-1,-1.9258706E-1,1.0751563E-1,-9.196564E-1,-1.6210462E-1,-2.2610259E-1,-3.2838064E-1,-2.2017677E-1,-2.583245E-1,-3.3969164E-1,9.722073E-2,-7.605407E-1,-3.2281432E-1,-2.1106386E-1,-3.376043E-1,-1.7451975E-1,-2.3712437E-1,-3.3785543E-1,6.0616422E-2,-2.1688326E-1],"split_indices":[3,13,13,3,0,11,7,0,4,10,11,0,13,0,0,10,2,10,0,3,3,11,11,0,2,29,3,0,2,3,17,13,13,3,7,0,0,0,0,0,0,0,0,0,0,0,0,0,0,0,0,0,0,0,0,0,0],"split_type":[0,0,0,0,0,0,0,0,0,0,0,0,0,0,0,0,0,0,0,0,0,0,0,0,0,0,0,0,0,0,0,0,0,0,0,0,0,0,0,0,0,0,0,0,0,0,0,0,0,0,0,0,0,0,0,0,0],"sum_hessian":[6.6936745E6,1.2031661E4,6.681643E6,3.4262598E2,1.1689035E4,6.3688345E6,3.128086E5,2.961531E2,4.6472874E1,6.3682175E6,6.169358E2,3.0659578E5,6.212817E3,4.054766E1,5.92521E0,3.7344427E2,6.367844E6,3.5154065E2,2.6539514E2,3.0221653E5,4.379248E3,5.7848896E3,4.2792682E2,2.8999982E2,8.344445E1,6.367525E6,3.1887866E2,1.4930576E1,3.3661008E2,2.2756301E3,2.999409E5,5.417441E2,3.8375042E3,5.314975E3,4.6991495E2,3.2396603E2,1.0396081E2,6.958646E1,1.3857993E1,6.3675015E6,2.3620209E1,2.555719E1,2.9332147E2,3.0152805E2,3.5082016E1,1.417585E3,8.5804504E2,2.9971575E5,2.2516554E2,4.3231406E0,5.374209E2,3.5824668E3,2.550373E2,8.495831E2,4.4653916E3,4.620432E1,4.2371063E2],"tree_param":{"num_deleted":"0","num_feature":"30","num_nodes":"57","size_leaf_vector":"1"}},{"base_weights":[1.0470618E0,-1.0027747E0,1.0546753E0,7.604572E-1,-1.9760014E0,1.0667609E0,8.1069523E-1,-2.4069602E0,1.007953E0,-1.7879753E-1,-2.612435E0,1.0671079E0,-2.2727602E0,8.8037395E-1,-2.5879612E0,-1.7910229E-1,-5.004131E0,-2.2929091E0,1.0541126E0,-5.043065E0,-2.118925E0,-2.132794E0,1.0672971E0,-2.6088567E0,-1.7832747E-1,9.346239E-1,-2.6572523E0,-2.671853E0,-1.7276834E0,-1.6361855E-1,-5.3771796E0,-1.7748678E-1,-5.4374475E0,1.0648499E0,-2.6797585E0,-5.268753E0,-1.8899108E-1,-2.1416676E0,-1.6514917E-1,-1.9618112E-1,-2.7071943E0,1.0674567E0,-2.0030246E0,-1.5242673E-1,-2.6481342E0,9.450784E-1,-4.657114E0,-2.7206402E0,-1.6252966E-1,-1.7536576E0,-2.750434E0,6.2212634E-1,-1.9448136E0,-5.561569E-1,-1.7289399E-1,-1.8259083E-1,-5.756802E-1,1.06828265E-1,-5.3547883E-1,-1.6965406E-1,-7.4246293E-1,-1.6880088E-1,-5.4721797E-1,-1.5694645E-1,-2.1600488E-1,-2.8726E-1,-1.7577264E-1,1.0674933E-1,-1.0599239E0,-1.2959932E-1,-2.0271026E-1,-1.3196649E-1,-2.6794133E-1,-5.067193E-1,9.539688E-2,-4.9169704E-1,-1.7099619E-1,-2.7934918E-1,-1.6793351E-1,-1.4166436E-1,-1.771565E-1,-2.8166518E-1,-1.4745104E-1,-2.4404672E-1,1.050347E-1,-3.460022E-1,-1.7567281E-1],"categories":[],"categories_nodes":[],"categories_segments":[],"categories_sizes":[],"default_left":[0,0,0,0,0,0,0,0,0,0,0,0,0,0,0,0,0,0,0,0,0,0,0,0,0,0,0,0,0,0,0,0,0,0,0,0,0,0,0,0,0,0,0,0,0,0,0,0,0,0,0,0,0,0,0,0,0,0,0,0,0,0,0,0,0,0,0,0,0,0,0,0,0,0,0,0,0,0,0,0,0,0,0,0,0,0,0],"id":6,"left_children":[1,3,5,7,9,11,13,15,17,-1,19,21,23,25,27,-1,29,31,33,35,37,39,41,43,-1,45,47,49,51,-1,53,-1,55,57,59,61,-1,63,-1,-1,65,67,69,-1,71,73,75,77,-1,79,81,83,85,-1,-1,-1,-1,-1,-1,-1,-1,-1,-1,-1,-1,-1,-1,-1,-1,-1,-1,-1,-1,-1,-1,-1,-1,-1,-1,-1,-1,-1,-1,-1,-1,-1,-1],"loss_changes":[9.53175E4,3.87856E4,1.7941E4,6.3042715E3,1.7380586E3,6.7225E3,6.801294E4,9.2351807E2,1.138603E3,0E0,3.9707441E3,3.5115E3,9.4517334E1,5.4011766E4,4.1179688E2,0E0,1.3089429E2,1.583894E2,2.9771777E2,3.881621E2,2.580957E1,2.837732E1,2.843E3,1.1096924E1,0E0,1.62075E4,2.736328E2,3.743672E2,2.642256E2,0E0,5.7424805E1,0E0,5.7578125E0,1.6735449E2,8.711589E1,3.7064746E2,0E0,2.4264648E1,0E0,0E0,6.894409E0,2.483E3,2.5101318E0,0E0,1.0653076E1,1.47924375E4,3.878418E2,2.9899805E2,0E0,7.2021484E-3,4.0471094E2,6.0743008E1,1.2847534E2,0E0,0E0,0E0,0E0,0E0,0E0,0E0,0E0,0E0,0E0,0E0,0E0,0E0,0E0,0E0,0E0,0E0,0E0,0E0,0E0,0E0,0E0,0E0,0E0,0E0,0E0,0E0,0E0,0E0,0E0,0E0,0E0,0E0,0E0],"parents":[2147483647,0,0,1,1,2,2,3,3,4,4,5,5,6,6,7,7,8,8,10,10,11,11,12,12,13,13,14,14,16,16,17,17,18,18,19,19,20,20,21,21,22,22,23,23,25,25,26,26,27,27,28,28,30,30,32,32,33,33,34,34,35,35,37,37,40,40,41,41,42,42,44,44,45,45,46,46,47,47,49,49,50,50,51,51,52,52],"right_children":[2,4,6,8,10,12,14,16,18,-1,20,22,24,26,28,-1,30,32,34,36,38,40,42,44,-1,46,48,50,52,-1,54,-1,56,58,60,62,-1,64,-1,-1,66,68,70,-1,72,74,76,78,-1,80,82,84,86,-1,-1,-1,-1,-1,-1,-1,-1,-1,-1,-1,-1,-1,-1,-1,-1,-1,-1,-1,-1,-1,-1,-1,-1,-1,-1,-1,-1,-1,-1,-1,-1,-1,-1],"split_conditions":[-4.9406993E-1,-1.4037764E0,-4.7095296E-1,1.0744789E0,-7.5518125E-1,9.925471E-1,2.2281127E-1,-7.5518125E-1,3.721886E-2,-1.7879753E-1,-4.7095296E-1,-1.6033585E0,1.2624959E0,1.297097E0,1.217175E0,-1.7910229E-1,-1.6033585E0,-7.5518125E-1,1.1747809E-1,9.925471E-1,1.528691E0,-1.7358774E0,2.2928925E0,-1.7358774E0,-1.7832747E-1,6.818889E-1,1.528691E0,-1.297215E0,2.2982696E-1,-1.6361855E-1,1.00591E0,-1.7748678E-1,-3.341619E0,2.883494E-1,-7.7685094E-1,-1.6033585E0,-1.8899108E-1,-1.297215E0,-1.6514917E-1,-1.9618112E-1,2.2928925E0,3.8440037E0,-1.9172789E0,-1.5242673E-1,-1.297215E0,-1.6692325E0,1.528691E0,1.2624959E0,-1.6252966E-1,-1.7358774E0,1.528691E0,6.0708165E-1,1.2624959E0,-5.561569E-1,-1.7289399E-1,-1.8259083E-1,-5.756802E-1,1.06828265E-1,-5.3547883E-1,-1.6965406E-1,-7.4246293E-1,-1.6880088E-1,-5.4721797E-1,-1.5694645E-1,-2.1600488E-1,-2.8726E-1,-1.7577264E-1,1.0674933E-1,-1.0599239E0,-1.2959932E-1,-2.0271026E-1,-1.3196649E-1,-2.6794133E-1,-5.067193E-1,9.539688E-2,-4.9169704E-1,-1.7099619E-1,-2.7934918E-1,-1.6793351E-1,-1.4166436E-1,-1.771565E-1,-2.8166518E-1,-1.4745104E-1,-2.4404672E-1,1.050347E-1,-3.460022E-1,-1.7567281E-1],"split_indices":[3,13,13,10,3,11,7,3,7,0,13,10,11,0,11,0,10,3,7,11,13,10,2,10,0,24,13,23,7,0,23,0,13,20,3,10,0,23,0,0,2,9,29,0,23,29,13,11,0,10,13,9,11,0,0,0,0,0,0,0,0,0,0,0,0,0,0,0,0,0,0,0,0,0,0,0,0,0,0,0,0,0,0,0,0,0,0],"split_type":[0,0,0,0,0,0,0,0,0,0,0,0,0,0,0,0,0,0,0,0,0,0,0,0,0,0,0,0,0,0,0,0,0,0,0,0,0,0,0,0,0,0,0,0,0,0,0,0,0,0,0,0,0,0,0,0,0,0,0,0,0,0,0,0,0,0,0,0,0,0,0,0,0,0,0,0,0,0,0,0,0,0,0,0,0,0,0],"sum_hessian":[6.107453E6,2.260014E4,6.084853E6,8.0378604E3,1.4562281E4,5.7976635E6,2.8718925E5,5.819116E2,7.4559487E3,1.1244151E4,3.3181296E3,5.7970615E6,6.018037E2,2.8142034E5,5.768893E3,4.7172766E2,1.1018393E2,1.0215535E2,7.3537935E3,5.584481E2,2.7596814E3,3.420133E2,5.7967195E6,3.542408E2,2.475629E2,2.7717066E5,4.2497134E3,5.2543936E3,5.144998E2,1.1524539E1,9.865939E1,8.904948E1,1.310587E1,7.33342E3,2.0373396E1,5.205207E2,3.7927425E1,2.6282263E3,1.3145522E2,2.6696173E2,7.505156E1,5.796419E6,3.0077295E2,1.3771377E1,3.4046942E2,2.7665422E5,5.164092E2,4.0022397E3,2.4747362E2,4.160687E2,4.8383247E3,4.3362328E1,4.7113745E2,9.3413635E1,5.245756E0,1.6104941E0,1.1495377E1,7.3303335E3,3.0862365E0,1.8000862E1,2.3725324E0,2.8481503E1,4.9203918E2,8.448816E1,2.543738E3,6.2191742E1,1.2859817E1,5.7964015E6,1.7246355E1,1.1710983E1,2.8906198E2,8.825474E0,3.3164395E2,4.076467E2,2.762466E5,4.739516E2,4.24576E1,3.7389714E3,2.6326828E2,2.5034197E1,3.9103452E2,4.598467E3,2.3985812E2,4.742847E0,3.861948E1,5.010423E1,4.2103323E2],"tree_param":{"num_deleted":"0","num_feature":"30","num_nodes":"87","size_leaf_vector":"1"}},{"base_weights":[1.0387727E0,-9.330855E-1,1.0465218E0,7.484695E-1,-1.7982045E0,1.0593083E0,7.925389E-1,-2.0938108E0,9.9890727E-1,-1.6589452E-1,-2.2359455E0,1.0596974E0,-1.7763717E0,8.623774E-1,-2.2372918E0,-1.6612817E-1,-3.4826384E0,-1.8859582E0,1.048769E0,-3.4890492E0,-1.9098221E0,-1.9162444E0,1.0598893E0,-2.216368E0,1.0459282E-1,9.1705775E-1,-2.2802627E0,-2.296448E0,-1.5896033E0,-1.5253012E-1,-3.6393113E0,-1.6550525E-1,-3.6563947E0,-4.6319323E0,1.0581015E0,-3.5830185E0,-1.7343746E-1,-1.9264321E0,-1.5515198E-1,-1.7913343E-1,-2.3056886E0,1.0600505E0,-1.8204935E0,-9.130451E0,-2.0155606E0,-2.7937126E0,9.3221027E-1,-2.3221395E0,-1.5306263E-1,-2.33741E0,-1.4336303E-1,6.0448277E-1,-1.7808114E0,-3.710615E-1,-1.2261815E-1,-1.0993035E-1,-3.8968042E-1,-9.328324E-2,-4.9868512E-1,1.06278144E-1,-2.842004E-1,-1.5749426E-1,-3.6657423E-1,-1.3619198E-1,-1.9375402E-1,-2.4083482E-1,-1.6201334E-1,-3.2174563E-1,1.0601541E-1,-1.2427986E-1,-1.8381509E-1,-1.1244534E0,-1.4348078E-1,-2.2451948E-1,-1.654484E-1,-2.871882E-1,-1.3206153E-1,9.401399E-2,-5.4876214E-1,-2.369725E-1,-1.5735017E-1,-1.6297062E-1,-2.3923698E-1,-2.1667282E-1,1.04031935E-1,-2.8119883E-1,-1.6343316E-1],"categories":[],"categories_nodes":[],"categories_segments":[],"categories_sizes":[],"default_left":[0,0,0,0,0,0,0,0,0,0,0,0,0,0,0,0,0,0,0,0,0,0,0,0,0,0,0,0,0,0,0,0,0,0,0,0,0,0,0,0,0,0,0,0,0,0,0,0,0,0,0,0,0,0,0,0,0,0,0,0,0,0,0,0,0,0,0,0,0,0,0,0,0,0,0,0,0,0,0,0,0,0,0,0,0,0,0],"id":7,"left_children":[1,3,5,7,9,11,13,15,17,-1,19,21,23,25,27,-1,29,31,33,35,37,39,41,43,-1,45,47,49,51,-1,53,-1,55,57,59,61,-1,63,-1,-1,65,67,69,71,73,75,77,79,-1,81,-1,83,85,-1,-1,-1,-1,-1,-1,-1,-1,-1,-1,-1,-1,-1,-1,-1,-1,-1,-1,-1,-1,-1,-1,-1,-1,-1,-1,-1,-1,-1,-1,-1,-1,-1,-1],"loss_changes":[8.5091E4,3.1712895E4,1.8013E4,5.2736777E3,8.7373047E2,5.828E3,5.625972E4,3.5465283E2,9.8110156E2,0E0,1.4118555E3,3.019E3,9.025012E2,4.4660125E4,2.2587695E2,0E0,3.7865845E1,4.137262E1,3.5966748E2,1.1177734E2,1.3416016E1,1.2454102E1,2.452E3,8.5275024E2,0E0,1.4365141E4,1.3597461E2,1.9057422E2,2.12771E2,0E0,1.788147E1,0E0,3.435852E0,1.0001816E1,1.2497656E2,1.06899414E2,0E0,1.3854492E1,0E0,0E0,1.6799316E0,2.3435E3,7.315674E-1,2.673678E2,4.6948975E1,1.1585449E2,1.2955828E4,1.4616797E2,0E0,1.997832E2,0E0,5.2010605E1,6.555127E1,0E0,0E0,0E0,0E0,0E0,0E0,0E0,0E0,0E0,0E0,0E0,0E0,0E0,0E0,0E0,0E0,0E0,0E0,0E0,0E0,0E0,0E0,0E0,0E0,0E0,0E0,0E0,0E0,0E0,0E0,0E0,0E0,0E0,0E0],"parents":[2147483647,0,0,1,1,2,2,3,3,4,4,5,5,6,6,7,7,8,8,10,10,11,11,12,12,13,13,14,14,16,16,17,17,18,18,19,19,20,20,21,21,22,22,23,23,25,25,26,26,27,27,28,28,30,30,32,32,33,33,34,34,35,35,37,37,40,40,41,41,42,42,43,43,44,44,45,45,46,46,47,47,49,49,51,51,52,52],"right_children":[2,4,6,8,10,12,14,16,18,-1,20,22,24,26,28,-1,30,32,34,36,38,40,42,44,-1,46,48,50,52,-1,54,-1,56,58,60,62,-1,64,-1,-1,66,68,70,72,74,76,78,80,-1,82,-1,84,86,-1,-1,-1,-1,-1,-1,-1,-1,-1,-1,-1,-1,-1,-1,-1,-1,-1,-1,-1,-1,-1,-1,-1,-1,-1,-1,-1,-1,-1,-1,-1,-1,-1,-1],"split_conditions":[-4.9406993E-1,-1.4037764E0,-4.7095296E-1,1.0744789E0,-7.5518125E-1,9.6706384E-1,2.2281127E-1,-7.5518125E-1,2.8542656E-1,-1.6589452E-1,-4.7095296E-1,-1.6033585E0,2.1715832E0,1.297097E0,1.217175E0,-1.6612817E-1,-1.6033585E0,-7.5518125E-1,-6.250432E-1,9.925471E-1,1.528691E0,-1.7358774E0,2.2928925E0,9.925471E-1,1.0459282E-1,-2.0901999E-1,1.528691E0,1.528691E0,2.2982696E-1,-1.5253012E-1,2.2928925E0,-1.6550525E-1,-1.297215E0,-7.5518125E-1,-1.8589942E-1,-1.6033585E0,-1.7343746E-1,-1.7358774E0,-1.5515198E-1,-1.7913343E-1,2.2928925E0,-1.297215E0,-1.9172789E0,2.188197E0,1.2624959E0,1.528691E0,1.6135958E0,1.2624959E0,-1.5306263E-1,-1.297215E0,-1.4336303E-1,6.0708165E-1,1.2624959E0,-3.710615E-1,-1.2261815E-1,-1.0993035E-1,-3.8968042E-1,-9.328324E-2,-4.9868512E-1,1.06278144E-1,-2.842004E-1,-1.5749426E-1,-3.6657423E-1,-1.3619198E-1,-1.9375402E-1,-2.4083482E-1,-1.6201334E-1,-3.2174563E-1,1.0601541E-1,-1.2427986E-1,-1.8381509E-1,-1.1244534E0,-1.4348078E-1,-2.2451948E-1,-1.654484E-1,-2.871882E-1,-1.3206153E-1,9.401399E-2,-5.4876214E-1,-2.369725E-1,-1.5735017E-1,-1.6297062E-1,-2.3923698E-1,-2.1667282E-1,1.04031935E-1,-2.8119883E-1,-1.6343316E-1],"split_indices":[3,13,13,10,3,11,7,3,0,0,13,10,21,0,11,0,10,3,4,11,13,10,2,11,0,3,13,13,7,0,2,0,23,3,12,10,0,10,0,0,2,23,29,2,11,13,12,11,0,23,0,9,11,0,0,0,0,0,0,0,0,0,0,0,0,0,0,0,0,0,0,0,0,0,0,0,0,0,0,0,0,0,0,0,0,0,0],"split_type":[0,0,0,0,0,0,0,0,0,0,0,0,0,0,0,0,0,0,0,0,0,0,0,0,0,0,0,0,0,0,0,0,0,0,0,0,0,0,0,0,0,0,0,0,0,0,0,0,0,0,0,0,0,0,0,0,0,0,0,0,0,0,0,0,0,0,0,0,0,0,0,0,0,0,0,0,0,0,0,0,0,0,0,0,0,0,0],"sum_hessian":[5.568661E6,2.1797695E4,5.546863E6,7.404842E3,1.4392854E4,5.280994E6,2.6586894E5,5.990229E2,6.805819E3,1.0922764E4,3.4700906E3,5.2802705E6,7.2390076E2,2.5987934E5,5.9895815E3,4.5844376E2,1.4057916E2,1.1500702E2,6.690812E3,7.145997E2,2.7554907E3,3.399235E2,5.2799305E6,6.2645166E2,9.744907E1,2.554356E5,4.443744E3,5.485979E3,5.0360263E2,1.1214206E1,1.2936496E2,1.0344963E2,1.1557392E1,1.0161502E1,6.6806504E3,6.7728644E2,3.731322E1,2.6292295E3,1.2626122E2,2.616134E2,7.831008E1,5.2796355E6,2.946756E2,1.6425627E1,6.1002606E2,1.0380533E3,2.5439755E5,4.2066514E3,2.3709265E2,5.2357065E3,2.5027232E2,4.019615E1,4.6340646E2,1.2512991E2,4.235043E0,1.4721055E0,1.0085287E1,1.2072625E0,8.95424E0,6.67337E3,7.2802405E0,2.7590006E1,6.496965E2,5.312297E1,2.5761067E3,6.592503E1,1.238505E1,1.2716157E2,5.2795085E6,1.0856866E1,2.8381873E2,1.2523985E1,3.9016411E0,3.6969357E2,2.4033246E2,9.8484357E2,5.32098E1,2.5408456E5,3.1298642E2,3.953209E3,2.5344232E2,3.795104E2,4.8561963E3,4.9229274E0,3.5273224E1,5.537624E1,4.0803024E2],"tree_param":{"num_deleted":"0","num_feature":"30","num_nodes":"87","size_leaf_vector":"1"}},{"base_weights":[1.0312281E0,-8.797097E-1,1.0390927E0,7.378573E-1,-1.6663282E0,1.053091E0,7.8390455E-1,-1.884415E0,9.9095684E-1,-1.558196E-1,-1.9894328E0,1.0533959E0,-1.829612E0,8.513776E-1,-2.0425348E0,-1.559987E-1,-2.7730598E0,-1.7386189E0,1.0416867E0,-2.763851E0,-1.7504106E0,1.0536103E0,-2.0203738E0,-1.9930415E0,-1.552412E-1,9.047589E-1,-2.1029344E0,-5.129626E0,-1.9960803E0,-1.435422E-1,-2.8609211E0,-1.5532431E-1,-2.9315019E0,-3.3941817E0,1.0515026E0,-2.8165462E0,-1.6183946E-1,-1.7837852E0,-1.6356993E-1,1.0536845E0,-4.3384447E0,-8.348402E0,-1.6570185E-1,-1.3182208E-1,-2.013556E0,-2.51416E0,9.1991025E-1,-8.206119E0,-2.0251951E0,-7.455311E0,-1.6725606E-1,-2.0407567E0,-1.4832722E0,-2.900457E-1,-1.1685413E-1,-1.0422758E-1,-3.0655482E-1,-8.9117244E-2,-3.5601088E-1,1.0563233E-1,-2.5321227E-1,-1.4836477E-1,-2.862094E-1,-1.8003516E-1,-1.4609967E-1,-1.7954557E-1,1.0538244E-1,-1.6234264E-1,-4.418013E-1,-1.6290468E-1,-1.3693871E0,-2.0532668E-1,-1.5909038E-1,-1.0170379E0,-2.3789452E-1,-5.059845E-1,9.282105E-2,-1.3142922E0,-1.9545406E-1,-2.0549312E-1,-1.454402E-1,-9.692711E-1,-1.5677293E-1,-2.0699774E-1,-1.3754891E-1,5.884714E-2,-1.6556203E-1],"categories":[],"categories_nodes":[],"categories_segments":[],"categories_sizes":[],"default_left":[0,0,0,0,0,0,0,0,0,0,0,0,0,0,0,0,0,0,0,0,0,0,0,0,0,0,0,0,0,0,0,0,0,0,0,0,0,0,0,0,0,0,0,0,0,0,0,0,0,0,0,0,0,0,0,0,0,0,0,0,0,0,0,0,0,0,0,0,0,0,0,0,0,0,0,0,0,0,0,0,0,0,0,0,0,0,0],"id":8,"left_children":[1,3,5,7,9,11,13,15,17,-1,19,21,23,25,27,-1,29,31,33,35,37,39,41,43,-1,45,47,49,51,-1,53,-1,55,57,59,61,-1,63,-1,65,67,69,-1,-1,71,73,75,77,79,81,-1,83,85,-1,-1,-1,-1,-1,-1,-1,-1,-1,-1,-1,-1,-1,-1,-1,-1,-1,-1,-1,-1,-1,-1,-1,-1,-1,-1,-1,-1,-1,-1,-1,-1,-1,-1],"loss_changes":[7.62595E4,2.6464756E4,1.8051E4,4.518667E3,4.8580078E2,4.211E3,5.0117953E4,1.6847876E2,8.6131836E2,0E0,6.4398926E2,3.1605E3,1.986621E1,4.0478953E4,8.6848047E2,0E0,1.4581909E1,2.0574036E1,2.6893555E2,4.523877E1,7.348633E0,1.919E3,7.5557214E2,1.7109375E0,0E0,1.3061875E4,2.1448262E3,7.1274805E2,1.3531055E2,0E0,6.5273438E0,0E0,3.898697E-1,2.5142517E0,1.07743164E2,4.35542E1,0E0,8.416504E0,0E0,1.9105E3,7.0963135E0,6.2145374E2,0E0,0E0,1.8375244E0,1.1275967E3,1.24624375E4,1.7325566E3,7.338281E1,6.913296E2,0E0,1.05072266E2,1.7506128E2,0E0,0E0,0E0,0E0,0E0,0E0,0E0,0E0,0E0,0E0,0E0,0E0,0E0,0E0,0E0,0E0,0E0,0E0,0E0,0E0,0E0,0E0,0E0,0E0,0E0,0E0,0E0,0E0,0E0,0E0,0E0,0E0,0E0,0E0],"parents":[2147483647,0,0,1,1,2,2,3,3,4,4,5,5,6,6,7,7,8,8,10,10,11,11,12,12,13,13,14,14,16,16,17,17,18,18,19,19,20,20,21,21,22,22,23,23,25,25,26,26,27,27,28,28,30,30,32,32,33,33,34,34,35,35,37,37,39,39,40,40,41,41,44,44,45,45,46,46,47,47,48,48,49,49,51,51,52,52],"right_children":[2,4,6,8,10,12,14,16,18,-1,20,22,24,26,28,-1,30,32,34,36,38,40,42,44,-1,46,48,50,52,-1,54,-1,56,58,60,62,-1,64,-1,66,68,70,-1,-1,72,74,76,78,80,82,-1,84,86,-1,-1,-1,-1,-1,-1,-1,-1,-1,-1,-1,-1,-1,-1,-1,-1,-1,-1,-1,-1,-1,-1,-1,-1,-1,-1,-1,-1,-1,-1,-1,-1,-1,-1],"split_conditions":[-4.9406993E-1,-1.4037764E0,-5.528264E-1,1.0744789E0,-7.5518125E-1,9.925471E-1,2.2281127E-1,-7.5518125E-1,2.8542656E-1,-1.558196E-1,-4.5272017E-1,2.188197E0,1.2624959E0,1.297097E0,-4.7095296E-1,-1.559987E-1,-1.6033585E0,-7.5518125E-1,-6.250432E-1,9.925471E-1,1.297097E0,1.00591E0,2.2928925E0,-1.7358774E0,-1.552412E-1,-2.0901999E-1,-4.7095296E-1,9.925471E-1,1.217175E0,-1.435422E-1,2.2928925E0,-1.5532431E-1,-1.297215E0,-7.5518125E-1,-1.8589942E-1,-1.6033585E0,-1.6183946E-1,1.528691E0,-1.6356993E-1,-1.6033585E0,-4.6774164E-1,-1.6033585E0,-1.6570185E-1,-1.3182208E-1,2.2928925E0,-4.7095296E-1,-1.0473038E0,9.6706384E-1,1.528691E0,2.2928925E0,-1.6725606E-1,1.528691E0,2.2982696E-1,-2.900457E-1,-1.1685413E-1,-1.0422758E-1,-3.0655482E-1,-8.9117244E-2,-3.5601088E-1,1.0563233E-1,-2.5321227E-1,-1.4836477E-1,-2.862094E-1,-1.8003516E-1,-1.4609967E-1,-1.7954557E-1,1.0538244E-1,-1.6234264E-1,-4.418013E-1,-1.6290468E-1,-1.3693871E0,-2.0532668E-1,-1.5909038E-1,-1.0170379E0,-2.3789452E-1,-5.059845E-1,9.282105E-2,-1.3142922E0,-1.9545406E-1,-2.0549312E-1,-1.454402E-1,-9.692711E-1,-1.5677293E-1,-2.0699774E-1,-1.3754891E-1,5.884714E-2,-1.6556203E-1],"split_indices":[3,13,13,10,3,11,7,3,0,0,13,2,11,0,13,0,10,3,4,11,0,23,2,10,0,3,13,11,11,0,2,0,23,3,12,10,0,13,0,10,3,10,0,0,2,13,21,11,13,2,0,13,7,0,0,0,0,0,0,0,0,0,0,0,0,0,0,0,0,0,0,0,0,0,0,0,0,0,0,0,0,0,0,0,0,0,0],"split_type":[0,0,0,0,0,0,0,0,0,0,0,0,0,0,0,0,0,0,0,0,0,0,0,0,0,0,0,0,0,0,0,0,0,0,0,0,0,0,0,0,0,0,0,0,0,0,0,0,0,0,0,0,0,0,0,0,0,0,0,0,0,0,0,0,0,0,0,0,0,0,0,0,0,0,0,0,0,0,0,0,0,0,0,0,0,0,0],"sum_hessian":[5.074127E6,2.0796984E4,5.05333E6,6.8045254E3,1.399246E4,4.7905415E6,2.6278853E5,5.9838904E2,6.206136E3,1.0488228E4,3.5042327E3,4.7900355E6,5.0582028E2,2.5666216E5,6.1263696E3,4.4037256E2,1.580165E2,1.1263081E2,6.0935054E3,8.2398987E2,2.680243E3,4.789702E6,3.3362268E2,3.1431735E2,1.9150293E2,2.5210753E5,4.5546196E3,8.920067E1,6.037169E3,1.0808018E1,1.4720848E2,9.947443E1,1.3156383E1,1.2692921E1,6.0808125E3,7.8635565E2,3.763421E1,2.0649172E3,6.153257E2,4.789637E6,6.504989E1,1.6923038E1,3.1669965E2,1.1198594E1,3.0311874E2,1.111591E3,2.5099595E5,5.59697E1,4.49865E3,5.263487E1,3.65658E1,5.550614E3,4.8655527E2,1.4315048E2,4.0579934E0,1.4530342E0,1.1703348E1,1.1851918E0,1.1507729E1,6.0733477E3,7.464744E0,2.709265E1,7.59263E2,1.9597596E3,1.0515759E2,2.3451585E2,4.7894025E6,2.4615114E0,6.2588375E1,8.076048E0,8.846991E0,2.735583E2,2.9560478E1,1.8002874E1,1.093588E3,3.4706766E2,2.5064888E5,3.0657484E1,2.5312216E1,4.2734224E3,2.2522765E2,3.767233E1,1.4962543E1,5.315049E3,2.3556503E2,3.718243E1,4.4937286E2],"tree_param":{"num_deleted":"0","num_feature":"30","num_nodes":"87","size_leaf_vector":"1"}},{"base_weights":[1.02431E0,-8.371446E-1,1.0322729E0,7.284228E-1,-1.5640271E0,1.0470592E0,7.670461E-1,-1.7321266E0,9.8382366E-1,-1.477635E-1,-1.8125771E0,1.0474021E0,-1.4562013E0,8.3421254E-1,-1.8569286E0,-1.4789823E-1,-2.35433E0,-1.6246989E0,1.0353324E0,-2.3578374E0,-1.6348408E0,1.047619E0,-1.7960349E0,-1.8472412E0,1.03847764E-1,8.8755554E-1,-1.893088E0,-3.7493324E0,-1.8220097E0,-1.3609736E-1,-2.4107735E0,-1.4716245E-1,-2.487061E-1,-2.7658415E0,1.0455765E0,-2.3918362E0,-1.5181558E-1,-1.2841143E-1,-1.6416061E0,-2.7051895E0,1.0477381E0,-4.012501E0,-1.5566836E-1,-5.0024514E0,-1.6919616E0,8.994164E-1,-3.7898319E0,-3.9366512E0,-1.8359658E0,-4.7982044E0,-1.6100441E-1,-1.8573984E0,-1.4008548E0,-2.4388821E-1,-1.19580105E-1,-2.020288E-1,-3.5346445E-1,1.0505334E-1,-2.2956863E-1,-1.4105026E-1,-2.4213694E-1,-1.3416992E-1,-1.650035E-1,-1.2147913E-1,-2.7990195E-1,-1.6816735E-1,1.04787506E-1,-1.5164106E-1,-4.773471E-1,-5.5361694E-1,-1.20966844E-1,-1.8159229E-1,-1.4718476E-1,-2.2257428E-1,9.140832E-2,-1.6772734E-1,-4.020258E-1,-4.584659E-1,-1.7129266E-1,-1.8589379E-1,-1.3970383E-1,-5.596823E-1,-1.4736456E-1,-1.4394133E-1,-1.8864556E-1,5.5632975E-2,-1.5638249E-1],"categories":[],"categories_nodes":[],"categories_segments":[],"categories_sizes":[],"default_left":[0,0,0,0,0,0,0,0,0,0,0,0,0,0,0,0,0,0,0,0,0,0,0,0,0,0,0,0,0,0,0,0,0,0,0,0,0,0,0,0,0,0,0,0,0,0,0,0,0,0,0,0,0,0,0,0,0,0,0,0,0,0,0,0,0,0,0,0,0,0,0,0,0,0,0,0,0,0,0,0,0,0,0,0,0,0,0],"id":9,"left_children":[1,3,5,7,9,11,13,15,17,-1,19,21,23,25,27,-1,29,31,33,35,37,39,41,43,-1,45,47,49,51,-1,53,-1,-1,55,57,59,-1,-1,61,63,65,67,-1,69,71,73,75,77,79,81,-1,83,85,-1,-1,-1,-1,-1,-1,-1,-1,-1,-1,-1,-1,-1,-1,-1,-1,-1,-1,-1,-1,-1,-1,-1,-1,-1,-1,-1,-1,-1,-1,-1,-1,-1,-1],"loss_changes":[6.84965E4,2.240143E4,1.8045E4,3.9243936E3,2.8598438E2,3.7435E3,4.2825266E4,8.903015E1,7.615967E2,0E0,3.3175195E2,2.688E3,5.847975E2,3.4469E4,3.9393164E2,0E0,6.147888E0,1.0848267E1,2.1888135E2,2.060791E1,4.0966797E0,1.9505E3,1.7021545E2,2.4478564E2,0E0,1.2894984E4,5.2335645E2,2.3670569E2,8.617578E1,0E0,2.473755E0,0E0,0E0,1.5614471E0,9.404541E1,2.0184082E1,0E0,0E0,4.262207E0,1.597229E1,1.631E3,5.3134766E1,0E0,4.1347717E1,1.0810791E1,1.06261875E4,2.7946484E2,1.689878E2,4.2003906E1,1.8448523E2,0E0,6.3990234E1,1.4944434E2,0E0,0E0,0E0,0E0,0E0,0E0,0E0,0E0,0E0,0E0,0E0,0E0,0E0,0E0,0E0,0E0,0E0,0E0,0E0,0E0,0E0,0E0,0E0,0E0,0E0,0E0,0E0,0E0,0E0,0E0,0E0,0E0,0E0,0E0],"parents":[2147483647,0,0,1,1,2,2,3,3,4,4,5,5,6,6,7,7,8,8,10,10,11,11,12,12,13,13,14,14,16,16,17,17,18,18,19,19,20,20,21,21,22,22,23,23,25,25,26,26,27,27,28,28,30,30,33,33,34,34,35,35,38,38,39,39,40,40,41,41,43,43,44,44,45,45,46,46,47,47,48,48,49,49,51,51,52,52],"right_children":[2,4,6,8,10,12,14,16,18,-1,20,22,24,26,28,-1,30,32,34,36,38,40,42,44,-1,46,48,50,52,-1,54,-1,-1,56,58,60,-1,-1,62,64,66,68,-1,70,72,74,76,78,80,82,-1,84,86,-1,-1,-1,-1,-1,-1,-1,-1,-1,-1,-1,-1,-1,-1,-1,-1,-1,-1,-1,-1,-1,-1,-1,-1,-1,-1,-1,-1,-1,-1,-1,-1,-1,-1],"split_conditions":[-4.9406993E-1,-1.4037764E0,-5.528264E-1,1.0744789E0,-7.5518125E-1,9.6706384E-1,2.2281127E-1,-7.5518125E-1,2.8542656E-1,-1.477635E-1,-4.7095296E-1,2.188197E0,2.1715832E0,1.297097E0,-4.7095296E-1,-1.4789823E-1,-1.6033585E0,-7.5518125E-1,-6.250432E-1,9.925471E-1,-1.7358774E0,-1.297215E0,2.2928925E0,9.925471E-1,1.03847764E-1,6.818889E-1,-4.5272017E-1,9.6706384E-1,1.217175E0,-1.3609736E-1,1.00591E0,-1.4716245E-1,-2.487061E-1,3.1630896E-2,-1.8589942E-1,-1.6033585E0,-1.5181558E-1,-1.2841143E-1,-1.297215E0,-1.6033585E0,-1.6033585E0,-1.6033585E0,-1.5566836E-1,2.188197E0,1.2624959E0,-2.0901999E-1,-2.0901999E-1,9.925471E-1,1.2624959E0,2.2928925E0,-1.6100441E-1,-1.297215E0,2.2982696E-1,-2.4388821E-1,-1.19580105E-1,-2.020288E-1,-3.5346445E-1,1.0505334E-1,-2.2956863E-1,-1.4105026E-1,-2.4213694E-1,-1.3416992E-1,-1.650035E-1,-1.2147913E-1,-2.7990195E-1,-1.6816735E-1,1.04787506E-1,-1.5164106E-1,-4.773471E-1,-5.5361694E-1,-1.20966844E-1,-1.8159229E-1,-1.4718476E-1,-2.2257428E-1,9.140832E-2,-1.6772734E-1,-4.020258E-1,-4.584659E-1,-1.7129266E-1,-1.8589379E-1,-1.3970383E-1,-5.596823E-1,-1.4736456E-1,-1.4394133E-1,-1.8864556E-1,5.5632975E-2,-1.5638249E-1],"split_indices":[3,13,13,10,3,11,7,3,0,0,13,2,21,0,13,0,10,3,4,11,10,23,2,11,0,24,13,11,11,0,23,0,0,7,12,10,0,0,23,10,10,10,0,2,11,3,3,11,11,2,0,23,7,0,0,0,0,0,0,0,0,0,0,0,0,0,0,0,0,0,0,0,0,0,0,0,0,0,0,0,0,0,0,0,0,0,0],"split_type":[0,0,0,0,0,0,0,0,0,0,0,0,0,0,0,0,0,0,0,0,0,0,0,0,0,0,0,0,0,0,0,0,0,0,0,0,0,0,0,0,0,0,0,0,0,0,0,0,0,0,0,0,0,0,0,0,0,0,0,0,0,0,0,0,0,0,0,0,0,0,0,0,0,0,0,0,0,0,0,0,0,0,0,0,0,0,0],"sum_hessian":[4.6210465E6,1.96832E4,4.6013635E6,6.241083E3,1.3442115E4,4.358383E6,2.4298017E5,5.863513E2,5.6547314E3,9.980128E3,3.4619875E3,4.3577865E6,5.9650684E2,2.3691645E5,6.063717E3,4.1918307E2,1.6716824E2,1.08906685E2,5.5458247E3,8.480547E2,2.6139329E3,4.357455E6,3.3162378E2,5.1589935E2,8.060748E1,2.3237219E5,4.5442715E3,1.0793424E2,5.955782E3,1.0338124E1,1.5683012E2,9.478779E1,1.4118895E1,1.4182663E1,5.531642E3,8.132766E2,3.4778065E1,5.3077106E1,2.5608557E3,1.3752943E2,4.3573175E6,3.0784645E1,3.0083914E2,2.2734236E1,4.9316513E2,2.3178523E5,5.869497E2,1.2172185E2,4.4225493E3,7.159099E1,3.6343254E1,5.490977E3,4.648055E2,1.522993E2,4.5308127E0,9.041969E0,5.1406937E0,5.5241323E3,7.5097027E0,2.5184988E1,7.880916E2,7.438401E1,2.486472E3,8.97155E0,1.2855788E2,2.1803348E2,4.3570995E6,7.8916507E0,2.2892996E1,1.952678E1,3.2074566E0,3.1085284E2,1.823123E2,1.0820131E3,2.3070322E5,5.853904E1,5.2841064E2,9.343313E1,2.8288717E1,4.1995244E3,2.2302524E2,5.7173428E1,1.4417561E1,3.6019104E2,5.1307856E3,3.5542664E1,4.2926285E2],"tree_param":{"num_deleted":"0","num_feature":"30","num_nodes":"87","size_leaf_vector":"1"}},{"base_weights":[1.0179378E0,-8.0240995E-1,1.0259842E0,7.200043E-1,-1.4824563E0,1.0415989E0,7.504775E-1,-1.6159153E0,9.77384E-1,-1.4120027E-1,-1.6792365E0,1.0419482E0,-1.3560181E0,8.1714916E-1,-1.7163129E0,-1.4129683E-1,-2.0761383E0,-1.53409E0,1.0295632E0,-2.0724425E0,-1.5379263E0,1.0421689E0,-1.6624836E0,-1.7054665E0,1.03222445E-1,8.7027794E-1,-1.742405E0,-2.8699968E0,-1.6848859E0,-1.2981561E-1,-2.115381E0,-1.40492E-1,-2.1886848E-1,-2.3749255E-1,1.0402415E0,-2.0961263E0,-1.4438166E-1,-1.5600798E0,-1.4589149E-1,-2.3052883E0,1.0422919E0,-3.0461733E0,-1.4764357E-1,-3.5651906E0,-1.5857764E0,-3.8187537E0,8.813095E-1,-3.2532601E0,-1.703477E0,-3.3422472E0,-1.492364E-1,-1.7136447E0,-1.3311787E0,-2.1327507E-1,-1.0225888E-1,1.0453331E-1,-2.1062076E-1,-1.348583E-1,-2.1164818E-1,-1.570633E-1,-1.33637E-1,-1.171427E-1,-2.3663373E-1,1.0423779E-1,-3.4409937E-1,-1.4245144E-1,-3.4141836E-1,-3.8031644E-1,-1.1494537E-1,-1.6832285E-1,-1.4060763E-1,-4.7027975E-1,-2.217114E-1,8.898054E-2,-4.6002418E-1,-3.677321E-1,-1.5811402E-1,-1.720997E-1,-1.3240887E-1,-3.653906E-1,-1.3930926E-1,-1.7306142E-1,-1.2721124E-1,5.2476253E-2,-1.4891678E-1],"categories":[],"categories_nodes":[],"categories_segments":[],"categories_sizes":[],"default_left":[0,0,0,0,0,0,0,0,0,0,0,0,0,0,0,0,0,0,0,0,0,0,0,0,0,0,0,0,0,0,0,0,0,0,0,0,0,0,0,0,0,0,0,0,0,0,0,0,0,0,0,0,0,0,0,0,0,0,0,0,0,0,0,0,0,0,0,0,0,0,0,0,0,0,0,0,0,0,0,0,0,0,0,0,0],"id":10,"left_children":[1,3,5,7,9,11,13,15,17,-1,19,21,23,25,27,-1,29,31,33,35,37,39,41,43,-1,45,47,49,51,-1,53,-1,-1,-1,55,57,-1,59,-1,61,63,65,-1,67,69,71,73,75,77,79,-1,81,83,-1,-1,-1,-1,-1,-1,-1,-1,-1,-1,-1,-1,-1,-1,-1,-1,-1,-1,-1,-1,-1,-1,-1,-1,-1,-1,-1,-1,-1,-1,-1,-1],"loss_changes":[6.16125E4,1.9166725E4,1.8015E4,3.438472E3,1.7503711E2,3.3205E3,3.6944742E4,5.009326E1,6.764448E2,0E0,1.8397266E2,2.3665E3,4.8388574E2,2.9743875E4,2.095039E2,0E0,2.493164E0,5.821686E0,1.858999E2,1.0188477E1,2.067871E0,1.6345E3,7.88327E1,1.066062E2,0E0,1.1086953E4,2.5606055E2,9.607837E1,5.628418E1,0E0,8.899536E-1,0E0,0E0,0E0,8.279053E1,1.012793E1,0E0,2.442871E0,0E0,7.331787E0,1.529E3,1.7470947E1,0E0,1.269931E1,5.9626465E0,7.019238E2,9.959375E3,7.2628296E1,2.6558594E1,6.469702E1,0E0,3.766504E1,1.2903387E2,0E0,0E0,0E0,0E0,0E0,0E0,0E0,0E0,0E0,0E0,0E0,0E0,0E0,0E0,0E0,0E0,0E0,0E0,0E0,0E0,0E0,0E0,0E0,0E0,0E0,0E0,0E0,0E0,0E0,0E0,0E0,0E0],"parents":[2147483647,0,0,1,1,2,2,3,3,4,4,5,5,6,6,7,7,8,8,10,10,11,11,12,12,13,13,14,14,16,16,17,17,18,18,19,19,20,20,21,21,22,22,23,23,25,25,26,26,27,27,28,28,30,30,34,34,35,35,37,37,39,39,40,40,41,41,43,43,44,44,45,45,46,46,47,47,48,48,49,49,51,51,52,52],"right_children":[2,4,6,8,10,12,14,16,18,-1,20,22,24,26,28,-1,30,32,34,36,38,40,42,44,-1,46,48,50,52,-1,54,-1,-1,-1,56,58,-1,60,-1,62,64,66,-1,68,70,72,74,76,78,80,-1,82,84,-1,-1,-1,-1,-1,-1,-1,-1,-1,-1,-1,-1,-1,-1,-1,-1,-1,-1,-1,-1,-1,-1,-1,-1,-1,-1,-1,-1,-1,-1,-1,-1],"split_conditions":[-4.9406993E-1,-1.4037764E0,-5.528264E-1,1.0744789E0,-7.5518125E-1,9.6706384E-1,2.2281127E-1,-7.5518125E-1,2.8542656E-1,-1.4120027E-1,-4.5272017E-1,2.188197E0,2.1715832E0,1.297097E0,-4.5272017E-1,-1.4129683E-1,-1.6033585E0,-7.5518125E-1,-6.250432E-1,9.925471E-1,1.297097E0,-1.297215E0,2.2928925E0,9.925471E-1,1.03222445E-1,-1.6692325E0,-4.7095296E-1,9.925471E-1,1.217175E0,-1.2981561E-1,2.2928925E0,-1.40492E-1,-2.1886848E-1,-2.3749255E-1,-1.8589942E-1,-1.6033585E0,-1.4438166E-1,1.528691E0,-1.4589149E-1,-1.6033585E0,1.00591E0,-1.6033585E0,-1.4764357E-1,2.188197E0,1.2624959E0,1.528691E0,1.0833813E0,9.925471E-1,1.528691E0,2.2928925E0,-1.492364E-1,1.528691E0,2.2982696E-1,-2.1327507E-1,-1.0225888E-1,1.0453331E-1,-2.1062076E-1,-1.348583E-1,-2.1164818E-1,-1.570633E-1,-1.33637E-1,-1.171427E-1,-2.3663373E-1,1.0423779E-1,-3.4409937E-1,-1.4245144E-1,-3.4141836E-1,-3.8031644E-1,-1.1494537E-1,-1.6832285E-1,-1.4060763E-1,-4.7027975E-1,-2.217114E-1,8.898054E-2,-4.6002418E-1,-3.677321E-1,-1.5811402E-1,-1.720997E-1,-1.3240887E-1,-3.653906E-1,-1.3930926E-1,-1.7306142E-1,-1.2721124E-1,5.2476253E-2,-1.4891678E-1],"split_indices":[3,13,13,10,3,11,7,3,0,0,13,2,21,0,13,0,10,3,4,11,0,23,2,11,0,29,13,11,11,0,2,0,0,0,12,10,0,13,0,10,23,10,0,2,11,13,17,11,13,2,0,13,7,0,0,0,0,0,0,0,0,0,0,0,0,0,0,0,0,0,0,0,0,0,0,0,0,0,0,0,0,0,0,0,0],"split_type":[0,0,0,0,0,0,0,0,0,0,0,0,0,0,0,0,0,0,0,0,0,0,0,0,0,0,0,0,0,0,0,0,0,0,0,0,0,0,0,0,0,0,0,0,0,0,0,0,0,0,0,0,0,0,0,0,0,0,0,0,0,0,0,0,0,0,0,0,0,0,0,0,0,0,0,0,0,0,0,0,0,0,0,0,0],"sum_hessian":[4.2063925E6,1.8510955E4,4.1878818E6,5.715548E3,1.2795407E4,3.9632555E6,2.2462619E5,5.667326E2,5.148815E3,9.42804E3,3.3673672E3,3.9626788E6,5.7669495E2,2.1871547E5,5.9107085E3,3.9612247E2,1.706101E2,1.042181E2,5.044597E3,8.8661896E2,2.4807483E3,3.962356E6,3.2269702E2,5.0333298E2,7.336194E1,2.1426856E5,4.4469214E3,1.5434593E2,5.7563623E3,9.829143E0,1.6078098E2,8.9669945E1,1.4548159E1,1.5080864E1,5.029516E3,8.521783E2,3.444068E1,1.9228651E3,5.578832E2,1.4496558E2,3.962211E6,3.6424557E1,2.8627246E2,2.8694569E1,4.7463843E2,5.0210062E2,2.1376645E5,1.0962566E2,4.337296E3,1.13881454E2,4.0464474E1,5.3199673E3,4.36395E2,1.573286E2,3.4523702E0,5.0220576E3,7.458732E0,2.4372112E1,8.278062E2,1.8304922E3,9.237287E1,8.437859E0,1.3652773E2,3.962136E6,7.515052E1,7.6380234E0,2.8786531E1,2.5598534E1,3.096035E0,3.0232166E2,1.7231674E2,3.222788E2,1.7982181E2,2.1343648E5,3.2996872E2,8.6491615E1,2.3134045E1,4.142463E3,1.9483301E2,9.742857E1,1.6452879E1,5.120262E3,1.9970537E2,3.4052273E1,4.023427E2],"tree_param":{"num_deleted":"0","num_feature":"30","num_nodes":"85","size_leaf_vector":"1"}},{"base_weights":[1.0119529E0,-7.735921E-1,1.0200685E0,7.125319E-1,-1.4160938E0,1.0366218E0,7.332518E-1,-1.524323E0,9.7162664E-1,-1.3577251E-1,-1.5752696E0,1.0370538E0,-9.1416276E-1,7.99146E-1,-1.6059357E0,-1.3583456E-1,-1.8775573E0,-1.4602711E0,1.0244143E0,-1.8750603E0,-1.4622116E0,1.0372727E0,-1.561188E0,-2.0213609E0,1.03804864E-1,8.517911E-1,-1.6260303E0,-2.5737548E0,-1.5833995E0,-1.2442851E-1,-1.9062823E0,-1.3495404E-1,-1.9709635E-1,-2.1065235E-1,1.0354267E0,-1.892444E0,-1.3790695E-1,-1.2072513E-1,-1.4666281E0,-1.6271253E0,1.0374366E0,-2.5299644E0,-1.4101008E-1,-1.0322344E1,-1.5962124E0,8.647765E-1,-3.1613512E0,-2.544953E0,-1.5918413E0,-2.953796E0,-1.4395641E-1,-1.60802E0,-1.2753767E0,-1.915868E-1,-8.253058E-2,1.040653E-1,-1.9493495E-1,-1.2967148E-1,-1.9073786E-1,-1.4700483E-1,-1.1372751E-1,-1.5419503E-1,-1.8587892E-1,1.03748456E-1,-7.994355E-1,-1.3419534E-1,-2.7390194E-1,-1.3981391E0,-1.3496149E-1,-2.8420287E-1,-1.5008622E-1,8.6976886E-2,-9.5375454E-1,-1.6090235E-1,-3.309793E-1,-2.7499112E-1,-1.5047485E-1,-1.6062179E-1,-1.288545E-1,-3.1969774E-1,-1.3317291E-1,-1.3200724E-1,-1.6263217E-1,4.938827E-2,-1.42717E-1],"categories":[],"categories_nodes":[],"categories_segments":[],"categories_sizes":[],"default_left":[0,0,0,0,0,0,0,0,0,0,0,0,0,0,0,0,0,0,0,0,0,0,0,0,0,0,0,0,0,0,0,0,0,0,0,0,0,0,0,0,0,0,0,0,0,0,0,0,0,0,0,0,0,0,0,0,0,0,0,0,0,0,0,0,0,0,0,0,0,0,0,0,0,0,0,0,0,0,0,0,0,0,0,0,0],"id":11,"left_children":[1,3,5,7,9,11,13,15,17,-1,19,21,23,25,27,-1,29,31,33,35,37,39,41,43,-1,45,47,49,51,-1,53,-1,-1,-1,55,57,-1,-1,59,61,63,65,-1,67,69,71,73,75,77,79,-1,81,83,-1,-1,-1,-1,-1,-1,-1,-1,-1,-1,-1,-1,-1,-1,-1,-1,-1,-1,-1,-1,-1,-1,-1,-1,-1,-1,-1,-1,-1,-1,-1,-1],"loss_changes":[5.5468E4,1.6538398E4,1.809E4,3.031632E3,1.1021094E2,3.03725E3,3.2048914E4,2.9292603E1,6.0309033E2,0E0,1.0701172E2,2.05025E3,1.7274529E3,2.581929E4,1.20177734E2,0E0,7.3876953E-1,2.993515E0,1.6034766E2,5.005615E0,8.828125E-1,1.57375E3,4.0907104E1,1.7822898E3,0E0,1.0316953E4,1.309414E2,5.0935425E1,4.01875E1,0E0,9.442139E-2,0E0,0E0,0E0,7.334668E1,5.0947266E0,0E0,0E0,9.3115234E-1,1.5108643E0,1.56625E3,6.192993E0,0E0,7.904219E2,5.347046E1,1.0253703E4,1.418208E2,2.836615E1,1.6003906E1,3.319586E1,0E0,2.5011719E1,1.127146E2,0E0,0E0,0E0,0E0,0E0,0E0,0E0,0E0,0E0,0E0,0E0,0E0,0E0,0E0,0E0,0E0,0E0,0E0,0E0,0E0,0E0,0E0,0E0,0E0,0E0,0E0,0E0,0E0,0E0,0E0,0E0,0E0],"parents":[2147483647,0,0,1,1,2,2,3,3,4,4,5,5,6,6,7,7,8,8,10,10,11,11,12,12,13,13,14,14,16,16,17,17,18,18,19,19,20,20,21,21,22,22,23,23,25,25,26,26,27,27,28,28,30,30,34,34,35,35,38,38,39,39,40,40,41,41,43,43,44,44,45,45,46,46,47,47,48,48,49,49,51,51,52,52],"right_children":[2,4,6,8,10,12,14,16,18,-1,20,22,24,26,28,-1,30,32,34,36,38,40,42,44,-1,46,48,50,52,-1,54,-1,-1,-1,56,58,-1,-1,60,62,64,66,-1,68,70,72,74,76,78,80,-1,82,84,-1,-1,-1,-1,-1,-1,-1,-1,-1,-1,-1,-1,-1,-1,-1,-1,-1,-1,-1,-1,-1,-1,-1,-1,-1,-1,-1,-1,-1,-1,-1,-1],"split_conditions":[-4.9406993E-1,-1.4037764E0,-5.528264E-1,1.0744789E0,-7.5518125E-1,9.212063E-1,2.2281127E-1,-7.5518125E-1,2.8542656E-1,-1.3577251E-1,-4.5272017E-1,2.188197E0,2.1715832E0,1.297097E0,-4.7095296E-1,-1.3583456E-1,-1.6033585E0,-7.5518125E-1,-6.250432E-1,9.925471E-1,-1.7358774E0,-1.6033585E0,2.2928925E0,9.6706384E-1,1.03804864E-1,6.818889E-1,-4.5272017E-1,9.6706384E-1,1.217175E0,-1.2442851E-1,9.925471E-1,-1.3495404E-1,-1.9709635E-1,-2.1065235E-1,-1.8589942E-1,-1.6033585E0,-1.3790695E-1,-1.2072513E-1,1.00591E0,-1.7358774E0,1.6041956E0,-1.6033585E0,-1.4101008E-1,2.188197E0,9.925471E-1,1.8112351E0,-2.0901999E-1,9.925471E-1,1.2624959E0,2.2928925E0,-1.4395641E-1,-1.297215E0,2.2982696E-1,-1.915868E-1,-8.253058E-2,1.040653E-1,-1.9493495E-1,-1.2967148E-1,-1.9073786E-1,-1.4700483E-1,-1.1372751E-1,-1.5419503E-1,-1.8587892E-1,1.03748456E-1,-7.994355E-1,-1.3419534E-1,-2.7390194E-1,-1.3981391E0,-1.3496149E-1,-2.8420287E-1,-1.5008622E-1,8.6976886E-2,-9.5375454E-1,-1.6090235E-1,-3.309793E-1,-2.7499112E-1,-1.5047485E-1,-1.6062179E-1,-1.288545E-1,-3.1969774E-1,-1.3317291E-1,-1.3200724E-1,-1.6263217E-1,4.938827E-2,-1.42717E-1],"split_indices":[3,13,13,10,3,11,7,3,0,0,13,2,21,0,13,0,10,3,4,11,10,10,2,11,0,24,13,11,11,0,11,0,0,0,12,10,0,0,23,10,29,10,0,2,11,18,3,11,11,2,0,23,7,0,0,0,0,0,0,0,0,0,0,0,0,0,0,0,0,0,0,0,0,0,0,0,0,0,0,0,0,0,0,0,0],"split_type":[0,0,0,0,0,0,0,0,0,0,0,0,0,0,0,0,0,0,0,0,0,0,0,0,0,0,0,0,0,0,0,0,0,0,0,0,0,0,0,0,0,0,0,0,0,0,0,0,0,0,0,0,0,0,0,0,0,0,0,0,0,0,0,0,0,0,0,0,0,0,0,0,0,0,0,0,0,0,0,0,0,0,0,0,0],"sum_hessian":[3.8276895E6,1.7318592E4,3.8103708E6,5.2273887E3,1.2091204E4,3.6024578E6,2.0791297E5,5.4212775E2,4.6852607E3,8.854018E3,3.2371855E3,3.6016605E6,7.972266E2,2.0221722E5,5.695738E3,3.721213E2,1.7000644E2,9.897285E1,4.586288E3,8.822301E2,2.3549556E3,3.6013578E6,3.028519E2,5.086883E2,2.8853836E2,1.9792145E5,4.2957754E3,1.270339E2,5.5687036E3,9.299814E0,1.6070663E2,8.433048E1,1.4642369E1,1.5407861E1,4.5708804E3,8.496362E2,3.2593876E1,4.4769924E1,2.3101855E3,2.20826E2,3.601137E6,3.8735226E1,2.641167E2,2.3649754E1,4.8503854E2,1.9728388E5,6.375725E2,1.514592E2,4.144316E3,9.3949326E1,3.308457E1,5.152631E3,4.1607257E2,1.585285E2,2.1781273E0,4.563541E3,7.339329E0,2.292675E1,8.267095E2,2.2830134E3,2.7172274E1,1.6705975E2,5.3766266E1,3.6011188E6,1.8214115E1,6.906471E0,3.1828754E1,1.6402617E1,7.2471375E0,3.2435802E1,4.5260272E2,1.9719016E5,9.372047E1,5.668014E1,5.808924E2,1.25155396E2,2.6303804E1,3.95266E3,1.916561E2,8.085636E1,1.3092962E1,3.1229712E2,4.840334E3,3.2698196E1,3.833744E2],"tree_param":{"num_deleted":"0","num_feature":"30","num_nodes":"85","size_leaf_vector":"1"}},{"base_weights":[1.0063342E0,-7.044203E-1,1.014734E0,7.096426E-1,-1.3772038E0,1.0324945E0,7.23538E-1,-1.5309861E0,9.683199E-1,-1.3607309E0,-2.1947918E0,1.0332912E0,8.11322E-2,7.8701323E-1,-1.5458196E0,-1.449184E0,-6.260412E0,-1.4735335E0,1.0162152E0,-1.3122833E-1,-1.4904848E0,-6.7755866E0,-1.5577866E0,1.0334682E0,-1.4686908E0,7.996085E-1,-3.305478E0,8.383209E-1,-1.5851419E0,-4.971759E0,-1.5195042E0,-1.3125563E-1,-1.7239194E-1,-7.0826235E0,-7.845557E-2,-1.4095465E0,-3.1492105E-1,1.0283942E0,-1.723235E0,-1.7265581E0,-1.4000145E0,-7.7296066E0,-2.5233457E0,-1.6523621E0,-1.3091826E-1,1.0335213E0,-7.1499095E0,-2.1645455E0,-1.3532574E-1,-4.146827E0,1.0079643E0,-8.5554905E0,-1.5117824E0,-3.8381498E0,8.4978896E-1,-1.1198371E1,-1.535416E0,-6.6518784E0,-1.4088367E-1,-2.1843839E0,-1.4983764E0,-2.2087514E-1,-7.5486374E-1,-1.2987475E-1,-1.675324E-1,-1.8116291E-1,1.0328504E-1,-1.2340867E-1,-2.4389334E-1,-1.73988E-1,-1.3248916E-1,-1.4027528E-1,-1.1154836E-1,-7.9612575E-2,-8.228602E-1,-3.2186174E-1,-9.253262E-2,-1.73873E-1,-1.23347595E-1,-2.1802633E-1,1.03364184E-1,-1.1154883E-1,-8.5006636E-1,-1.2433525E-1,-2.3221652E-1,-1.3045243E0,-1.787735E-1,-6.1412436E-1,1.0314407E-1,-1.0795339E0,-1.7181477E-1,-2.392801E-1,-1.431972E-1,-2.0308784E-1,-4.226458E-1,8.568411E-2,-6.3336986E-1,-2.0369966E0,-5.5607915E-1,-2.3052303E-1,-1.5106793E-1,-9.6438473E-1,-1.563755E-1,-2.403698E-1,-1.3632314E-1,-1.5198591E-1,-1.2241091E-1],"categories":[],"categories_nodes":[],"categories_segments":[],"categories_sizes":[],"default_left":[0,0,0,0,0,0,0,0,0,0,0,0,0,0,0,0,0,0,0,0,0,0,0,0,0,0,0,0,0,0,0,0,0,0,0,0,0,0,0,0,0,0,0,0,0,0,0,0,0,0,0,0,0,0,0,0,0,0,0,0,0,0,0,0,0,0,0,0,0,0,0,0,0,0,0,0,0,0,0,0,0,0,0,0,0,0,0,0,0,0,0,0,0,0,0,0,0,0,0,0,0,0,0,0,0,0,0],"id":12,"left_children":[1,3,5,7,9,11,13,15,17,19,21,23,25,27,29,31,33,35,37,-1,39,41,43,45,47,49,51,53,55,57,59,-1,-1,61,-1,63,-1,65,67,69,71,73,75,77,-1,79,81,83,-1,85,87,89,91,93,95,97,99,101,-1,103,105,-1,-1,-1,-1,-1,-1,-1,-1,-1,-1,-1,-1,-1,-1,-1,-1,-1,-1,-1,-1,-1,-1,-1,-1,-1,-1,-1,-1,-1,-1,-1,-1,-1,-1,-1,-1,-1,-1,-1,-1,-1,-1,-1,-1,-1,-1],"loss_changes":[5.00375E4,1.6187191E4,1.791975E4,3.1810386E3,1.5228906E2,2.475E3,2.8693977E4,2.1073682E2,5.767456E2,6.9103516E1,6.4911487E2,1.4465E3,6.6545005E3,2.3584992E4,4.810996E2,1.8750488E1,3.6579987E1,5.750061E0,1.6273926E2,0E0,6.306201E1,9.124719E1,2.533722E0,1.424E3,1.56405945E1,2.3293838E3,4.494623E3,1.0175203E4,1.943998E3,2.3531793E2,7.230664E1,0E0,0E0,1.5256958E0,0E0,5.729065E-1,0E0,6.2666504E1,4.596695E0,2.2167969E0,1.6601562E-1,6.8918335E1,4.2296066E0,2.9528503E0,0E0,1.266E3,1.6397632E2,1.646637E0,0E0,1.8951066E3,3.698269E2,1.8449141E3,2.17453E1,3.171582E2,9.590297E3,9.701489E2,7.426465E1,4.036986E2,0E0,2.617157E1,2.8882812E1,0E0,0E0,0E0,0E0,0E0,0E0,0E0,0E0,0E0,0E0,0E0,0E0,0E0,0E0,0E0,0E0,0E0,0E0,0E0,0E0,0E0,0E0,0E0,0E0,0E0,0E0,0E0,0E0,0E0,0E0,0E0,0E0,0E0,0E0,0E0,0E0,0E0,0E0,0E0,0E0,0E0,0E0,0E0,0E0,0E0,0E0],"parents":[2147483647,0,0,1,1,2,2,3,3,4,4,5,5,6,6,7,7,8,8,9,9,10,10,11,11,12,12,13,13,14,14,15,15,16,16,17,17,18,18,20,20,21,21,22,22,23,23,24,24,25,25,26,26,27,27,28,28,29,29,30,30,33,33,35,35,37,37,38,38,39,39,40,40,41,41,42,42,43,43,45,45,46,46,47,47,49,49,50,50,51,51,52,52,53,53,54,54,55,55,56,56,57,57,59,59,60,60],"right_children":[2,4,6,8,10,12,14,16,18,20,22,24,26,28,30,32,34,36,38,-1,40,42,44,46,48,50,52,54,56,58,60,-1,-1,62,-1,64,-1,66,68,70,72,74,76,78,-1,80,82,84,-1,86,88,90,92,94,96,98,100,102,-1,104,106,-1,-1,-1,-1,-1,-1,-1,-1,-1,-1,-1,-1,-1,-1,-1,-1,-1,-1,-1,-1,-1,-1,-1,-1,-1,-1,-1,-1,-1,-1,-1,-1,-1,-1,-1,-1,-1,-1,-1,-1,-1,-1,-1,-1,-1,-1],"split_conditions":[-4.6774164E-1,-1.3526462E0,-5.968684E-1,1.0513395E0,-4.9406993E-1,7.368134E-1,2.2281127E-1,-4.9406993E-1,3.1630896E-2,-7.5518125E-1,-5.528264E-1,2.188197E0,-3.795488E-2,1.297097E0,-5.528264E-1,-7.5518125E-1,2.188197E0,-5.1927054E-1,-6.913919E-2,-1.3122833E-1,-4.5272017E-1,7.9478127E-1,2.2281127E-1,3.8440037E0,2.2928925E0,-2.0529066E-1,9.6706384E-1,-1.0473038E0,-5.528264E-1,2.188197E0,-4.5272017E-1,-1.3125563E-1,-1.7239194E-1,-9.241179E-1,-7.845557E-2,-7.5518125E-1,-3.1492105E-1,-2.132186E-1,-7.5518125E-1,9.925471E-1,1.00591E0,-1.6033585E0,9.6706384E-1,1.297097E0,-1.3091826E-1,-1.297215E0,-1.3542854E0,-1.6033585E0,-1.3532574E-1,9.212063E-1,1.0799637E-1,2.1016295E0,9.925471E-1,-2.0901999E-1,1.304773E0,-2.2562034E-1,-4.7095296E-1,8.985884E-1,-1.4088367E-1,9.925471E-1,1.217175E0,-2.2087514E-1,-7.5486374E-1,-1.2987475E-1,-1.675324E-1,-1.8116291E-1,1.0328504E-1,-1.2340867E-1,-2.4389334E-1,-1.73988E-1,-1.3248916E-1,-1.4027528E-1,-1.1154836E-1,-7.9612575E-2,-8.228602E-1,-3.2186174E-1,-9.253262E-2,-1.73873E-1,-1.23347595E-1,-2.1802633E-1,1.03364184E-1,-1.1154883E-1,-8.5006636E-1,-1.2433525E-1,-2.3221652E-1,-1.3045243E0,-1.787735E-1,-6.1412436E-1,1.0314407E-1,-1.0795339E0,-1.7181477E-1,-2.392801E-1,-1.431972E-1,-2.0308784E-1,-4.226458E-1,8.568411E-2,-6.3336986E-1,-2.0369966E0,-5.5607915E-1,-2.3052303E-1,-1.5106793E-1,-9.6438473E-1,-1.563755E-1,-2.403698E-1,-1.3632314E-1,-1.5198591E-1,-1.2241091E-1],"split_indices":[3,13,13,10,3,11,7,3,7,3,13,2,12,0,13,3,2,3,11,0,13,11,7,9,2,14,11,21,13,2,13,0,0,23,0,3,0,24,3,11,23,10,11,0,0,23,23,10,0,11,25,2,11,3,29,12,13,11,0,11,11,0,0,0,0,0,0,0,0,0,0,0,0,0,0,0,0,0,0,0,0,0,0,0,0,0,0,0,0,0,0,0,0,0,0,0,0,0,0,0,0,0,0,0,0,0,0],"split_type":[0,0,0,0,0,0,0,0,0,0,0,0,0,0,0,0,0,0,0,0,0,0,0,0,0,0,0,0,0,0,0,0,0,0,0,0,0,0,0,0,0,0,0,0,0,0,0,0,0,0,0,0,0,0,0,0,0,0,0,0,0,0,0,0,0,0,0,0,0,0,0,0,0,0,0,0,0,0,0,0,0,0,0,0,0,0,0,0,0,0,0,0,0,0,0,0,0,0,0,0,0,0,0,0,0,0,0],"sum_hessian":[3.4819978E6,1.7012799E4,3.464985E6,5.4847793E3,1.152802E4,3.265797E6,1.9918784E5,5.6716364E2,4.9176157E3,1.1302949E4,2.2506996E2,3.2630642E6,2.7327908E3,1.9376867E5,5.419169E3,5.5880475E2,8.358898E0,9.402763E1,4.8235884E3,8.238117E3,3.0648318E3,2.6300772E1,1.987692E2,3.262834E6,2.3018344E2,2.2551252E3,4.7766556E2,1.8966698E5,4.1016855E3,3.9876038E1,5.379293E3,3.770652E2,1.8173956E2,7.012525E0,1.3463728E0,9.2342636E1,1.6849946E0,4.8028604E3,2.0727882E1,8.441153E2,2.2207166E3,2.0813372E1,5.4873996E0,1.399007E2,5.88685E1,3.2628138E6,2.028062E1,3.0225685E1,1.9995775E2,9.038773E1,2.1647375E3,1.20678604E2,3.5698694E2,4.6316583E2,1.8920381E5,1.995367E1,4.081732E3,2.6508709E1,1.3367331E1,1.625201E2,5.216773E3,1.112889E0,5.8996363E0,6.932755E1,2.3015085E1,6.888819E0,4.7959717E3,1.3930981E1,6.796902E0,8.1379297E2,3.0322346E1,2.1956558E3,2.5060715E1,1.5716019E0,1.924177E1,3.1170805E0,2.3703191E0,1.1337389E2,2.6526806E1,1.2167223E2,3.2626922E6,4.043287E0,1.6237333E1,5.714738E0,2.4510946E1,1.7992157E1,7.239558E1,6.23232E0,2.1585051E3,9.0464424E1,3.0214176E1,2.7245552E1,3.297414E2,8.301696E1,3.8014886E2,1.8901914E5,1.8468137E2,6.601181E0,1.33524885E1,1.2420628E2,3.9575256E3,1.6129004E1,1.0379704E1,1.267424E2,3.5777695E1,4.833624E3,3.8314886E2],"tree_param":{"num_deleted":"0","num_feature":"30","num_nodes":"107","size_leaf_vector":"1"}},{"base_weights":[1.0010514E0,-4.1982615E-1,1.0111443E0,7.382288E-1,-1.446537E0,1.0286424E0,7.179021E-1,-2.0841572E0,9.7333753E-1,-1.3123187E0,-2.3311138E0,1.028989E0,-1.1528453E0,7.775371E-1,-1.4437746E0,-1.4681603E0,-1.26455555E1,-1.9008476E0,1.0108768E0,-1.2738477E-1,-1.4154059E0,-7.186462E0,-1.7983904E0,1.0292016E0,-1.4193438E0,-1.442019E0,1.0155153E-1,8.262858E-1,-1.4601794E0,-1.9599216E0,-1.4270912E0,-1.397493E0,-4.1920567E0,-1.3804752E-1,-1.5457694E1,-1.4423723E0,-9.252411E0,1.0241297E0,-2.1737168E0,-1.6121656E0,-1.3483483E-1,-9.72665E0,4.0037888E-1,-3.2142174E0,-1.7305442E0,-1.5527868E0,1.0293666E0,-2.003469E0,-1.3100451E-1,-2.1573358E0,-1.3752918E0,8.3841175E-1,-4.029802E0,-1.9944714E0,-1.437446E0,-2.1297696E0,-1.3095719E-1,-8.74119E-1,-1.4417006E0,-1.2737136E-1,-1.6135405E-1,-4.4158098E-1,-7.656289E-2,-2.0984626E0,-6.303856E-1,-1.2719467E-1,-1.7479979E-1,-1.385014E0,-1.2919769E-1,1.0287328E-1,-1.5991502E-1,-1.4706056E-1,-1.1406653E0,-1.1933684E-1,-1.6212332E-1,-1.1500248E0,-3.1299487E-1,-8.0638736E-1,9.43706E-2,-3.7594575E-1,-1.9790092E-1,-1.8585443E-1,-1.4102168E-1,-1.5764663E-1,-1.127915E-1,-7.933931E-1,1.02941476E-1,-1.224342E-1,-2.1162207E-1,-2.2175036E-1,-8.766745E-2,-1.4323483E-1,-1.2584738E-1,8.515638E-2,-2.88509E-1,-4.5573258E-1,-8.3265625E-2,-2.1019669E-1,-1.3342303E-1,-1.4472917E-1,-1.2039884E-1,-2.2318545E-1,-1.1924374E-1,-1.5045868E-1,4.64687E-2,-1.4521399E-1,-1.1982199E-1],"categories":[],"categories_nodes":[],"categories_segments":[],"categories_sizes":[],"default_left":[0,0,0,0,0,0,0,0,0,0,0,0,0,0,0,0,0,0,0,0,0,0,0,0,0,0,0,0,0,0,0,0,0,0,0,0,0,0,0,0,0,0,0,0,0,0,0,0,0,0,0,0,0,0,0,0,0,0,0,0,0,0,0,0,0,0,0,0,0,0,0,0,0,0,0,0,0,0,0,0,0,0,0,0,0,0,0,0,0,0,0,0,0,0,0,0,0,0,0,0,0,0,0,0,0,0,0],"id":13,"left_children":[1,3,5,7,9,11,13,15,17,19,21,23,25,27,29,31,33,35,37,-1,39,41,43,45,47,49,-1,51,53,55,57,59,61,-1,63,65,67,69,71,73,-1,75,77,79,81,83,85,87,-1,89,91,93,95,97,99,101,-1,103,105,-1,-1,-1,-1,-1,-1,-1,-1,-1,-1,-1,-1,-1,-1,-1,-1,-1,-1,-1,-1,-1,-1,-1,-1,-1,-1,-1,-1,-1,-1,-1,-1,-1,-1,-1,-1,-1,-1,-1,-1,-1,-1,-1,-1,-1,-1,-1,-1],"loss_changes":[4.541225E4,2.6557723E4,1.6133E4,6.967522E3,1.4025977E3,2.24425E3,2.2826602E4,5.2348403E3,1.0474805E3,3.897461E1,4.0181514E3,1.54675E3,2.972329E2,1.8797781E4,3.813965E1,1.4122864E2,1.3842764E3,4.089186E2,4.0597266E2,0E0,3.457617E1,2.9670356E3,1.2946875E2,1.26575E3,1.385614E1,1.6917969E1,0E0,9.933547E3,4.1759766E1,1.3357056E1,3.597168E1,1.790271E1,1.1050079E1,0E0,1.6591416E3,3.980774E0,2.4451959E2,1.1668848E2,2.4267612E2,7.344971E-1,0E0,1.3121465E3,1.893885E2,3.5066956E1,5.246924E1,1.3363647E-1,1.28725E3,8.174591E-1,0E0,6.594696E-1,7.557373E-1,8.240375E3,7.04938E2,7.654602E0,6.366699E0,8.276245E0,0E0,1.02974075E2,9.669922E0,0E0,0E0,0E0,0E0,0E0,0E0,0E0,0E0,0E0,0E0,0E0,0E0,0E0,0E0,0E0,0E0,0E0,0E0,0E0,0E0,0E0,0E0,0E0,0E0,0E0,0E0,0E0,0E0,0E0,0E0,0E0,0E0,0E0,0E0,0E0,0E0,0E0,0E0,0E0,0E0,0E0,0E0,0E0,0E0,0E0,0E0,0E0,0E0],"parents":[2147483647,0,0,1,1,2,2,3,3,4,4,5,5,6,6,7,7,8,8,9,9,10,10,11,11,12,12,13,13,14,14,15,15,16,16,17,17,18,18,20,20,21,21,22,22,23,23,24,24,25,25,27,27,28,28,29,29,30,30,31,31,32,32,34,34,35,35,36,36,37,37,38,38,39,39,41,41,42,42,43,43,44,44,45,45,46,46,47,47,49,49,50,50,51,51,52,52,53,53,54,54,55,55,57,57,58,58],"right_children":[2,4,6,8,10,12,14,16,18,20,22,24,26,28,30,32,34,36,38,-1,40,42,44,46,48,50,-1,52,54,56,58,60,62,-1,64,66,68,70,72,74,-1,76,78,80,82,84,86,88,-1,90,92,94,96,98,100,102,-1,104,106,-1,-1,-1,-1,-1,-1,-1,-1,-1,-1,-1,-1,-1,-1,-1,-1,-1,-1,-1,-1,-1,-1,-1,-1,-1,-1,-1,-1,-1,-1,-1,-1,-1,-1,-1,-1,-1,-1,-1,-1,-1,-1,-1,-1,-1,-1,-1,-1],"split_conditions":[-2.9546663E-1,-1.1547148E0,-5.528264E-1,8.89752E-1,-4.9406993E-1,9.6706384E-1,2.2281127E-1,-4.6774164E-1,1.5421681E-1,-7.5518125E-1,-5.528264E-1,2.188197E0,2.1715832E0,1.297097E0,-4.5272017E-1,-4.9406993E-1,-1.6033585E0,-4.6774164E-1,9.143115E-2,-1.2738477E-1,-4.5272017E-1,1.3667697E0,-4.5272017E-1,-1.6033585E0,2.2928925E0,9.925471E-1,1.0155153E-1,1.5742477E0,-4.5272017E-1,9.925471E-1,2.2982696E-1,-7.5518125E-1,2.188197E0,-1.3804752E-1,4.1910076E-1,-7.5518125E-1,2.528376E0,-4.944563E-2,-4.6774164E-1,-1.6033585E0,-1.3483483E-1,7.368134E-1,1.7835195E-1,2.0692192E-1,2.2281127E-1,7.368134E-1,-1.9172789E0,-1.6033585E0,-1.3100451E-1,2.188197E0,1.2624959E0,6.818889E-1,6.703739E-1,9.925471E-1,1.528691E0,2.2928925E0,-1.3095719E-1,2.414222E0,1.528691E0,-1.2737136E-1,-1.6135405E-1,-4.4158098E-1,-7.656289E-2,-2.0984626E0,-6.303856E-1,-1.2719467E-1,-1.7479979E-1,-1.385014E0,-1.2919769E-1,1.0287328E-1,-1.5991502E-1,-1.4706056E-1,-1.1406653E0,-1.1933684E-1,-1.6212332E-1,-1.1500248E0,-3.1299487E-1,-8.0638736E-1,9.43706E-2,-3.7594575E-1,-1.9790092E-1,-1.8585443E-1,-1.4102168E-1,-1.5764663E-1,-1.127915E-1,-7.933931E-1,1.02941476E-1,-1.224342E-1,-2.1162207E-1,-2.2175036E-1,-8.766745E-2,-1.4323483E-1,-1.2584738E-1,8.515638E-2,-2.88509E-1,-4.5573258E-1,-8.3265625E-2,-2.1019669E-1,-1.3342303E-1,-1.4472917E-1,-1.2039884E-1,-2.2318545E-1,-1.1924374E-1,-1.5045868E-1,4.64687E-2,-1.4521399E-1,-1.1982199E-1],"split_indices":[3,13,13,10,3,11,7,3,23,3,13,2,21,0,13,3,10,3,4,0,13,15,13,10,2,11,0,12,13,11,7,3,2,0,11,3,9,12,3,10,0,11,25,7,7,11,29,10,0,2,11,24,24,11,13,2,0,3,13,0,0,0,0,0,0,0,0,0,0,0,0,0,0,0,0,0,0,0,0,0,0,0,0,0,0,0,0,0,0,0,0,0,0,0,0,0,0,0,0,0,0,0,0,0,0,0,0],"split_type":[0,0,0,0,0,0,0,0,0,0,0,0,0,0,0,0,0,0,0,0,0,0,0,0,0,0,0,0,0,0,0,0,0,0,0,0,0,0,0,0,0,0,0,0,0,0,0,0,0,0,0,0,0,0,0,0,0,0,0,0,0,0,0,0,0,0,0,0,0,0,0,0,0,0,0,0,0,0,0,0,0,0,0,0,0,0,0,0,0,0,0,0,0,0,0,0,0,0,0,0,0,0,0,0,0,0,0],"sum_hessian":[3.1666492E6,2.233452E4,3.1443148E6,1.0496036E4,1.1838482E4,2.9672528E6,1.7706205E5,8.0649713E2,9.689539E3,1.0281012E4,1.5574708E3,2.966782E6,4.7069534E2,1.7230914E5,4.752917E3,7.631265E2,4.3370598E1,1.2428196E2,9.565257E3,7.496685E3,2.7843267E3,1.5275366E2,1.4047172E3,2.9665248E6,2.5714056E2,4.15605E2,5.509034E1,1.6863603E5,3.6731091E3,1.4517123E2,4.6077456E3,7.4530383E2,1.7822718E1,8.961767E0,3.440883E1,1.18112175E2,6.1697865E0,9.526291E3,3.8966053E1,7.018693E2,2.0824573E3,1.14226776E2,3.8526894E1,6.211493E1,1.3426022E3,1.8902525E2,2.9663358E6,3.7799316E1,2.1934123E2,3.2787827E1,3.8281717E2,1.682168E5,4.1922104E2,1.4636824E2,3.526741E3,1.1330517E2,3.1866062E1,1.2016819E2,4.4875776E3,4.7821628E2,2.6708752E2,1.6459146E1,1.3635695E0,2.0648924E1,1.3759907E1,7.914205E1,3.8970123E1,3.441942E0,2.7278445E0,9.510212E3,1.6079716E1,3.7285915E1,1.6801376E0,1.7684916E1,6.841844E2,8.943723E1,2.478954E1,1.4889863E0,3.7037907E1,4.1675247E1,2.0439682E1,9.558503E2,3.8675195E2,1.764791E2,1.2546161E1,1.5037228E1,2.9663208E6,6.277797E0,3.152152E1,3.0617817E1,2.1700106E0,2.4963078E2,1.3318639E2,1.6762548E5,5.9131165E2,3.5948166E2,5.9739376E1,1.2399647E2,2.2371777E1,3.3790369E3,1.4770403E2,1.00931625E2,1.2373543E1,8.161187E1,3.8556316E1,4.298323E3,1.892542E2],"tree_param":{"num_deleted":"0","num_feature":"30","num_nodes":"107","size_leaf_vector":"1"}},{"base_weights":[9.961159E-1,-4.0321058E-1,1.0062808E0,7.3309433E-1,-1.3876382E0,1.0252095E0,7.063697E-1,-1.7776098E0,9.6826404E-1,-1.2808306E0,-2.16637E0,1.0260279E0,8.2993224E-2,7.642206E-1,-1.4086349E0,-1.3459779E0,-4.143193E0,-1.744371E0,1.0064124E0,-1.24106504E-1,-1.377993E0,-5.368833E0,-1.7231762E0,-1.4519732E0,1.0262094E0,7.817366E-1,-2.7854972E0,8.119136E-1,-1.4378456E0,-4.1925893E0,-1.3835394E0,-1.24073565E-1,-1.5233186E-1,-1.303586E-1,-4.363318E0,-1.3492082E0,-4.939158E0,-1.7073839E0,1.0215684E0,-1.5736709E0,-1.312682E-1,-6.9849415E0,4.7436506E-1,-3.1167521E0,-1.6681244E0,-1.4986192E-1,-1.1911347E-1,-2.0590777E0,1.0263426E0,-3.47809E0,9.992209E-1,-6.578706E0,-1.5742923E0,-3.2839544E0,8.250563E-1,-4.87408E0,-1.3984828E0,-5.3029957E0,-1.2738204E-1,-8.6856645E-1,-1.3973985E0,-4.5311815E-1,-1.6215663E-1,-1.2373965E-1,-1.5382443E-1,-6.0536104E-1,-1.5469113E-1,-1.3071355E-1,-6.580395E-1,1.02667406E-1,-2.0042518E-1,-1.5251206E-1,-2.1647862E-1,-7.642769E-1,-1.5698054E-1,-6.8837374E-1,9.593086E-2,-3.5892734E-1,-1.9227497E-1,-1.7795037E-1,-1.3775848E-1,-2.0740323E-1,-8.851039E-2,1.0265137E-1,-9.038746E-2,-6.8464136E-1,-1.349366E-1,-5.9516126E-1,1.02436066E-1,-7.769091E-1,-1.3204199E-1,-2.8842622E-1,-1.3810484E-1,-3.8008624E-1,-2.1776898E-1,-3.524756E-1,8.3638E-2,-5.3593063E-1,-1.147966E-1,-1.818881E-1,-1.3796102E-1,-6.909451E-1,-1.2020003E-1,-1.4177746E-1,5.4543465E-2,-1.7940012E-1,-1.3839832E-1],"categories":[],"categories_nodes":[],"categories_segments":[],"categories_sizes":[],"default_left":[0,0,0,0,0,0,0,0,0,0,0,0,0,0,0,0,0,0,0,0,0,0,0,0,0,0,0,0,0,0,0,0,0,0,0,0,0,0,0,0,0,0,0,0,0,0,0,0,0,0,0,0,0,0,0,0,0,0,0,0,0,0,0,0,0,0,0,0,0,0,0,0,0,0,0,0,0,0,0,0,0,0,0,0,0,0,0,0,0,0,0,0,0,0,0,0,0,0,0,0,0,0,0,0,0,0,0],"id":14,"left_children":[1,3,5,7,9,11,13,15,17,19,21,23,25,27,29,31,33,35,37,-1,39,41,43,45,47,49,51,53,55,57,59,-1,-1,-1,61,63,65,67,69,71,-1,73,75,77,79,-1,-1,81,83,85,87,89,91,93,95,97,99,101,-1,103,105,-1,-1,-1,-1,-1,-1,-1,-1,-1,-1,-1,-1,-1,-1,-1,-1,-1,-1,-1,-1,-1,-1,-1,-1,-1,-1,-1,-1,-1,-1,-1,-1,-1,-1,-1,-1,-1,-1,-1,-1,-1,-1,-1,-1,-1,-1],"loss_changes":[4.09515E4,2.3227229E4,1.62255E4,5.6929243E3,9.225918E2,2.07275E3,2.0763586E4,8.376904E2,9.1385156E2,3.6100586E1,1.8932539E3,1.209E3,4.680683E3,1.7348219E4,3.098662E2,1.1172974E1,7.366943E1,1.481138E2,3.5926855E2,0E0,3.413867E1,1.5376675E3,8.524951E1,6.121826E-1,1.10625E3,1.7431115E3,2.0912651E3,8.705695E3,4.668501E2,1.2247333E2,3.075586E1,0E0,0E0,0E0,4.6683594E1,4.317627E-1,4.0233215E1,8.628717E1,1.3560547E2,1.6899536E1,0E0,4.416255E2,1.3555765E2,1.7726929E1,3.431958E1,0E0,0E0,2.0645142E-1,8.88E2,6.463689E2,3.1841638E2,6.807617E2,8.412048E1,2.875415E2,7.940789E3,6.482703E1,2.497168E1,1.7990277E2,0E0,9.398901E1,2.071582E1,0E0,0E0,0E0,0E0,0E0,0E0,0E0,0E0,0E0,0E0,0E0,0E0,0E0,0E0,0E0,0E0,0E0,0E0,0E0,0E0,0E0,0E0,0E0,0E0,0E0,0E0,0E0,0E0,0E0,0E0,0E0,0E0,0E0,0E0,0E0,0E0,0E0,0E0,0E0,0E0,0E0,0E0,0E0,0E0,0E0,0E0],"parents":[2147483647,0,0,1,1,2,2,3,3,4,4,5,5,6,6,7,7,8,8,9,9,10,10,11,11,12,12,13,13,14,14,15,15,16,16,17,17,18,18,20,20,21,21,22,22,23,23,24,24,25,25,26,26,27,27,28,28,29,29,30,30,34,34,35,35,36,36,37,37,38,38,39,39,41,41,42,42,43,43,44,44,47,47,48,48,49,49,50,50,51,51,52,52,53,53,54,54,55,55,56,56,57,57,59,59,60,60],"right_children":[2,4,6,8,10,12,14,16,18,20,22,24,26,28,30,32,34,36,38,-1,40,42,44,46,48,50,52,54,56,58,60,-1,-1,-1,62,64,66,68,70,72,-1,74,76,78,80,-1,-1,82,84,86,88,90,92,94,96,98,100,102,-1,104,106,-1,-1,-1,-1,-1,-1,-1,-1,-1,-1,-1,-1,-1,-1,-1,-1,-1,-1,-1,-1,-1,-1,-1,-1,-1,-1,-1,-1,-1,-1,-1,-1,-1,-1,-1,-1,-1,-1,-1,-1,-1,-1,-1,-1,-1,-1],"split_conditions":[-2.9546663E-1,-1.1547148E0,-5.968684E-1,8.89752E-1,-4.6774164E-1,7.368134E-1,2.2281127E-1,-4.9406993E-1,1.5421681E-1,-7.5518125E-1,-5.528264E-1,-1.6033585E0,-3.795488E-2,1.297097E0,-5.528264E-1,-7.5518125E-1,-1.6033585E0,-4.9406993E-1,9.616071E-2,-1.24106504E-1,-4.7095296E-1,1.3667697E0,-4.7095296E-1,2.2928925E0,-1.297215E0,-2.0529066E-1,9.212063E-1,-1.6692325E0,-5.528264E-1,2.188197E0,2.2982696E-1,-1.24073565E-1,-1.5233186E-1,-1.303586E-1,1.00591E0,-7.5518125E-1,7.031009E-1,-4.9406993E-1,5.9271854E-1,-4.9406993E-1,-1.312682E-1,1.00591E0,1.7835195E-1,2.0692192E-1,2.2281127E-1,-1.4986192E-1,-1.1911347E-1,2.188197E0,2.1016295E0,9.6706384E-1,1.0799637E-1,2.188197E0,9.6706384E-1,1.528691E0,-1.0473038E0,9.212063E-1,-4.5272017E-1,9.6706384E-1,-1.2738204E-1,1.217175E0,-4.5272017E-1,-4.5311815E-1,-1.6215663E-1,-1.2373965E-1,-1.5382443E-1,-6.0536104E-1,-1.5469113E-1,-1.3071355E-1,-6.580395E-1,1.02667406E-1,-2.0042518E-1,-1.5251206E-1,-2.1647862E-1,-7.642769E-1,-1.5698054E-1,-6.8837374E-1,9.593086E-2,-3.5892734E-1,-1.9227497E-1,-1.7795037E-1,-1.3775848E-1,-2.0740323E-1,-8.851039E-2,1.0265137E-1,-9.038746E-2,-6.8464136E-1,-1.349366E-1,-5.9516126E-1,1.02436066E-1,-7.769091E-1,-1.3204199E-1,-2.8842622E-1,-1.3810484E-1,-3.8008624E-1,-2.1776898E-1,-3.524756E-1,8.3638E-2,-5.3593063E-1,-1.147966E-1,-1.818881E-1,-1.3796102E-1,-6.909451E-1,-1.2020003E-1,-1.4177746E-1,5.4543465E-2,-1.7940012E-1,-1.3839832E-1],"split_indices":[3,13,13,10,3,11,7,3,23,3,13,10,12,0,13,3,10,3,20,0,13,15,13,2,23,14,11,29,13,2,7,0,0,0,23,3,11,3,23,3,0,23,25,7,7,0,0,2,2,11,25,2,11,13,21,11,13,11,0,11,13,0,0,0,0,0,0,0,0,0,0,0,0,0,0,0,0,0,0,0,0,0,0,0,0,0,0,0,0,0,0,0,0,0,0,0,0,0,0,0,0,0,0,0,0,0,0],"split_type":[0,0,0,0,0,0,0,0,0,0,0,0,0,0,0,0,0,0,0,0,0,0,0,0,0,0,0,0,0,0,0,0,0,0,0,0,0,0,0,0,0,0,0,0,0,0,0,0,0,0,0,0,0,0,0,0,0,0,0,0,0,0,0,0,0,0,0,0,0,0,0,0,0,0,0,0,0,0,0,0,0,0,0,0,0,0,0,0,0,0,0,0,0,0,0,0,0,0,0,0,0,0,0,0,0,0,0],"sum_hessian":[2.8790125E6,2.076246E4,2.85825E6,9.637893E3,1.1124569E4,2.6885602E6,1.6968978E5,8.248733E2,8.81302E3,9.785126E3,1.3394427E3,2.686227E6,2.3331892E3,1.6517252E5,4.5172617E3,6.9891583E2,1.2595747E2,1.2160005E2,8.691419E3,6.95318E3,2.831946E3,1.614817E2,1.177961E3,1.960269E2,2.686031E6,1.8767533E3,4.5643597E2,1.6167161E5,3.5009019E3,3.8872772E1,4.478389E3,4.4363712E2,2.552787E2,9.559695E0,1.1639777E2,1.0948071E2,1.2119339E1,4.7650486E1,8.643769E3,7.0289923E2,2.1290469E3,1.2634255E2,3.5139153E1,4.2652187E1,1.1353088E3,1.6226372E2,3.3763187E1,1.15322716E2,2.6859158E6,9.043459E1,1.7863187E3,1.0939743E2,3.4703854E2,5.163126E2,1.611553E5,3.8258316E1,3.4626436E3,2.7568027E1,1.1304745E1,1.19033485E2,4.3593555E3,1.09067474E2,7.330304E0,7.353294E1,3.5947773E1,8.531838E0,3.5875008E0,4.520572E1,2.444766E0,8.629868E3,1.3900711E1,6.528578E2,5.0041393E1,1.1229022E2,1.4052326E1,1.3568337E0,3.378232E1,2.9121426E1,1.3530761E1,8.1698895E2,3.1831992E2,1.1311513E2,2.2075882E0,2.6856782E6,2.3759448E2,3.416245E1,5.6272144E1,5.587909E0,1.7807308E3,8.881398E1,2.058345E1,4.282298E1,3.0421558E2,3.5023E2,1.660826E2,4.1763165E2,1.6073767E5,3.3462425E1,4.79589E0,1.4466942E2,3.317974E3,1.931649E1,8.251538E0,8.5731926E1,3.3301556E1,1.3829077E2,4.221065E3],"tree_param":{"num_deleted":"0","num_feature":"30","num_nodes":"107","size_leaf_vector":"1"}},{"base_weights":[9.9140555E-1,-3.9140597E-1,1.0016415E0,7.263897E-1,-1.33671E0,1.0217865E0,6.890351E-1,-1.648289E0,9.6370435E-1,-1.2473322E0,-1.9415162E0,1.0226268E0,8.961716E-2,7.456743E-1,-1.3557351E0,-1.3026078E0,-3.1582077E0,-1.6323984E0,1.0024867E0,-1.2128984E-1,-1.3304124E0,-3.496755E0,-1.5748664E0,-1.3911854E-1,1.0228103E0,7.72888E-1,-2.3863602E0,8.4799445E-1,-2.7495494E-1,-3.435065E0,-1.3337935E0,-1.2123622E-1,-1.449952E-1,-1.2515056E-1,-3.2726858E0,-1.3052903E-1,-3.648662E0,1.0165069E0,-1.8754598E0,-1.4926914E0,-1.2748876E-1,-4.085851E0,3.5074082E-1,-1.6657175E0,-1.329994E-1,-1.8625109E-1,1.0229471E0,-2.7927685E0,9.947771E-1,-4.3805027E0,-1.4962397E0,8.558523E-1,-6.201981E0,-4.310411E0,5.373424E-1,-4.1053133E0,-1.2307482E-1,-8.3016527E-1,-1.3474658E0,-3.355072E-1,-1.5227023E-1,-3.990977E-1,-8.792282E-2,1.0219484E-1,-1.3798785E-1,-1.3130139E-1,-4.4383708E-1,-1.4517643E-1,-1.9630957E-1,-4.4775224E-1,-2.7548072E-1,-4.5715663E-1,9.644785E-2,-1.7561729E-1,-1.3078496E-1,1.0230302E-1,-3.5647902E-1,-4.371193E-1,-1.3055298E-1,-5.048659E-1,1.0206226E-1,-4.840714E-1,-1.2770654E-1,-2.2343414E-1,-1.2847959E-1,8.6071275E-2,-9.4147825E-1,-7.272079E-1,-1.9578654E-1,-1.1195654E0,-1.351242E-1,-1.615551E-1,9.640567E-2,-5.0296485E-1,-1.3283984E-1,4.37703E-2,-1.4135788E-1,-1.722285E-1,-1.3369888E-1],"categories":[],"categories_nodes":[],"categories_segments":[],"categories_sizes":[],"default_left":[0,0,0,0,0,0,0,0,0,0,0,0,0,0,0,0,0,0,0,0,0,0,0,0,0,0,0,0,0,0,0,0,0,0,0,0,0,0,0,0,0,0,0,0,0,0,0,0,0,0,0,0,0,0,0,0,0,0,0,0,0,0,0,0,0,0,0,0,0,0,0,0,0,0,0,0,0,0,0,0,0,0,0,0,0,0,0,0,0,0,0,0,0,0,0,0,0,0,0],"id":15,"left_children":[1,3,5,7,9,11,13,15,17,19,21,23,25,27,29,31,33,35,37,-1,39,41,43,-1,45,47,49,51,53,55,57,-1,-1,-1,59,-1,61,63,65,67,-1,69,71,73,-1,-1,75,77,79,81,83,85,87,89,91,93,-1,95,97,-1,-1,-1,-1,-1,-1,-1,-1,-1,-1,-1,-1,-1,-1,-1,-1,-1,-1,-1,-1,-1,-1,-1,-1,-1,-1,-1,-1,-1,-1,-1,-1,-1,-1,-1,-1,-1,-1,-1,-1],"loss_changes":[3.704175E4,2.032037E4,1.63585E4,4.967391E3,5.608008E2,1.91175E3,1.8215305E4,4.139497E2,8.082832E2,2.4364258E1,7.584263E2,1.082E3,3.7221985E3,1.5981648E4,1.8883154E2,6.9311523E0,2.8320312E1,7.326309E1,3.2044336E2,0E0,2.1979004E1,5.78864E2,2.1943115E1,0E0,9.635E2,1.3669637E3,8.3810645E2,7.710547E3,4.5713055E4,5.9411255E1,2.7777832E1,0E0,0E0,0E0,1.5000488E1,0E0,1.1618393E1,1.0385986E2,4.9848297E1,1.0045776E1,0E0,1.0288672E2,1.09385025E2,2.3215332E1,0E0,0E0,9.33E2,2.3203656E2,2.5880896E2,2.0282227E2,4.8712708E1,6.943828E3,6.896079E2,4.759449E4,1.0666428E4,7.8101135E1,0E0,8.4590904E1,1.373584E1,0E0,0E0,0E0,0E0,0E0,0E0,0E0,0E0,0E0,0E0,0E0,0E0,0E0,0E0,0E0,0E0,0E0,0E0,0E0,0E0,0E0,0E0,0E0,0E0,0E0,0E0,0E0,0E0,0E0,0E0,0E0,0E0,0E0,0E0,0E0,0E0,0E0,0E0,0E0,0E0],"parents":[2147483647,0,0,1,1,2,2,3,3,4,4,5,5,6,6,7,7,8,8,9,9,10,10,11,11,12,12,13,13,14,14,15,15,16,16,17,17,18,18,20,20,21,21,22,22,24,24,25,25,26,26,27,27,28,28,29,29,30,30,34,34,36,36,37,37,38,38,39,39,41,41,42,42,43,43,46,46,47,47,48,48,49,49,50,50,51,51,52,52,53,53,54,54,55,55,57,57,58,58],"right_children":[2,4,6,8,10,12,14,16,18,20,22,24,26,28,30,32,34,36,38,-1,40,42,44,-1,46,48,50,52,54,56,58,-1,-1,-1,60,-1,62,64,66,68,-1,70,72,74,-1,-1,76,78,80,82,84,86,88,90,92,94,-1,96,98,-1,-1,-1,-1,-1,-1,-1,-1,-1,-1,-1,-1,-1,-1,-1,-1,-1,-1,-1,-1,-1,-1,-1,-1,-1,-1,-1,-1,-1,-1,-1,-1,-1,-1,-1,-1,-1,-1,-1,-1],"split_conditions":[-2.9546663E-1,-1.1547148E0,-5.968684E-1,8.89752E-1,-4.6774164E-1,7.368134E-1,2.2281127E-1,-4.9406993E-1,1.5421681E-1,-7.5518125E-1,-4.7095296E-1,-1.6033585E0,-3.795488E-2,1.1269214E0,-5.528264E-1,-7.5518125E-1,-1.6033585E0,-4.9406993E-1,9.143115E-2,-1.2128984E-1,-4.7095296E-1,1.3667697E0,2.2281127E-1,-1.3911854E-1,-1.297215E0,-2.0529066E-1,9.212063E-1,1.304773E0,2.3743905E-2,2.188197E0,2.2982696E-1,-1.2123622E-1,-1.449952E-1,-1.2515056E-1,1.00591E0,-1.3052903E-1,3.8440037E0,2.620508E-1,-4.9406993E-1,-4.9406993E-1,-1.2748876E-1,-5.742137E-1,3.8208675E-1,1.297097E0,-1.329994E-1,-1.8625109E-1,1.00591E0,9.6706384E-1,1.0799637E-1,2.188197E0,9.925471E-1,1.7325712E0,6.818889E-1,1.297097E0,1.2145578E-2,8.985884E-1,-1.2307482E-1,-1.1902617E0,-4.7095296E-1,-3.355072E-1,-1.5227023E-1,-3.990977E-1,-8.792282E-2,1.0219484E-1,-1.3798785E-1,-1.3130139E-1,-4.4383708E-1,-1.4517643E-1,-1.9630957E-1,-4.4775224E-1,-2.7548072E-1,-4.5715663E-1,9.644785E-2,-1.7561729E-1,-1.3078496E-1,1.0230302E-1,-3.5647902E-1,-4.371193E-1,-1.3055298E-1,-5.048659E-1,1.0206226E-1,-4.840714E-1,-1.2770654E-1,-2.2343414E-1,-1.2847959E-1,8.6071275E-2,-9.4147825E-1,-7.272079E-1,-1.9578654E-1,-1.1195654E0,-1.351242E-1,-1.615551E-1,9.640567E-2,-5.0296485E-1,-1.3283984E-1,4.37703E-2,-1.4135788E-1,-1.722285E-1,-1.3369888E-1],"split_indices":[3,13,13,10,3,11,7,3,23,3,13,10,12,0,13,3,10,3,4,0,13,15,7,0,23,14,11,29,4,2,7,0,0,0,23,0,9,9,3,3,0,13,6,0,0,0,23,11,25,2,11,14,24,0,27,11,0,14,13,0,0,0,0,0,0,0,0,0,0,0,0,0,0,0,0,0,0,0,0,0,0,0,0,0,0,0,0,0,0,0,0,0,0,0,0,0,0,0,0],"split_type":[0,0,0,0,0,0,0,0,0,0,0,0,0,0,0,0,0,0,0,0,0,0,0,0,0,0,0,0,0,0,0,0,0,0,0,0,0,0,0,0,0,0,0,0,0,0,0,0,0,0,0,0,0,0,0,0,0,0,0,0,0,0,0,0,0,0,0,0,0,0,0,0,0,0,0,0,0,0,0,0,0,0,0,0,0,0,0,0,0,0,0,0,0,0,0,0,0,0,0],"sum_hessian":[2.6169672E6,1.9228895E4,2.5977385E6,8.810709E3,1.0418187E4,2.4404678E6,1.5727067E5,7.999635E2,8.0107456E3,9.079488E3,1.3386984E3,2.4382698E6,2.1980989E3,1.5303238E5,4.2382935E3,6.5245337E2,1.4751013E2,1.1730382E2,7.893442E3,6.430057E3,2.6494307E3,2.5376254E2,1.0849358E3,1.8483247E2,2.4380848E6,1.723241E3,4.7485782E2,1.3908864E5,1.3943744E4,4.263211E1,4.195661E3,4.103498E2,2.4210355E2,9.030703E0,1.3847943E2,1.0234697E2,1.4956852E1,7.855818E3,3.762364E1,6.688225E2,1.9806082E3,2.200139E2,3.3748646E1,7.871061E2,2.9782977E2,1.14896614E2,2.43797E6,1.0027537E2,1.6229657E3,1.4533707E2,3.2952075E2,1.3893466E5,1.5397682E2,2.3357146E3,1.1608029E4,3.203047E1,1.060164E1,1.1252322E2,4.0831382E3,1.3137723E2,7.102205E0,1.2918932E1,2.03792E0,7.838593E3,1.7225168E1,3.209296E1,5.530678E0,6.1904877E2,4.977373E1,1.681658E2,5.184809E1,3.026527E0,3.072212E1,6.251776E2,1.6192845E2,2.4379265E6,4.3372234E1,4.7705654E1,5.2569717E1,6.0836697E0,1.616882E3,1.26080666E2,1.92564E1,7.124696E1,2.582738E2,1.3886986E5,6.480297E1,1.2240147E2,3.157536E1,7.0126465E2,1.63445E3,1.9197194E3,9.688311E3,2.3422674E1,8.607798E0,3.553931E1,7.69839E1,1.0658633E2,3.9765518E3],"tree_param":{"num_deleted":"0","num_feature":"30","num_nodes":"99","size_leaf_vector":"1"}},{"base_weights":[9.870478E-1,-3.8172117E-1,9.9734706E-1,7.20107E-1,-1.2944007E0,1.0189999E0,6.797301E-1,-1.5507464E0,9.5927715E-1,-1.2185419E0,-1.777773E0,1.0192842E0,-1.6756595E0,7.3479664E-1,-1.3422078E0,-1.2657441E0,-2.6204734E0,-1.5427926E0,9.986093E-1,-1.18854724E-1,-1.290102E0,-2.7956123E0,-1.4954611E0,1.0200117E0,1.3067266E-1,-6.8181043E0,-1.3160573E0,7.805588E-1,-1.3887721E0,-3.83181E0,-1.2913036E0,-1.1877888E-1,-1.3893552E-1,-1.205525E-1,-2.6917098E0,-1.2692855E-1,-2.9204993E0,-1.5304593E0,1.0143982E0,-1.4262699E0,-1.24248944E-1,-3.1909935E0,3.3236536E-1,-1.5695179E0,-1.2894645E-1,1.0200828E0,-5.081731E0,8.0646795E-1,-2.1779869E0,-1.2326061E-1,-1.102102E1,-1.6830395E-1,-1.2449628E-1,-4.4670415E0,7.906227E-1,-9.87851E0,-1.3558589E0,-4.842087E0,-1.3551489E-1,-7.914373E-1,-1.3050977E0,-2.5274706E-1,-3.4864226E-1,-3.1187484E-1,-8.483609E-2,-1.24033645E-1,-3.3158588E-1,1.020085E-1,-1.8247207E-1,-1.391274E-1,-1.8085141E-1,-3.2834122E-1,-1.2772867E-1,-3.5650137E-1,9.569045E-2,-1.6424048E-1,-1.2692012E-1,-1.7167833E-1,1.0202177E-1,-8.79615E-2,-5.453837E-1,-2.4320078E-1,9.966885E-2,-3.5260734E-1,-1.4453144E-1,-1.6560472E0,-2.337704E-1,-5.536121E-1,-1.9982196E-1,7.996621E-2,-4.3602768E-1,-2.1048236E0,-4.5113522E-1,-3.4860405E-1,-1.3024725E-1,-6.17063E-1,-1.2425522E-1,4.292704E-2,-1.3808261E-1,-1.5887934E-1,-1.2948467E-1],"categories":[],"categories_nodes":[],"categories_segments":[],"categories_sizes":[],"default_left":[0,0,0,0,0,0,0,0,0,0,0,0,0,0,0,0,0,0,0,0,0,0,0,0,0,0,0,0,0,0,0,0,0,0,0,0,0,0,0,0,0,0,0,0,0,0,0,0,0,0,0,0,0,0,0,0,0,0,0,0,0,0,0,0,0,0,0,0,0,0,0,0,0,0,0,0,0,0,0,0,0,0,0,0,0,0,0,0,0,0,0,0,0,0,0,0,0,0,0,0,0],"id":16,"left_children":[1,3,5,7,9,11,13,15,17,19,21,23,25,27,29,31,33,35,37,-1,39,41,43,45,47,49,51,53,55,57,59,-1,-1,-1,61,-1,63,65,67,69,-1,71,73,75,-1,77,79,81,83,-1,85,-1,-1,87,89,91,93,95,-1,97,99,-1,-1,-1,-1,-1,-1,-1,-1,-1,-1,-1,-1,-1,-1,-1,-1,-1,-1,-1,-1,-1,-1,-1,-1,-1,-1,-1,-1,-1,-1,-1,-1,-1,-1,-1,-1,-1,-1,-1,-1],"loss_changes":[3.352775E4,1.786298E4,1.62335E4,4.3724727E3,3.5408008E2,1.6945E3,1.6775172E4,2.3059387E2,7.1814404E2,1.6498047E1,3.7388232E2,1.428E3,4.228164E2,1.4253578E4,5.0129346E2,4.206238E0,1.2930054E1,3.890616E1,2.878423E2,0E0,1.4238281E1,3.529602E2,1.3722412E1,9.645E2,2.8230947E3,3.3905383E2,3.63089E0,7.585625E3,8.512046E2,1.9243579E2,2.596875E1,0E0,0E0,0E0,1.1023804E1,0E0,4.7334595E0,1.9134605E1,1.1690869E2,5.95166E0,0E0,4.0499268E1,8.333548E1,1.4433228E1,0E0,8.16E2,3.5750732E1,8.646072E2,3.9961377E2,0E0,3.675348E2,0E0,0E0,7.1466406E2,6.675367E3,6.118683E2,3.4611377E2,2.6061182E2,0E0,7.808318E1,9.021484E0,0E0,0E0,0E0,0E0,0E0,0E0,0E0,0E0,0E0,0E0,0E0,0E0,0E0,0E0,0E0,0E0,0E0,0E0,0E0,0E0,0E0,0E0,0E0,0E0,0E0,0E0,0E0,0E0,0E0,0E0,0E0,0E0,0E0,0E0,0E0,0E0,0E0,0E0,0E0,0E0],"parents":[2147483647,0,0,1,1,2,2,3,3,4,4,5,5,6,6,7,7,8,8,9,9,10,10,11,11,12,12,13,13,14,14,15,15,16,16,17,17,18,18,20,20,21,21,22,22,23,23,24,24,25,25,26,26,27,27,28,28,29,29,30,30,34,34,36,36,37,37,38,38,39,39,41,41,42,42,43,43,45,45,46,46,47,47,48,48,50,50,53,53,54,54,55,55,56,56,57,57,59,59,60,60],"right_children":[2,4,6,8,10,12,14,16,18,20,22,24,26,28,30,32,34,36,38,-1,40,42,44,46,48,50,52,54,56,58,60,-1,-1,-1,62,-1,64,66,68,70,-1,72,74,76,-1,78,80,82,84,-1,86,-1,-1,88,90,92,94,96,-1,98,100,-1,-1,-1,-1,-1,-1,-1,-1,-1,-1,-1,-1,-1,-1,-1,-1,-1,-1,-1,-1,-1,-1,-1,-1,-1,-1,-1,-1,-1,-1,-1,-1,-1,-1,-1,-1,-1,-1,-1,-1],"split_conditions":[-2.9546663E-1,-1.1547148E0,-6.438942E-1,8.89752E-1,-4.6774164E-1,2.1016295E0,2.2281127E-1,-4.9406993E-1,1.5421681E-1,-7.5518125E-1,-4.7095296E-1,7.368134E-1,2.188197E0,1.297097E0,-5.528264E-1,-7.5518125E-1,-1.6033585E0,-4.9406993E-1,9.616071E-2,-1.18854724E-1,-4.7095296E-1,1.3667697E0,2.2281127E-1,3.8440037E0,-6.9086075E-2,-1.6033585E0,2.2928925E0,-9.241179E-1,-6.1957914E-1,9.212063E-1,2.2982696E-1,-1.1877888E-1,-1.3893552E-1,-1.205525E-1,4.1910076E-1,-1.2692855E-1,3.8440037E0,-4.9406993E-1,5.9271854E-1,-4.9406993E-1,-1.24248944E-1,1.00591E0,1.3017676E0,1.297097E0,-1.2894645E-1,-1.297215E0,-1.3542854E0,-1.7427482E-1,9.212063E-1,-1.2326061E-1,7.368134E-1,-1.6830395E-1,-1.2449628E-1,6.818889E-1,1.1355472E0,-1.08494915E-1,-5.528264E-1,2.188197E0,-1.3551489E-1,-3.4707233E-1,-4.5272017E-1,-2.5274706E-1,-3.4864226E-1,-3.1187484E-1,-8.483609E-2,-1.24033645E-1,-3.3158588E-1,1.020085E-1,-1.8247207E-1,-1.391274E-1,-1.8085141E-1,-3.2834122E-1,-1.2772867E-1,-3.5650137E-1,9.569045E-2,-1.6424048E-1,-1.2692012E-1,-1.7167833E-1,1.0202177E-1,-8.79615E-2,-5.453837E-1,-2.4320078E-1,9.966885E-2,-3.5260734E-1,-1.4453144E-1,-1.6560472E0,-2.337704E-1,-5.536121E-1,-1.9982196E-1,7.996621E-2,-4.3602768E-1,-2.1048236E0,-4.5113522E-1,-3.4860405E-1,-1.3024725E-1,-6.17063E-1,-1.2425522E-1,4.292704E-2,-1.3808261E-1,-1.5887934E-1,-1.2948467E-1],"split_indices":[3,13,13,10,3,2,7,3,23,3,13,11,2,0,13,3,10,3,20,0,13,15,7,9,12,10,2,23,13,11,7,0,0,0,11,0,9,3,23,3,0,23,10,0,0,23,23,14,11,0,11,0,0,24,17,12,13,2,0,28,13,0,0,0,0,0,0,0,0,0,0,0,0,0,0,0,0,0,0,0,0,0,0,0,0,0,0,0,0,0,0,0,0,0,0,0,0,0,0,0,0],"split_type":[0,0,0,0,0,0,0,0,0,0,0,0,0,0,0,0,0,0,0,0,0,0,0,0,0,0,0,0,0,0,0,0,0,0,0,0,0,0,0,0,0,0,0,0,0,0,0,0,0,0,0,0,0,0,0,0,0,0,0,0,0,0,0,0,0,0,0,0,0,0,0,0,0,0,0,0,0,0,0,0,0,0,0,0,0,0,0,0,0,0,0,0,0,0,0,0,0,0,0,0,0],"sum_hessian":[2.3782685E6,1.7761299E4,2.360507E6,8.0469116E3,9.714387E3,2.2098522E6,1.506548E5,7.662356E2,7.280676E3,8.399688E3,1.3146978E3,2.2096198E6,2.3249629E2,1.4666119E5,3.9936123E3,6.06762E2,1.5947359E2,1.1208829E2,7.1685874E3,5.9312183E3,2.4684707E3,2.835374E2,1.0311604E3,2.2078125E6,1.80734E3,1.4021632E1,2.1847467E2,1.4356798E5,3.0932053E3,7.8531815E1,3.9150806E3,3.786042E2,2.2815782E2,8.503036E0,1.5097055E2,9.512503E1,1.696325E1,4.3880417E1,7.124707E3,6.3201196E2,1.8364587E3,2.5170178E2,3.1835634E1,7.536136E2,2.7754678E2,2.2077875E6,2.4931923E1,1.398592E3,4.087479E2,6.5758624E0,7.44577E0,3.1776169E1,1.866985E2,2.7396213E2,1.4329402E5,1.0790292E1,3.082415E3,5.510028E1,2.3431532E1,1.0670468E2,3.808376E3,1.2857832E2,2.2392235E1,1.5021048E1,1.9422022E0,3.92045E1,4.6759186E0,7.1111045E3,1.3602764E1,5.832527E2,4.8759262E1,2.3942357E2,1.2278221E1,3.746668E0,2.8088966E1,6.028363E2,1.5077731E2,1.0810925E2,2.2076795E6,2.3018217E0,2.2630102E1,7.693863E1,1.3216534E3,1.4258498E2,2.6616293E2,3.991967E0,3.4538028E0,1.9030952E2,8.3652596E1,1.4304384E5,2.5018259E2,2.5538146E0,8.236478E0,7.379044E1,3.0086245E3,3.972427E1,1.537601E1,3.483276E1,7.1871925E1,1.27441635E2,3.6809343E3],"tree_param":{"num_deleted":"0","num_feature":"30","num_nodes":"101","size_leaf_vector":"1"}},{"base_weights":[9.825799E-1,-3.7352222E-1,9.9292785E-1,7.144511E-1,-1.2583344E0,1.016074E0,6.613518E-1,-1.4749736E0,9.552874E-1,-1.1936442E0,-1.6501795E0,1.0168761E0,8.948784E-2,7.1497107E-1,-1.299845E0,-1.2341559E0,-2.2857347E0,-1.4695506E0,9.951395E-1,-1.16738215E-1,-1.2556635E0,-2.3539937E0,-1.4298326E0,1.0171078E0,-1.6211195E0,7.8450274E-1,-1.9077871E0,8.1653845E-1,-2.4115385E-1,-4.6543336E0,-1.2683135E0,-1.16638206E-1,-1.3386582E-1,-2.1549892E0,-2.9004953E0,-1.2378577E-1,-2.4692783E0,-1.4607537E0,1.0111921E0,-1.3710393E0,-1.21453024E-1,-2.6485534E0,3.158632E-1,-1.4910563E0,-1.25467E-1,1.017162E0,-6.151721E0,-4.3868575E0,-1.2981169E0,-2.123728E0,9.9073076E-1,-2.5846467E0,-1.2537127E0,8.287156E-1,-3.0566714E0,-3.5305886E0,5.31459E-1,-7.9852524E0,-1.5512855E0,-2.2011495E0,-1.2548006E0,-1.14113525E-1,-2.1932852E-1,-3.2298714E-1,-1.2907854E-1,-2.5979605E-1,-8.194704E-2,-1.210376E-1,-2.7033845E-1,1.01699464E-1,-1.7176417E-1,-1.3407493E-1,-1.686723E-1,-2.7065012E-1,-1.2305589E-1,9.495273E-2,-2.938118E-1,-1.5507582E-1,-1.2360176E-1,-1.4144668E-1,1.0173195E-1,-8.3401375E-2,-6.643107E-1,-1.1870708E-1,-5.818078E-1,-1.632668E-1,-1.2285884E-1,-2.7870098E-1,-1.2081929E-1,-4.138557E-1,1.01571076E-1,-2.7024198E-1,-1.1982441E-1,-1.5331483E-1,-1.2161174E-1,8.3345555E-2,-9.0417165E-1,-1.0682606E0,-2.659348E-1,-6.52134E-1,-1.2823988E-1,-1.5731762E-1,9.4927676E-2,-1.1811744E0,-1.1306242E-1,-1.965829E-1,-1.0984707E-1,-2.402542E-1,-1.155104E-1,-7.553483E-2,-1.2688504E-1],"categories":[],"categories_nodes":[],"categories_segments":[],"categories_sizes":[],"default_left":[0,0,0,0,0,0,0,0,0,0,0,0,0,0,0,0,0,0,0,0,0,0,0,0,0,0,0,0,0,0,0,0,0,0,0,0,0,0,0,0,0,0,0,0,0,0,0,0,0,0,0,0,0,0,0,0,0,0,0,0,0,0,0,0,0,0,0,0,0,0,0,0,0,0,0,0,0,0,0,0,0,0,0,0,0,0,0,0,0,0,0,0,0,0,0,0,0,0,0,0,0,0,0,0,0,0,0,0,0,0,0],"id":17,"left_children":[1,3,5,7,9,11,13,15,17,19,21,23,25,27,29,31,33,35,37,-1,39,41,43,45,47,49,51,53,55,57,59,-1,-1,61,63,-1,65,67,69,71,-1,73,75,77,-1,79,81,83,85,87,89,91,93,95,97,99,101,103,105,107,109,-1,-1,-1,-1,-1,-1,-1,-1,-1,-1,-1,-1,-1,-1,-1,-1,-1,-1,-1,-1,-1,-1,-1,-1,-1,-1,-1,-1,-1,-1,-1,-1,-1,-1,-1,-1,-1,-1,-1,-1,-1,-1,-1,-1,-1,-1,-1,-1,-1,-1],"loss_changes":[3.033075E4,1.5758127E4,1.64615E4,3.8728394E3,2.2686328E2,1.49025E3,1.4719508E4,1.3931494E2,6.407119E2,1.115918E1,1.9460742E2,1.226625E3,2.410442E3,1.3230836E4,3.8812012E2,2.4292603E0,7.0549927E0,2.1812225E1,2.5807324E2,0E0,9.216064E0,2.3898584E2,8.58252E0,7.82125E2,1.5190631E2,7.7465393E2,1.9522058E2,5.8113203E3,3.325372E4,3.4229785E2,4.377588E1,0E0,0E0,2.9483032E0,9.691055E0,0E0,1.9462662E0,1.0005569E1,1.0414795E2,3.4263916E0,0E0,1.9088501E1,6.667554E1,9.000122E0,0E0,7.69E2,3.4286133E1,7.565662E1,1.7016602E0,4.862094E1,1.5840613E2,3.2579468E1,5.5093384E-1,5.7515547E3,1.1417827E3,1.6725088E4,9.319181E3,4.144165E2,1.4083405E0,8.051086E0,2.4594238E1,0E0,0E0,0E0,0E0,0E0,0E0,0E0,0E0,0E0,0E0,0E0,0E0,0E0,0E0,0E0,0E0,0E0,0E0,0E0,0E0,0E0,0E0,0E0,0E0,0E0,0E0,0E0,0E0,0E0,0E0,0E0,0E0,0E0,0E0,0E0,0E0,0E0,0E0,0E0,0E0,0E0,0E0,0E0,0E0,0E0,0E0,0E0,0E0,0E0,0E0],"parents":[2147483647,0,0,1,1,2,2,3,3,4,4,5,5,6,6,7,7,8,8,9,9,10,10,11,11,12,12,13,13,14,14,15,15,16,16,17,17,18,18,20,20,21,21,22,22,23,23,24,24,25,25,26,26,27,27,28,28,29,29,30,30,33,33,34,34,36,36,37,37,38,38,39,39,41,41,42,42,43,43,45,45,46,46,47,47,48,48,49,49,50,50,51,51,52,52,53,53,54,54,55,55,56,56,57,57,58,58,59,59,60,60],"right_children":[2,4,6,8,10,12,14,16,18,20,22,24,26,28,30,32,34,36,38,-1,40,42,44,46,48,50,52,54,56,58,60,-1,-1,62,64,-1,66,68,70,72,-1,74,76,78,-1,80,82,84,86,88,90,92,94,96,98,100,102,104,106,108,110,-1,-1,-1,-1,-1,-1,-1,-1,-1,-1,-1,-1,-1,-1,-1,-1,-1,-1,-1,-1,-1,-1,-1,-1,-1,-1,-1,-1,-1,-1,-1,-1,-1,-1,-1,-1,-1,-1,-1,-1,-1,-1,-1,-1,-1,-1,-1,-1,-1,-1],"split_conditions":[-2.9546663E-1,-1.1547148E0,-6.438942E-1,8.89752E-1,-4.6774164E-1,7.368134E-1,2.2281127E-1,-4.9406993E-1,1.5421681E-1,-7.5518125E-1,-4.7095296E-1,2.1016295E0,-6.9086075E-2,1.1269214E0,-5.968684E-1,-7.5518125E-1,4.1910076E-1,-4.9406993E-1,9.616071E-2,-1.16738215E-1,-4.7095296E-1,1.3667697E0,2.2281127E-1,1.6041956E0,2.188197E0,-1.4497595E-1,9.6706384E-1,6.574606E-1,2.3743905E-2,7.197151E-1,-5.528264E-1,-1.16638206E-1,-1.3386582E-1,-1.6033585E0,1.00591E0,-1.2378577E-1,3.8440037E0,-4.9406993E-1,5.9271854E-1,-4.9406993E-1,-1.21453024E-1,1.00591E0,-1.1160332E0,1.297097E0,-1.25467E-1,-1.6033585E0,-1.6656857E0,-1.6033585E0,2.2928925E0,9.6706384E-1,9.969612E-1,2.188197E0,9.925471E-1,1.7358708E0,6.818889E-1,1.297097E0,1.2145578E-2,2.188197E0,9.925471E-1,2.188197E0,2.2982696E-1,-1.14113525E-1,-2.1932852E-1,-3.2298714E-1,-1.2907854E-1,-2.5979605E-1,-8.194704E-2,-1.210376E-1,-2.7033845E-1,1.01699464E-1,-1.7176417E-1,-1.3407493E-1,-1.686723E-1,-2.7065012E-1,-1.2305589E-1,9.495273E-2,-2.938118E-1,-1.5507582E-1,-1.2360176E-1,-1.4144668E-1,1.0173195E-1,-8.3401375E-2,-6.643107E-1,-1.1870708E-1,-5.818078E-1,-1.632668E-1,-1.2285884E-1,-2.7870098E-1,-1.2081929E-1,-4.138557E-1,1.01571076E-1,-2.7024198E-1,-1.1982441E-1,-1.5331483E-1,-1.2161174E-1,8.3345555E-2,-9.0417165E-1,-1.0682606E0,-2.659348E-1,-6.52134E-1,-1.2823988E-1,-1.5731762E-1,9.4927676E-2,-1.1811744E0,-1.1306242E-1,-1.965829E-1,-1.0984707E-1,-2.402542E-1,-1.155104E-1,-7.553483E-2,-1.2688504E-1],"split_indices":[3,13,13,10,3,11,7,3,23,3,13,2,12,0,13,3,11,3,20,0,13,15,7,29,2,14,11,24,4,11,13,0,0,10,23,0,9,3,23,3,0,23,13,0,0,10,10,10,2,11,3,2,11,9,24,0,27,2,11,2,7,0,0,0,0,0,0,0,0,0,0,0,0,0,0,0,0,0,0,0,0,0,0,0,0,0,0,0,0,0,0,0,0,0,0,0,0,0,0,0,0,0,0,0,0,0,0,0,0,0,0],"split_type":[0,0,0,0,0,0,0,0,0,0,0,0,0,0,0,0,0,0,0,0,0,0,0,0,0,0,0,0,0,0,0,0,0,0,0,0,0,0,0,0,0,0,0,0,0,0,0,0,0,0,0,0,0,0,0,0,0,0,0,0,0,0,0,0,0,0,0,0,0,0,0,0,0,0,0,0,0,0,0,0,0,0,0,0,0,0,0,0,0,0,0,0,0,0,0,0,0,0,0,0,0,0,0,0,0,0,0,0,0,0,0],"sum_hessian":[2.161365E6,1.6367561E4,2.1449975E6,7.3410854E3,9.026475E3,2.005032E6,1.3996548E5,7.269861E2,6.6140996E3,7.750913E3,1.2755613E3,2.0032976E6,1.7343815E3,1.3624128E5,3.7242107E3,5.624466E2,1.6453952E2,1.063646E2,6.507735E3,5.459088E3,2.2918254E3,3.018223E2,9.73739E2,2.0031222E6,1.7541759E2,1.2871012E3,4.472803E2,1.2315852E5,1.3082758E4,3.3315525E1,3.690895E3,3.4855576E2,2.1389082E2,1.3939821E2,2.5141321E1,8.816908E1,1.8195515E1,4.167609E1,6.4660586E3,5.938336E2,1.6979918E3,2.7183887E2,2.9983435E1,7.1597504E2,2.5776398E2,2.003108E6,1.4241464E1,1.7028452E1,1.5838913E2,8.4611435E1,1.2024897E3,2.1836098E2,2.2891933E2,1.2277331E5,3.8520667E2,2.4876982E3,1.059506E4,1.5308981E1,1.8006544E1,5.0390804E1,3.6405044E3,6.194747E0,1.3320346E2,2.0035252E1,5.106069E0,1.6345861E1,1.8496538E0,3.633E1,5.346086E0,6.4529644E3,1.3094262E1,5.4663104E2,4.7202522E1,2.602931E2,1.1545776E1,2.5689068E1,4.2943664E0,5.7604785E2,1.3992715E2,1.2920584E2,2.0029788E6,1.4328313E0,1.2808632E1,5.8280544E0,1.1200398E1,2.338508E1,1.3500404E2,4.7879692E1,3.6731743E1,5.029733E0,1.19746E3,2.0038895E2,1.7972033E1,2.242917E1,2.0649016E2,1.227153E5,5.8014183E1,1.7794054E1,3.6741263E2,1.0667318E3,1.4209664E3,1.7545021E3,8.840558E3,9.360466E0,5.9485145E0,7.6561384E0,1.0350406E1,4.1168045E1,9.222759E0,1.0110491E2,3.5393994E3],"tree_param":{"num_deleted":"0","num_feature":"30","num_nodes":"111","size_leaf_vector":"1"}},{"base_weights":[9.784644E-1,-3.6646712E-1,9.888545E-1,7.091812E-1,-1.2274517E0,1.0133401E0,6.456843E-1,-1.4125704E0,9.515074E-1,-1.1719979E0,-1.5493277E0,1.0141608E0,8.9513265E-2,6.980328E-1,-1.2607622E0,-1.2068988E0,-2.047144E0,-1.408609E0,9.9183893E-1,-1.1489009E-1,-1.2260307E0,-2.045535E0,-1.3697432E0,1.0143964E0,-1.5266702E0,7.768367E-1,-1.7556994E0,7.978748E-1,-2.214138E-1,-3.5348725E0,-1.2337736E0,-1.1456632E-1,-1.2927939E-1,-1.9338126E0,-2.5686696E0,-1.21022575E-1,-2.1630638E0,1.007076E0,-1.5985115E0,-1.3245869E0,-1.190262E-1,-2.2703102E0,3.0087224E-1,-1.4198481E0,-1.22265935E-1,1.0157901E0,6.8066144E-1,-3.2719855E0,-1.2618947E0,-1.9136693E0,9.8680913E-1,-2.2478375E0,-1.2239041E-1,8.0585915E-1,-5.1994944E0,-2.979154E0,5.2305806E-1,-5.022123E0,-1.473704E0,-1.9974229E0,-1.2218534E0,-1.1027079E-1,-1.9614778E-1,-2.8120542E-1,-1.22987725E-1,-2.2527638E-1,-7.9230405E-2,-1.1718165E-1,1.0137246E-1,-1.2271645E-1,-2.5396267E-1,-1.2980944E-1,-1.5885815E-1,-2.3755346E-1,-1.7896383E-1,9.4050914E-2,-2.4884634E-1,-1.4684023E-1,-1.20575145E-1,-6.359909E-1,1.0158465E-1,-3.531347E0,8.7659664E-2,-1.140993E-1,-3.9302298E-1,-1.5348445E-1,-1.2009057E-1,-2.3731473E-1,-1.1810978E-1,-3.5476074E-1,1.0126882E-1,-2.3280041E-1,-1.1685313E-1,-3.2215036E-2,8.4658496E-2,-5.670064E-1,-2.1655881E-1,-4.70638E-1,-1.2518202E-1,-1.7831902E-1,8.9833304E-2,-6.2250966E-1,-1.0942644E-1,-1.7962559E-1,-1.0721572E-1,-2.1476868E-1,-1.1232146E-1,-6.891351E-2,-1.23787045E-1],"categories":[],"categories_nodes":[],"categories_segments":[],"categories_sizes":[],"default_left":[0,0,0,0,0,0,0,0,0,0,0,0,0,0,0,0,0,0,0,0,0,0,0,0,0,0,0,0,0,0,0,0,0,0,0,0,0,0,0,0,0,0,0,0,0,0,0,0,0,0,0,0,0,0,0,0,0,0,0,0,0,0,0,0,0,0,0,0,0,0,0,0,0,0,0,0,0,0,0,0,0,0,0,0,0,0,0,0,0,0,0,0,0,0,0,0,0,0,0,0,0,0,0,0,0,0,0,0,0],"id":18,"left_children":[1,3,5,7,9,11,13,15,17,19,21,23,25,27,29,31,33,35,37,-1,39,41,43,45,47,49,51,53,55,57,59,-1,-1,61,63,-1,65,67,69,71,-1,73,75,77,-1,79,81,83,85,87,89,91,-1,93,95,97,99,101,103,105,107,-1,-1,-1,-1,-1,-1,-1,-1,-1,-1,-1,-1,-1,-1,-1,-1,-1,-1,-1,-1,-1,-1,-1,-1,-1,-1,-1,-1,-1,-1,-1,-1,-1,-1,-1,-1,-1,-1,-1,-1,-1,-1,-1,-1,-1,-1,-1,-1],"loss_changes":[2.7441625E4,1.3943583E4,1.63735E4,3.4429858E3,1.474414E2,1.37875E3,1.2953172E4,8.7131836E1,5.733032E2,7.5E0,1.0643408E2,1.09E3,2.0499602E3,1.1595836E4,2.0853564E2,1.2588501E0,4.88031E0,1.2553116E1,2.3478906E2,0E0,5.9055176E0,1.7142139E2,4.9196777E0,8.44375E2,7.3957825E1,6.671487E2,1.120614E2,5.460328E3,2.5405477E4,1.15670654E2,2.8779297E1,0E0,0E0,1.0770264E0,5.2403564E0,0E0,6.5380096E-1,8.628125E1,9.092468E0,1.8286743E0,0E0,1.0696777E1,5.4408512E1,5.1677246E0,0E0,7.58625E2,5.3345895E4,2.585675E1,6.263275E-1,2.6006348E1,1.3185242E2,1.6890015E1,0E0,5.227758E3,2.0419043E2,7.842039E3,8.435018E3,1.0141815E2,4.3688583E-1,4.3050995E0,2.798291E1,0E0,0E0,0E0,0E0,0E0,0E0,0E0,0E0,0E0,0E0,0E0,0E0,0E0,0E0,0E0,0E0,0E0,0E0,0E0,0E0,0E0,0E0,0E0,0E0,0E0,0E0,0E0,0E0,0E0,0E0,0E0,0E0,0E0,0E0,0E0,0E0,0E0,0E0,0E0,0E0,0E0,0E0,0E0,0E0,0E0,0E0,0E0,0E0],"parents":[2147483647,0,0,1,1,2,2,3,3,4,4,5,5,6,6,7,7,8,8,9,9,10,10,11,11,12,12,13,13,14,14,15,15,16,16,17,17,18,18,20,20,21,21,22,22,23,23,24,24,25,25,26,26,27,27,28,28,29,29,30,30,33,33,34,34,36,36,37,37,38,38,39,39,41,41,42,42,43,43,45,45,46,46,47,47,48,48,49,49,50,50,51,51,53,53,54,54,55,55,56,56,57,57,58,58,59,59,60,60],"right_children":[2,4,6,8,10,12,14,16,18,20,22,24,26,28,30,32,34,36,38,-1,40,42,44,46,48,50,52,54,56,58,60,-1,-1,62,64,-1,66,68,70,72,-1,74,76,78,-1,80,82,84,86,88,90,92,-1,94,96,98,100,102,104,106,108,-1,-1,-1,-1,-1,-1,-1,-1,-1,-1,-1,-1,-1,-1,-1,-1,-1,-1,-1,-1,-1,-1,-1,-1,-1,-1,-1,-1,-1,-1,-1,-1,-1,-1,-1,-1,-1,-1,-1,-1,-1,-1,-1,-1,-1,-1,-1,-1],"split_conditions":[-2.9546663E-1,-1.1547148E0,-6.438942E-1,8.89752E-1,-4.6774164E-1,7.368134E-1,2.2281127E-1,-4.9406993E-1,1.5421681E-1,-7.5518125E-1,-4.5272017E-1,2.1016295E0,-6.9086075E-2,1.1269214E0,-5.968684E-1,-7.7685094E-1,4.1910076E-1,-4.9406993E-1,9.143115E-2,-1.1489009E-1,-4.7095296E-1,1.3667697E0,2.2281127E-1,1.9223678E0,2.188197E0,-1.4497595E-1,9.6706384E-1,1.8538762E0,2.3743905E-2,7.197151E-1,-5.528264E-1,-1.1456632E-1,-1.2927939E-1,-1.6033585E0,1.00591E0,-1.21022575E-1,3.8440037E0,-7.9983884E-1,-4.9406993E-1,-4.9406993E-1,-1.190262E-1,-5.528264E-1,-1.1160332E0,1.297097E0,-1.22265935E-1,-1.9172789E0,-3.0009496E-1,-1.6033585E0,2.2928925E0,9.6706384E-1,9.969612E-1,2.188197E0,-1.2239041E-1,3.981055E-2,6.4509654E-1,1.297097E0,-5.971586E-3,2.188197E0,9.925471E-1,2.188197E0,2.2982696E-1,-1.1027079E-1,-1.9614778E-1,-2.8120542E-1,-1.22987725E-1,-2.2527638E-1,-7.9230405E-2,-1.1718165E-1,1.0137246E-1,-1.2271645E-1,-2.5396267E-1,-1.2980944E-1,-1.5885815E-1,-2.3755346E-1,-1.7896383E-1,9.4050914E-2,-2.4884634E-1,-1.4684023E-1,-1.20575145E-1,-6.359909E-1,1.0158465E-1,-3.531347E0,8.7659664E-2,-1.140993E-1,-3.9302298E-1,-1.5348445E-1,-1.2009057E-1,-2.3731473E-1,-1.1810978E-1,-3.5476074E-1,1.0126882E-1,-2.3280041E-1,-1.1685313E-1,-3.2215036E-2,8.4658496E-2,-5.670064E-1,-2.1655881E-1,-4.70638E-1,-1.2518202E-1,-1.7831902E-1,8.9833304E-2,-6.2250966E-1,-1.0942644E-1,-1.7962559E-1,-1.0721572E-1,-2.1476868E-1,-1.1232146E-1,-6.891351E-2,-1.23787045E-1],"split_indices":[3,13,13,10,3,11,7,3,23,3,13,2,12,0,13,3,11,3,4,0,13,15,7,0,2,14,11,18,4,11,13,0,0,10,23,0,9,3,3,3,0,13,13,0,0,29,10,10,2,11,3,2,0,3,24,0,26,2,11,2,7,0,0,0,0,0,0,0,0,0,0,0,0,0,0,0,0,0,0,0,0,0,0,0,0,0,0,0,0,0,0,0,0,0,0,0,0,0,0,0,0,0,0,0,0,0,0,0,0],"split_type":[0,0,0,0,0,0,0,0,0,0,0,0,0,0,0,0,0,0,0,0,0,0,0,0,0,0,0,0,0,0,0,0,0,0,0,0,0,0,0,0,0,0,0,0,0,0,0,0,0,0,0,0,0,0,0,0,0,0,0,0,0,0,0,0,0,0,0,0,0,0,0,0,0,0,0,0,0,0,0,0,0,0,0,0,0,0,0,0,0,0,0,0,0,0,0,0,0,0,0,0,0,0,0,0,0,0,0,0,0],"sum_hessian":[1.9637251E6,1.5054029E4,1.9486711E6,6.6927695E3,8.361259E3,1.8188891E6,1.2978193E5,6.855372E2,6.0072324E3,7.1364185E3,1.224841E3,1.8172749E6,1.6142836E3,1.2631414E5,3.4677866E3,5.199259E2,1.6561125E2,1.0036152E2,5.906871E3,5.0149688E3,2.1214495E3,3.227272E2,9.021138E2,1.8171069E6,1.6797623E2,1.1765933E3,4.3769034E2,1.1394145E5,1.2372685E4,3.914773E1,3.428639E3,3.1190375E2,2.0802216E2,1.3991475E2,2.5696495E1,8.152792E1,1.8833595E1,5.872936E3,3.3934757E1,5.5531586E2,1.5661337E3,2.945437E2,2.8183498E1,6.6643616E2,2.3567764E2,1.8095482E6,7.5587036E3,2.0630304E1,1.4734593E2,8.458895E1,1.0920043E3,2.2564513E2,2.1204523E2,1.1379083E5,1.506248E2,2.6294468E3,9.743237E3,2.1905287E1,1.7242447E1,5.013677E1,3.3785022E3,5.823593E0,1.3409116E2,2.0812468E1,4.8840275E0,1.7072933E1,1.7606624E0,1.733275E1,5.8556035E3,2.5985353E1,7.949403E0,5.100484E2,4.526748E1,2.3841083E2,5.6132877E1,2.3465357E1,4.718142E0,5.384617E2,1.2797447E2,1.296164E1,1.8095352E6,3.9952915E1,7.5187505E3,5.5136995E0,1.5116604E1,2.2497015E1,1.2484891E2,5.0607704E1,3.398125E1,5.424702E0,1.0865796E3,2.0896696E2,1.6678164E1,3.9649192E3,1.09825914E5,1.2964717E2,2.097763E1,1.3139021E3,1.3155447E3,1.3630259E3,8.380212E3,1.6321644E1,5.5836425E0,7.6356177E0,9.606829E0,4.1539932E1,8.596835E0,9.990028E1,3.2786018E3],